{"spike_times": [190.5, 215.3, 236.3, 261.4, 496.4, 512.7, 530.0, 548.5, 567.5, 586.9, 607.6, 637.1, 668.8, 688.0, 706.4, 724.8, 743.3, 761.8, 780.4, 799.2, 819.1, 984.4, 1140.1, 1163.6, 1182.4, 1202.6, 1234.2, 1545.4, 1562.5, 1579.0, 1597.5, 1623.6, 1792.2, 1811.6, 1829.7, 1849.3, 1875.7, 1946.4], "locations": [[0.46, 0.1, 0.01, 0.73, 0.76], [0.05, 0.74, 0.55, 0.43, 0.49], [0.59, 0.69, 0.09, 0.59, 0.2], [0.12, 0.62, 0.24, 0.39, 0.38], [0.46, 0.77, 0.34, 0.03, 0.63], [0.42, 0.99, 0.36, 0.81, 0.2], [0.98, 0.89, 0.46, 0.82, 0.19], [0.88, 0.57, 0.44, 0.71, 0.33], [0.98, 0.98, 0.07, 0.35, 0.83], [0.9, 0.34, 0.88, 0.4, 0.33], [0.63, 0.82, 0.37, 0.2, 0.47], [0.31, 0.21, 0.79, 0.35, 0.76], [0.09, 0.64, 0.23, 0.75, 0.16], [0.09, 0.8, 0.25, 0.19, 0.88], [0.79, 0.76, 0.34, 0.19, 0.64], [0.47, 0.53, 0.48, 0.64, 0.29], [0.77, 0.48, 0.63, 0.04, 0.44], [0.75, 0.2, 0.9, 0.62, 0.48], [0.76, 0.37, 0.24, 0.19, 0.21], [0.94, 0.74, 0.07, 0.45, 0.95], [0.96, 0.78, 0.59, 0.52, 0.78], [0.92, 0.57, 0.74, 0.34, 0.77], [0.83, 0.3, 0.91, 0.76, 0.89], [0.41, 0.76, 0.92, 0.17, 0.63], [0.64, 0.25, 0.41, 0.61, 0.29], [0.73, 0.99, 0.92, 0.47, 0.78], [0.27, 0.69, 0.66, 0.27, 1.0], [0.1, 0.41, 0.1, 0.17, 0.24], [0.74, 0.35, 0.27, 0.26, 0.64], [0.69, 0.42, 0.6, 0.38, 0.21], [0.14, 0.01, 0.97, 0.0, 0.22], [0.76, 0.18, 0.87, 0.55, 0.35], [0.55, 0.79, 0.66, 0.17, 0.16], [0.91, 0.65, 0.6, 0.99, 0.82], [0.23, 0.88, 0.84, 0.81, 0.08], [0.21, 0.11, 0.75, 0.23, 0.97], [0.58, 0.58, 0.92, 1.0, 0.3], [0.51, 0.86, 0.91, 0.04, 0.46], [0.35, 0.9, 0.57, 0.02, 0.88], [0.75, 0.3, 0.65, 0.03, 0.78], [0.1, 0.27, 0.46, 0.48, 0.51], [0.98, 0.34, 0.38, 0.29, 0.8], [0.02, 0.15, 0.22, 0.92, 0.38], [0.31, 0.09, 0.46, 0.62, 0.26], [0.4, 0.54, 0.52, 0.92, 0.66], [0.38, 0.58, 0.59, 0.8, 0.16], [0.63, 0.02, 0.42, 0.21, 0.58], [0.04, 0.56, 0.02, 0.96, 0.95], [0.68, 0.15, 0.94, 0.72, 0.0], [0.5, 0.53, 0.65, 0.49, 0.2]], "bias_ideal": 0.94022354863002344, "bias": -0.0705890617072327, "bio_idx": 9, "A_actual": [53.14815312714422, 52.58248356905855, 52.73318342835837, 52.44021738271108, 52.06583690847326, 51.72667285279928, 51.44884866263502, 51.49212252263807, 51.01135304618555, 50.90804685817135, 50.91939879810534, 49.825795801870115, 50.59463634808389, 52.69910394971719, 51.42565822115502, 50.86218310980597, 50.645029873598006, 50.304617118873495, 49.89778197943273, 49.80035541689955, 49.20600754754576, 48.01068540546754, 46.824571325000335, 46.15627731098154, 45.42675984638808, 45.17550172922127, 44.43832400687975, 43.86006844851773, 43.314352141258325, 42.60483844991069, 42.13693018785828, 41.46930345042621, 41.32507859214633, 40.44675264502425, 40.175900698885464, 39.84593081613405, 38.86765355743783, 38.83372600847912, 38.56570319906587, 38.01230102891179, 37.78856235994075, 37.47025605124072, 37.565391629959834, 36.61563069678153, 36.92222066608665, 36.949730373688396, 36.35896914962554, 35.996880806752245, 36.66411301698285, 36.31912782471035, 35.646144737812676, 35.98402446428266, 35.50931838304527, 34.80420487780872, 35.96468196649328, 36.69472170057527, 36.70044341565432, 35.808033136638265, 35.08866111589578, 34.388397213291725, 33.33073686803001, 32.93966726671639, 32.423908467997684, 31.277117836096572, 30.796847022904053, 28.827377683008898, 28.793455295313418, 25.754185527678512, 24.960491570153177, 24.680138952123425, 23.368685934186754, 22.758013217445132, 21.957367687694294, 20.561376895921025, 19.348764376677792, 18.730202747752756, 17.440429694472112, 16.747180081076557, 15.099165691532262, 15.126054684523533, 11.546903551496774, 15.42367687977601, 19.04114795103974, 14.717449407863496, 11.66729411008153, 11.858883949367398, 11.441211706693467, 10.831075021532454, 11.413322747679718, 11.416269576158141, 9.412672926508934, 9.85342760852309, 9.664226682495217, 10.030066080116116, 8.27610886296282, 8.306793295953794, 8.204595361241244, 7.8362981245525285, 6.99190049836047, 7.071313915203678, 6.966674949294196, 5.815641414980098, 5.610669567054689, 5.7124861292069395, 5.222456632989132, 4.798024691887664, 4.343352736867124, 4.4390275742099465, 4.085637568786037, 3.4842867015175334, 3.6000166308555945, 3.4209624893544355, 2.881295620798066, 2.8890272912553145, 2.7297743179791767, 2.235492301627597, 2.4043124283315978, 2.2442953473936544, 2.026940883170801, 1.646572253996237, 1.7824481271118773, 1.6107823241177928, 1.4158496284645787, 1.3536413834738605, 1.2954046313776628, 0.3026651669507451, 0.5211453199560627, 0.47665597379772595, 0.5564876567601337, 0.5534637274851606, 0.41738800158259404, 0.4912660585994874, 0.5003389542735421, 0.35384626756130744, 0.42463778808077424, 0.39383513043525525, 0.29229416799669705, 0.331355271395299, 0.3274068549801505, 0.2228826887431392, 0.2764715419504115, 0.23538966940116093, 0.17068726962913977, 0.1950091402017701, 0.16160801734887864, 0.10623917550071345, 0.10161046001857817, 0.2016193490749979, 0.14363713515841772, 0.16739939555857303, 0.13432986689884777, 0.10462212677562682, 0.051247440966285196, 0.25117071025379967, 0.22076558909515243, 0.1763674357196038, 0.20179930470875718, 0.1875757666061119, 0.13562495555602377, 0.15752669143646394, 0.15594892764773605, 0.13728309358966354, 0.10071803643756398, 0.118662182555757, 0.1081242043638521, 0.08004190376143258, 0.09080401001969571, 0.08606113262909702, 0.08300071250116611, 0.05382357928445998, 0.06859345478281126, 0.06261522994715643, 0.05511612778761141, 0.0511447681990902, 0.035567590489317145, 0.04262701369071975, 0.038872526086477684, 0.037326631767999496, 0.03259707836564833, 0.020620301642935705, 0.029008536401563284, 0.025053465865706972, 0.022282662266277547, 0.01934548331283815, 0.01858394744884033, 0.015745637223005256, 0.01166803200284571, 0.012861010502336161, 0.012438128304421698, 0.010786883012507263, 0.010102548576165396, 0.008566016077291651, 0.007836457750979076, 0.007205357630346991, 0.006318854219600655, 0.005467553895333176, 0.0049694546749794585, 0.0043654070060508724, 0.003846983860281184, 0.0], "loss": 2.7179935323315196, "x_sample": [-1.0, -0.99, -0.98, -0.97, -0.96, -0.95, -0.94, -0.9299999999999999, -0.9199999999999999, -0.9099999999999999, -0.8999999999999999, -0.8899999999999999, -0.8799999999999999, -0.8699999999999999, -0.8599999999999999, -0.8499999999999999, -0.8399999999999999, -0.8299999999999998, -0.8199999999999998, -0.8099999999999998, -0.7999999999999998, -0.7899999999999998, -0.7799999999999998, -0.7699999999999998, -0.7599999999999998, -0.7499999999999998, -0.7399999999999998, -0.7299999999999998, -0.7199999999999998, -0.7099999999999997, -0.6999999999999997, -0.6899999999999997, -0.6799999999999997, -0.6699999999999997, -0.6599999999999997, -0.6499999999999997, -0.6399999999999997, -0.6299999999999997, -0.6199999999999997, -0.6099999999999997, -0.5999999999999996, -0.5899999999999996, -0.5799999999999996, -0.5699999999999996, -0.5599999999999996, -0.5499999999999996, -0.5399999999999996, -0.5299999999999996, -0.5199999999999996, -0.5099999999999996, -0.49999999999999956, -0.48999999999999955, -0.47999999999999954, -0.46999999999999953, -0.4599999999999995, -0.4499999999999995, -0.4399999999999995, -0.4299999999999995, -0.4199999999999995, -0.4099999999999995, -0.39999999999999947, -0.38999999999999946, -0.37999999999999945, -0.36999999999999944, -0.35999999999999943, -0.3499999999999994, -0.3399999999999994, -0.3299999999999994, -0.3199999999999994, -0.3099999999999994, -0.2999999999999994, -0.28999999999999937, -0.27999999999999936, -0.26999999999999935, -0.25999999999999934, -0.24999999999999933, -0.23999999999999932, -0.22999999999999932, -0.2199999999999993, -0.2099999999999993, -0.1999999999999993, -0.18999999999999928, -0.17999999999999927, -0.16999999999999926, -0.15999999999999925, -0.14999999999999925, -0.13999999999999924, -0.12999999999999923, -0.11999999999999922, -0.10999999999999921, -0.0999999999999992, -0.08999999999999919, -0.07999999999999918, -0.06999999999999917, -0.059999999999999165, -0.049999999999999156, -0.03999999999999915, -0.02999999999999914, -0.01999999999999913, -0.00999999999999912, 8.881784197001252e-16, 0.010000000000000897, 0.020000000000000906, 0.030000000000000915, 0.040000000000000924, 0.05000000000000093, 0.06000000000000094, 0.07000000000000095, 0.08000000000000096, 0.09000000000000097, 0.10000000000000098, 0.11000000000000099, 0.120000000000001, 0.130000000000001, 0.140000000000001, 0.15000000000000102, 0.16000000000000103, 0.17000000000000104, 0.18000000000000105, 0.19000000000000106, 0.20000000000000107, 0.21000000000000107, 0.22000000000000108, 0.2300000000000011, 0.2400000000000011, 0.2500000000000011, 0.2600000000000011, 0.27000000000000113, 0.28000000000000114, 0.29000000000000115, 0.30000000000000115, 0.31000000000000116, 0.3200000000000012, 0.3300000000000012, 0.3400000000000012, 0.3500000000000012, 0.3600000000000012, 0.3700000000000012, 0.3800000000000012, 0.39000000000000123, 0.40000000000000124, 0.41000000000000125, 0.42000000000000126, 0.43000000000000127, 0.4400000000000013, 0.4500000000000013, 0.4600000000000013, 0.4700000000000013, 0.4800000000000013, 0.4900000000000013, 0.5000000000000013, 0.5100000000000013, 0.5200000000000014, 0.5300000000000014, 0.5400000000000014, 0.5500000000000014, 0.5600000000000014, 0.5700000000000014, 0.5800000000000014, 0.5900000000000014, 0.6000000000000014, 0.6100000000000014, 0.6200000000000014, 0.6300000000000014, 0.6400000000000015, 0.6500000000000015, 0.6600000000000015, 0.6700000000000015, 0.6800000000000015, 0.6900000000000015, 0.7000000000000015, 0.7100000000000015, 0.7200000000000015, 0.7300000000000015, 0.7400000000000015, 0.7500000000000016, 0.7600000000000016, 0.7700000000000016, 0.7800000000000016, 0.7900000000000016, 0.8000000000000016, 0.8100000000000016, 0.8200000000000016, 0.8300000000000016, 0.8400000000000016, 0.8500000000000016, 0.8600000000000017, 0.8700000000000017, 0.8800000000000017, 0.8900000000000017, 0.9000000000000017, 0.9100000000000017, 0.9200000000000017, 0.9300000000000017, 0.9400000000000017, 0.9500000000000017, 0.9600000000000017, 0.9700000000000017, 0.9800000000000018, 0.9900000000000018], "gain_ideal": 0.84024640716796717, "A_ideal": [54.069463391211144, 53.71414971543051, 53.358836039649866, 53.00352236386923, 52.64820868808859, 52.289547584762694, 51.93058893232167, 51.571630279880644, 51.21267162743961, 50.85050266467621, 50.48770729989869, 50.12491193512116, 49.762116570343636, 49.396258883601426, 49.02940801135716, 48.66255713911289, 48.29570626686862, 47.92595473858287, 47.554796831610325, 47.18363892463778, 46.81248101766524, 46.438601529415784, 46.06284508856156, 45.68708864770733, 45.311332206853095, 44.93305568320737, 44.552359880081795, 44.171664076956226, 43.79096827383066, 43.40798313382265, 43.021945544638044, 42.63590795545344, 42.24987036626884, 41.86181285051512, 41.46995312004309, 41.07809338957105, 40.68623365909902, 40.29267528551537, 39.8944129771611, 39.496150668806834, 39.09788836045257, 38.69831944502591, 38.29294338705527, 37.887567329084625, 37.48219127111398, 37.07599897937115, 36.662623830433034, 36.24924868149491, 35.835873532556796, 35.42231222321003, 34.99981521424815, 34.57731820528628, 34.154821196324406, 33.73232418736253, 33.299897540210566, 32.86682330795925, 32.43374907570794, 32.00067484345662, 31.55687429931253, 31.111286036519637, 30.665697773726745, 30.220109510933852, 29.762751764056507, 29.30198706125998, 28.84122235846345, 28.380457655666923, 27.90651654313087, 27.426762308650908, 26.947008074170945, 26.467253839690983, 25.972344948648683, 25.467838108450234, 24.963331268251785, 24.45882442805334, 23.936206158957226, 23.39756624122088, 22.85892632348453, 22.320286405748178, 21.758672938088385, 21.168864659158924, 20.57905638022946, 19.9892481013, 19.36702112742812, 18.68896195671099, 18.01090278599386, 17.33284361527673, 16.59585075690802, 15.711523679410421, 14.827196601912823, 13.942869524415222, 12.577066492657792, 9.333507239288076, 6.089947985918359, 2.846388732548643, 0.0, 0.0, 0.0, 0.0, 0.0, 0.0, 0.0, 0.0, 0.0, 0.0, 0.0, 0.0, 0.0, 0.0, 0.0, 0.0, 0.0, 0.0, 0.0, 0.0, 0.0, 0.0, 0.0, 0.0, 0.0, 0.0, 0.0, 0.0, 0.0, 0.0, 0.0, 0.0, 0.0, 0.0, 0.0, 0.0, 0.0, 0.0, 0.0, 0.0, 0.0, 0.0, 0.0, 0.0, 0.0, 0.0, 0.0, 0.0, 0.0, 0.0, 0.0, 0.0, 0.0, 0.0, 0.0, 0.0, 0.0, 0.0, 0.0, 0.0, 0.0, 0.0, 0.0, 0.0, 0.0, 0.0, 0.0, 0.0, 0.0, 0.0, 0.0, 0.0, 0.0, 0.0, 0.0, 0.0, 0.0, 0.0, 0.0, 0.0, 0.0, 0.0, 0.0, 0.0, 0.0, 0.0, 0.0, 0.0, 0.0, 0.0, 0.0, 0.0, 0.0, 0.0, 0.0, 0.0, 0.0, 0.0, 0.0, 0.0, 0.0, 0.0, 0.0, 0.0, 0.0, 0.0], "weights": [[0.00022623837424844162, 0.0003599710093630356, -0.00027414957814204005, -0.0006236590001160556, -0.00045973274485664665], [-0.00019186203443533878, -0.0002384743196293664, 0.00046862109407227076, -0.0004939253821794924, 0.00019865834889588624], [0.0005712487500442518, 0.0004044332510554696, -4.262623031618116e-05, -0.0006884639297246324, -3.3748255535328015e-05], [0.00034020032683699966, 0.0004138356288225564, 0.00018862680736964668, 0.000505198042998754, -0.00014699982544184523], [0.0003444686736648178, -0.00010025805656224015, 0.00044682574913507974, 0.00020896663440433662, 0.0006530085295980454], [0.00022989096665636325, 0.0006982077420333058, 4.129047317554272e-05, -0.000131787716506275, 0.00035295596085096006], [0.00040442985368917256, 5.718157141260143e-06, 0.00042610827141183075, -0.0001530619153539106, -0.0003852744270952392], [0.0007419273279037819, -0.00024635774335599145, -0.0005728796888544784, -0.0006110246127843332, 0.00026234453602564186], [8.383250575001768e-05, 0.0007562685201369171, -5.180933365831554e-05, -3.70331974422896e-05, -0.00019851566091184957], [0.0007105513102153539, -0.00024277419998422955, 0.00033077646623510957, 0.00036104434414946206, -5.882136294900791e-05], [-0.00046675801488046595, -0.0005576725389113663, 0.0001684464386127308, -0.00017082142566395513, -0.0005503439296518445], [0.0002595442168157541, -0.0004703634501489727, 0.00030165331284162243, -0.0004567680036663471, -7.167179773030359e-05], [-0.00024465227735496185, 0.00047068875976245036, 0.00037681723911127163, -0.0003303223097687576, -0.00037264028287404465], [0.0004257897709526212, -0.0003106610894512825, 7.793083148434807e-05, 0.00043535817848029624, 6.132704685310171e-05], [0.0003040210058791043, -0.00036675142105311784, -0.00029577001712947606, -0.0004661374637384265, 0.0002379054995791816], [0.00010368817057998844, -0.00034294237669042733, -0.0006625898023127305, 0.00022317542130817557, -0.0003792228722224758], [-0.000488829351835917, 0.0006846360695090478, 0.00011927259612324553, -0.00019926410558589606, 0.0004782438944248144], [-0.0004805430252975184, -0.00015780803011882644, 0.0008200433585965746, -0.00048525048458126184, -0.0006144813546415525], [-0.0005335497145402674, -0.00014132637238056125, -0.0005324717772084693, -6.388453337366254e-05, -0.0005126326278860624], [0.00046293600397742044, -9.12421632529016e-05, 0.0003629155706509332, -0.0004861046503107828, 0.00012654268523704402], [0.0006535925256163653, -0.0006839943971243254, 0.0005230507552868291, -0.00019655311839329937, -0.0004860762564520643], [-0.0007966507117401153, 0.0004953416942776051, 5.308985490862292e-05, 0.0003520289926855952, 0.0002485156757596762], [0.0005623241385025575, -0.00039154747982006737, 0.0008171517386983672, -0.0002103783810040913, -0.0001219170933471684], [-0.00031909139477378904, -0.0005710330078720832, 4.992063526260853e-06, 0.00029811432341528347, -0.0006207494852186654], [-9.044797259340228e-06, 0.0002077957703669693, 0.0006251112223879494, -0.00013433141454843094, 0.0005531681904276259], [-1.657230636067842e-06, 0.0005012548819833784, 0.0004685597784937359, -0.0004512439906427215, 0.00042453876376676795], [-0.00040496782617395526, -0.0003962256255376989, -0.0007403172100787492, -0.00019380900151567027, -0.000398723094708996], [1.7707907035464015e-05, 0.0004395447945563552, -0.00026220401896028564, -0.0003932901773941899, -0.00026451694320550894], [-0.00038593512536942893, -0.0004553386422301937, -0.0005218995275376453, 0.00025189368095797945, 0.00044775381807706134], [-0.00064098636619918, 9.820666695012958e-05, 0.0004321893917330566, 0.00033367032726327686, 1.607657650248148e-05], [0.00021668594460215367, -9.949172254366642e-05, 0.00046204244975230546, -0.0001547674374682866, 5.621643131947963e-05], [0.0004515670350388143, 0.0001554129854934038, -4.4092694027757455e-05, -0.00014490352644499295, 0.00012190224051638216], [-0.0004868956494398759, -0.0004935087123442141, 0.0006584815602808992, -0.00038991971811656157, -0.00021206597854934794], [-0.0002608256449136037, -4.269348299313838e-05, 0.0006207780470968873, 0.0006291185070833702, 0.0005142527673575306], [-0.00010611620644670881, 0.0007582087761204096, -0.0006531876150357151, -0.0007036821227536157, -0.00020525743431964132], [-0.0001718926178678653, 0.0003674520846613555, 0.00029548327306479417, 0.0004906070036587043, 3.151496998039045e-05], [-0.0003661733477595585, 3.0178484806181265e-05, -0.000395123860952922, 0.00026853443363466183, 9.164795386846693e-05], [-0.00026025258385768186, -0.0006137384602665512, 0.0005404995742657468, -7.198003049575437e-05, -0.00022469917663428185], [0.0002994908907459393, 0.0003153921101400122, -0.0005189636748868272, -0.00015102613789720688, 9.815560609012447e-05], [0.0006482789186816231, -0.00041519073076284944, -0.0006426643440496893, -8.131390783960542e-05, -0.0001804446479977958], [0.00021266099209598597, -0.00032663013802693917, 0.00046392988577019425, 0.00042745549367403495, 0.0004913273514619543], [0.0007013173290904127, 0.0004935662348779217, 0.0004855661110517865, 0.00036990320023722024, -0.0005009615412948194], [-0.0004191922422937008, 0.00030208920444235385, -0.0005536402720730725, -0.0005580019294923706, -0.0005394283871229907], [2.3910925236489752e-05, 0.00034310156768617965, -0.00019023814558153995, 0.0005338510412790976, 0.0003763653338943379], [0.00019826044373182802, -0.0003268423793373972, 0.0002318130427930476, 0.0007443017586905218, -0.00028394094909366596], [0.000611294608417709, -0.00031012231425588853, 0.0006459631383455347, 0.00034987643374441256, -0.0002114503697485745], [-0.00026281971206075787, 0.000262183404367295, 0.00019238942310141434, 0.0004593729662365752, -0.00020293623280029], [0.0001009669059471673, 0.0006217319194934235, -0.0004113776371511768, 0.0004665278011423859, 0.000632167428941008], [-0.00023158009196701067, -3.9539523802673316e-05, -0.00040363511880626713, 4.1534661178850113e-07, 3.037659647711974e-07], [-0.0003634412966695236, -0.0004366077996674609, -4.832818307830863e-05, 0.0005409932869561493, 6.66393790128181e-05]]}