{"spike_times": [77.4, 351.4, 405.0, 886.6, 1439.5, 1678.1], "locations": [[0.09, 0.68, 0.49, 0.49, 0.58], [0.93, 0.5, 0.13, 0.2, 0.09], [0.13, 0.3, 0.11, 0.29, 0.05], [0.51, 0.54, 0.91, 0.54, 0.85], [0.22, 0.91, 0.25, 0.21, 0.91], [0.72, 0.24, 0.67, 0.96, 0.61], [0.99, 0.15, 0.19, 0.32, 0.45], [0.27, 0.07, 0.45, 0.52, 0.2], [0.98, 0.85, 0.94, 0.21, 0.14], [0.5, 0.69, 0.05, 0.58, 0.53], [0.76, 0.12, 0.65, 0.13, 0.22], [0.31, 0.61, 0.28, 0.86, 0.21], [0.47, 0.52, 0.5, 0.06, 0.14], [0.56, 0.68, 0.88, 0.96, 0.61], [0.7, 0.12, 0.53, 0.46, 0.7], [0.57, 0.52, 0.96, 0.99, 0.75], [0.98, 0.05, 0.68, 0.82, 0.41], [0.43, 0.7, 0.37, 0.1, 0.44], [0.33, 0.49, 0.61, 0.79, 0.13], [0.61, 0.61, 0.78, 0.83, 0.34], [0.05, 0.43, 0.33, 0.74, 0.86], [0.83, 0.83, 0.12, 0.61, 0.95], [0.76, 0.28, 0.92, 0.67, 0.09], [0.57, 0.06, 0.03, 0.46, 0.76], [0.33, 0.84, 0.06, 0.13, 0.96], [0.08, 0.14, 0.14, 0.05, 0.84], [0.55, 0.53, 0.14, 0.86, 0.06], [0.51, 0.2, 0.57, 0.91, 0.14], [0.83, 0.7, 0.2, 0.21, 0.39], [0.9, 0.17, 0.35, 0.52, 0.61], [0.6, 0.9, 0.92, 0.96, 0.17], [0.52, 0.42, 0.97, 0.96, 0.74], [0.89, 0.98, 0.19, 0.07, 0.45], [0.01, 0.08, 0.86, 0.49, 0.72], [0.87, 0.24, 0.61, 0.09, 0.43], [0.78, 0.9, 0.21, 0.39, 0.06], [0.68, 0.01, 0.22, 0.02, 0.65], [0.09, 0.07, 0.81, 0.94, 0.92], [0.39, 0.26, 0.82, 0.08, 0.17], [0.43, 0.44, 0.52, 0.53, 0.96], [0.77, 0.77, 0.65, 0.17, 0.53], [0.77, 0.26, 0.88, 0.85, 0.62], [0.45, 0.32, 0.67, 0.85, 0.13], [0.62, 0.46, 0.48, 0.5, 0.02], [0.38, 0.68, 0.9, 0.27, 0.05], [0.42, 0.18, 0.48, 0.63, 0.93], [0.14, 0.84, 0.24, 0.45, 0.03], [0.66, 0.6, 0.5, 0.53, 0.07], [0.26, 0.86, 0.95, 0.44, 0.3], [0.01, 0.63, 0.09, 0.02, 0.89]], "bias_ideal": -322.48447379737235, "bias": -0.9663662230709744, "bio_idx": 7, "A_actual": [2.684920267824546e-10, 4.313887214014958e-10, 3.6369886455116017e-10, 4.4698638285086736e-10, 4.930540596954529e-10, 6.071160928609803e-10, 6.221687676628278e-10, 7.931251486038218e-10, 1.0235203714735604e-09, 1.0343383882926633e-09, 1.136667961567543e-09, 1.3477838947385062e-09, 1.6638675430298335e-09, 3.6750452709507604e-10, 2.824327707606479e-10, 4.904765107278909e-10, 6.680050814220755e-10, 8.833870336349008e-10, 1.0835258589965508e-09, 1.3299363066798463e-09, 1.5620107347699957e-09, 1.0440274977917888e-09, 9.893721490519072e-10, 2.2534228663520206e-09, 1.9734487966612357e-09, 2.450235764941442e-09, 2.9682632610515863e-09, 3.5413912773600827e-09, 4.085009183232279e-09, 4.969926834726286e-09, 5.794657883777299e-09, 6.8011408280819565e-09, 7.4036882619987415e-09, 8.843222629948784e-09, 1.0399960856504441e-08, 1.1553540596171915e-08, 1.4357895294559403e-08, 1.602342918624734e-08, 1.742106163868455e-08, 2.1624235870980353e-08, 2.4936649669971305e-08, 2.684752643361753e-08, 3.194069718764829e-08, 3.7619478584600575e-08, 5.7830632263569567e-08, 5.071649498428748e-08, 5.895840533161481e-08, 5.7825612055054845e-08, 8.07178417323337e-08, 7.78530506440123e-08, 8.660514813168224e-08, 9.290651857308534e-08, 1.1655565292297931e-07, 7.915733874193381e-08, 1.2613717754474321e-07, 2.951744330906032e-07, 3.1037400883352544e-07, 3.9819319176380415e-07, 5.121267359933171e-07, 5.871441540443317e-07, 5.657897021514484e-07, 7.061922326016943e-07, 7.920682359659701e-07, 8.356586781430943e-07, 1.0418492799920323e-06, 1.4168005371024322e-06, 1.1253238040482898e-06, 4.6404145897064667e-07, 8.477603020666281e-07, 1.121852613249008e-06, 1.6886303413720692e-06, 1.713697162733635e-06, 2.2966216511327377e-06, 1.8819877466574318e-06, 2.8109585501751216e-06, 3.089701752394517e-06, 3.5934003083818014e-06, 4.007873857516294e-06, 4.523165877432794e-06, 6.244880389157615e-06, 2.4737839560078645e-06, 1.8522619071081765e-06, 2.618577733488842e-06, 2.408569257124446e-06, 1.0480003261861563e-05, 1.091756637466092e-05, 1.8430332179059607e-05, 1.2626230245248481e-05, 2.0401699545657912e-05, 2.2553121765970346e-05, 2.044010442103908e-05, 3.5208451814621156e-05, 3.3809115433270196e-05, 5.062418670804417e-05, 2.3910296335336928e-05, 5.160070666869401e-05, 6.752730405301095e-05, 6.99887512102121e-05, 5.630037763859824e-05, 8.88488780899735e-05, 0.00012911535305266942, 9.44809983934148e-05, 0.00010128040999488832, 0.00013833019433125878, 0.00016565075381859025, 0.00020835845584898544, 0.00014999098187315043, 0.00022949627858296804, 0.00026961452602609215, 0.00024313143045578817, 0.00034771015788899354, 0.00037043715265871574, 0.00033293932223673066, 0.0004423616976039859, 0.0005370026845472909, 0.0004214172513491789, 0.0006990458036458956, 0.0007018150936714364, 0.0008210177663685141, 0.0007419557846050553, 0.0009908768413083747, 0.001070596589722989, 0.0010143297899274973, 0.0012971573045347368, 0.0016686569925776682, 0.0003388483177212075, 0.0008521992046470991, 0.0008677452092711631, 0.0012437118714253967, 0.0015976507230804839, 0.0012583783698185485, 0.0019114885700191515, 0.0022949664670537102, 0.0017336959235382371, 0.0027909291722513774, 0.0029947328221000473, 0.0027078143707490723, 0.0034230146473046077, 0.004277996288768257, 0.003246312971260155, 0.004919520465594419, 0.004805410803331105, 0.004557571144869349, 0.005366867931075891, 0.0062185700172912245, 0.0046601067203639055, 0.0046722832820097785, 0.01217490180374795, 0.009965215156696211, 0.014102858018060374, 0.013877044636538537, 0.012825143922752203, 0.007733754673488665, 0.043472629046097375, 0.048402140889218306, 0.04520374237738418, 0.05950279339275296, 0.0699616261960881, 0.06896855001053319, 0.07953037751846315, 0.09698798316693442, 0.10851416458028859, 0.11098793452795506, 0.13651220805796005, 0.15073648011129606, 0.15509541429425833, 0.1964172540222489, 0.22060783411166512, 0.25767296811258356, 0.2614482025276149, 0.30784330325191606, 0.34892365713651136, 0.4199716940546594, 0.4602455059548325, 0.4651245431953703, 0.5713501005274143, 0.6308393587057759, 0.7373279912909622, 0.8240665473901387, 0.8945593204203267, 1.0211064125534663, 1.1593685269614145, 1.2140111769042223, 1.4596011388722478, 1.6337337328183152, 1.7469709490363727, 2.0483506193802286, 2.0537424620908316, 2.584506308876785, 2.5284024414979247, 2.988193837606543, 3.4825612593377304, 3.5779717986951667, 4.077308224846183, 4.170892968268448, 4.775398321679095, 5.349564596968684, 5.662571013054662, 6.081160949205175, 0.0], "loss": 3.470867814169396, "x_sample": [-1.0, -0.99, -0.98, -0.97, -0.96, -0.95, -0.94, -0.9299999999999999, -0.9199999999999999, -0.9099999999999999, -0.8999999999999999, -0.8899999999999999, -0.8799999999999999, -0.8699999999999999, -0.8599999999999999, -0.8499999999999999, -0.8399999999999999, -0.8299999999999998, -0.8199999999999998, -0.8099999999999998, -0.7999999999999998, -0.7899999999999998, -0.7799999999999998, -0.7699999999999998, -0.7599999999999998, -0.7499999999999998, -0.7399999999999998, -0.7299999999999998, -0.7199999999999998, -0.7099999999999997, -0.6999999999999997, -0.6899999999999997, -0.6799999999999997, -0.6699999999999997, -0.6599999999999997, -0.6499999999999997, -0.6399999999999997, -0.6299999999999997, -0.6199999999999997, -0.6099999999999997, -0.5999999999999996, -0.5899999999999996, -0.5799999999999996, -0.5699999999999996, -0.5599999999999996, -0.5499999999999996, -0.5399999999999996, -0.5299999999999996, -0.5199999999999996, -0.5099999999999996, -0.49999999999999956, -0.48999999999999955, -0.47999999999999954, -0.46999999999999953, -0.4599999999999995, -0.4499999999999995, -0.4399999999999995, -0.4299999999999995, -0.4199999999999995, -0.4099999999999995, -0.39999999999999947, -0.38999999999999946, -0.37999999999999945, -0.36999999999999944, -0.35999999999999943, -0.3499999999999994, -0.3399999999999994, -0.3299999999999994, -0.3199999999999994, -0.3099999999999994, -0.2999999999999994, -0.28999999999999937, -0.27999999999999936, -0.26999999999999935, -0.25999999999999934, -0.24999999999999933, -0.23999999999999932, -0.22999999999999932, -0.2199999999999993, -0.2099999999999993, -0.1999999999999993, -0.18999999999999928, -0.17999999999999927, -0.16999999999999926, -0.15999999999999925, -0.14999999999999925, -0.13999999999999924, -0.12999999999999923, -0.11999999999999922, -0.10999999999999921, -0.0999999999999992, -0.08999999999999919, -0.07999999999999918, -0.06999999999999917, -0.059999999999999165, -0.049999999999999156, -0.03999999999999915, -0.02999999999999914, -0.01999999999999913, -0.00999999999999912, 8.881784197001252e-16, 0.010000000000000897, 0.020000000000000906, 0.030000000000000915, 0.040000000000000924, 0.05000000000000093, 0.06000000000000094, 0.07000000000000095, 0.08000000000000096, 0.09000000000000097, 0.10000000000000098, 0.11000000000000099, 0.120000000000001, 0.130000000000001, 0.140000000000001, 0.15000000000000102, 0.16000000000000103, 0.17000000000000104, 0.18000000000000105, 0.19000000000000106, 0.20000000000000107, 0.21000000000000107, 0.22000000000000108, 0.2300000000000011, 0.2400000000000011, 0.2500000000000011, 0.2600000000000011, 0.27000000000000113, 0.28000000000000114, 0.29000000000000115, 0.30000000000000115, 0.31000000000000116, 0.3200000000000012, 0.3300000000000012, 0.3400000000000012, 0.3500000000000012, 0.3600000000000012, 0.3700000000000012, 0.3800000000000012, 0.39000000000000123, 0.40000000000000124, 0.41000000000000125, 0.42000000000000126, 0.43000000000000127, 0.4400000000000013, 0.4500000000000013, 0.4600000000000013, 0.4700000000000013, 0.4800000000000013, 0.4900000000000013, 0.5000000000000013, 0.5100000000000013, 0.5200000000000014, 0.5300000000000014, 0.5400000000000014, 0.5500000000000014, 0.5600000000000014, 0.5700000000000014, 0.5800000000000014, 0.5900000000000014, 0.6000000000000014, 0.6100000000000014, 0.6200000000000014, 0.6300000000000014, 0.6400000000000015, 0.6500000000000015, 0.6600000000000015, 0.6700000000000015, 0.6800000000000015, 0.6900000000000015, 0.7000000000000015, 0.7100000000000015, 0.7200000000000015, 0.7300000000000015, 0.7400000000000015, 0.7500000000000016, 0.7600000000000016, 0.7700000000000016, 0.7800000000000016, 0.7900000000000016, 0.8000000000000016, 0.8100000000000016, 0.8200000000000016, 0.8300000000000016, 0.8400000000000016, 0.8500000000000016, 0.8600000000000017, 0.8700000000000017, 0.8800000000000017, 0.8900000000000017, 0.9000000000000017, 0.9100000000000017, 0.9200000000000017, 0.9300000000000017, 0.9400000000000017, 0.9500000000000017, 0.9600000000000017, 0.9700000000000017, 0.9800000000000018, 0.9900000000000018], "gain_ideal": 324.28102091451382, "A_ideal": [0.0, 0.0, 0.0, 0.0, 0.0, 0.0, 0.0, 0.0, 0.0, 0.0, 0.0, 0.0, 0.0, 0.0, 0.0, 0.0, 0.0, 0.0, 0.0, 0.0, 0.0, 0.0, 0.0, 0.0, 0.0, 0.0, 0.0, 0.0, 0.0, 0.0, 0.0, 0.0, 0.0, 0.0, 0.0, 0.0, 0.0, 0.0, 0.0, 0.0, 0.0, 0.0, 0.0, 0.0, 0.0, 0.0, 0.0, 0.0, 0.0, 0.0, 0.0, 0.0, 0.0, 0.0, 0.0, 0.0, 0.0, 0.0, 0.0, 0.0, 0.0, 0.0, 0.0, 0.0, 0.0, 0.0, 0.0, 0.0, 0.0, 0.0, 0.0, 0.0, 0.0, 0.0, 0.0, 0.0, 0.0, 0.0, 0.0, 0.0, 0.0, 0.0, 0.0, 0.0, 0.0, 0.0, 0.0, 0.0, 0.0, 0.0, 0.0, 0.0, 0.0, 0.0, 0.0, 0.0, 0.0, 0.0, 0.0, 0.0, 0.0, 0.0, 0.0, 0.0, 0.0, 0.0, 0.0, 0.0, 0.0, 0.0, 0.0, 0.0, 0.0, 0.0, 0.0, 0.0, 0.0, 0.0, 0.0, 0.0, 0.0, 0.0, 0.0, 0.0, 0.0, 0.0, 0.0, 0.0, 0.0, 0.0, 0.0, 0.0, 0.0, 0.0, 0.0, 0.0, 0.0, 0.0, 0.0, 0.0, 0.0, 0.0, 0.0, 0.0, 0.0, 0.0, 0.0, 0.0, 0.0, 0.0, 0.0, 0.0, 0.0, 0.0, 0.0, 0.0, 0.0, 0.0, 0.0, 0.0, 0.0, 0.0, 0.0, 0.0, 0.0, 0.0, 0.0, 0.0, 0.0, 0.0, 0.0, 0.0, 0.0, 0.0, 0.0, 0.0, 0.0, 0.0, 0.0, 0.0, 0.0, 0.0, 0.0, 0.0, 0.0, 0.0, 0.0, 0.0, 0.0, 0.0, 0.0, 0.0, 0.0, 0.0, 0.0, 0.0, 1.094887852972955, 14.50726405186232, 27.919640250751687, 41.33201644964105], "weights": [[0.0001906641403294383, -7.236126331584098e-05, -7.187538656034133e-05, 0.00031551321352122285, -0.0001923846024153685], [-0.00027145596365955264, 0.00041353716619220394, 6.65637242012911e-06, 0.0001658560228533119, -9.734180222967246e-05], [0.00017844521323543056, 0.00010506237202126616, 0.00041928115445100654, -0.0006120765714687462, -0.00030327506494813274], [0.0005121479700393323, -0.00044261072065428177, -0.00030009827418497854, 0.0001470527722321847, -0.000707383608464787], [2.6612907310165186e-05, 0.00063058165292031, 9.675235700511472e-05, 2.5650155506406363e-06, -0.0007306824089467236], [0.0004540071467030994, 0.0004733290171426828, -0.00048073166504090427, -0.0007402798688919002, -0.00024268735465366316], [-0.00046541220865128723, -0.00045443825772885924, 0.0001391749590962816, 0.00033223529534439863, -8.554195508541414e-06], [0.0005802320387041532, 0.0002321247974196473, -8.860099084649758e-05, -0.00019036520314000112, -8.581280774417436e-05], [-0.0005797349840318797, 0.00022416220762531652, -3.111576973657357e-05, 0.0004171491880603389, 0.00046530295460007093], [-0.0003591556213668608, -8.603345567402485e-05, 0.00029442007412748127, 0.00040035113791931916, 0.00034759065459258337], [-0.0006412802093683979, 0.0003430601240373767, -0.0006551907499496999, -0.00032170844978093025, 0.0005421069475484157], [-0.0006117440703278486, 0.00021007836030340873, 5.32799834165956e-05, 0.0006075141238126328, 0.0003710348038763982], [0.0005312497453433317, 0.0003207314509675974, 0.0005467723898779551, -0.00043181641030411394, 0.00021190181799956938], [-8.060758714983375e-05, -0.000601143820912649, -0.0006862940052913371, -0.0002943866335480352, 0.00017269595350577913], [0.0005164193468614553, -0.0002479563831988097, 0.0006889160064453702, 0.00023309183690390392, 0.00013152798998933716], [0.0001831319062043739, 0.0005021673337711549, 0.0005635485781755501, 0.00048578166771105774, 5.412276700070515e-05], [0.0008187769749286142, 0.000501462708225289, -0.0006474785837238042, -0.00031977170404876774, -0.00019014991489895594], [0.0006892472207715214, 0.0003792214680662212, 0.00025555689223516427, 0.0002926256563361336, -0.00039454672078118296], [-0.0002600329417985429, -0.00039557214597232604, -4.545539216864419e-05, -0.0006428191218691097, 0.0003730825583699725], [2.5940531084831425e-06, -0.00013790804044693224, -0.0005742758844610802, 9.880426576712776e-05, 0.0003642145582785839], [-0.0002473101913540458, -0.0004160933200973844, -8.238739472220346e-05, 0.0003203872580700369, 0.00033121331558100053], [-0.0007191978884697838, -0.0006409536554992431, 9.872266555740697e-05, 0.0006841602454995678, 0.00030224786693542005], [-0.0005136713257469284, 0.00020238940717513294, -0.0006423231124704972, 0.000226850194778403, 0.00020185335962931493], [-0.0002658927100562827, -0.0003190375006432881, -0.00037881658813111334, 0.0002533293920099117, 0.00024714445572038973], [3.681123637213744e-05, 0.00031158398419691, -0.0001660176130320938, 5.392343836347572e-05, -0.0007760331531674825], [0.00025193841457301735, -3.923651314541398e-06, -3.752858425549076e-05, -1.642421790402418e-05, -0.00024635657468655934], [0.00029384243445477646, 0.000629262880769338, 0.00016401403689044592, 0.0003105328764722829, -0.0003220748230431805], [-0.00043194298552134665, -0.00012985199898945572, 0.0005099294908168108, -0.0006680928579781522, 3.6450165418432036e-05], [0.0004614794748664657, -0.00017138459965169964, 0.0005501972134430787, 0.00017118004189402828, 0.00037298472025954426], [-0.0006868607462879965, 0.00036725100350273085, 0.00018521200137120456, -0.0001959355260051818, -0.00023335264536901798], [0.0005298126613936902, 0.0006010458749887059, 0.0006812266820061832, -0.0005027843750126856, 0.00046061379508638114], [-0.0004781573817983852, -0.0005622031852273687, -0.0008007547471830803, 0.000686673895381152, 8.33686382718641e-05], [-0.000562304787368246, 0.0008483276874575435, -0.00046864181270858966, 0.0005201976566235941, 2.5372018382823543e-05], [-9.513144099650237e-06, -0.0002995735883131047, -0.0008460326529249556, 0.00039273286426609805, 0.00030486322627581715], [0.00031872422411591256, -0.00011429702059391682, 0.0007689191443780395, 0.000470288965176456, 0.0006388884263352427], [-0.0002662318104957606, 0.00026004168800216004, -0.0005292699039668462, 0.0004141887223594572, -0.0004475541724999892], [6.49767548872683e-05, 0.0002185663652156781, -0.0003005909927227391, -7.124401856229109e-06, 0.0003584380785142581], [0.0003723343958578345, -0.00014877724316419912, 0.00033643655936907256, 0.0003220952943279189, 7.698233865154343e-05], [0.0003851245624054089, 0.00014561465211598086, -0.0006586168662934166, -2.699758316542645e-05, 0.0002241686286683701], [-0.0006162099195075283, 0.0006886774233013334, -0.0003824273017301826, -0.0003042477850534233, 0.0003917775991175503], [-0.0006363597638085903, 0.0004536698590729562, 0.00015683302686179693, 2.030259443383989e-05, -0.00015220173973395964], [-0.00022237648537360097, 0.00029656653975696065, -0.0004939725111428639, 0.0004202187767978339, 0.00018671603370827398], [0.0005598889746375224, 0.00045415558828373594, -0.0006032789216382783, -0.0005898823422858338, -0.00019970167823586107], [-0.00012470089689514284, 0.0005484597313672614, -0.00028003072497148894, 0.00031442469246516, -0.0004961529513598101], [7.286256970814854e-05, 0.0005099344927867823, -0.0006752254028282036, -0.000444957279638833, -0.00034198349344448766], [-0.0005688540080511496, 0.00031861032393282413, 0.0004884984119608274, 0.00022751452679299115, -0.0006991803614911697], [-0.0004268886137524378, 0.0003421531675115917, 0.00024645337875512686, -4.316406973981015e-06, -0.00017337346717828756], [0.0004000243898606106, 0.0003996294703260768, 8.738357610900811e-05, -0.00019041709822253337, 0.0003871838105663881], [0.0001929222568961288, -0.00044951330890768135, 0.0006125937431432518, 7.374649547849856e-05, -0.0001874973813818983], [0.00018083097009056814, -9.354640422335577e-05, -0.0004838677963636893, 0.0003896674340715435, -0.00031371710719793394]]}