{"spike_times": [58.8, 78.3, 101.3, 127.4, 336.4, 353.4, 375.3, 398.0, 421.4, 446.5, 871.2, 887.4, 910.0, 1422.3, 1440.4, 1461.8, 1484.7, 1664.9, 1679.3, 1699.5, 1721.7, 1746.8], "locations": [[0.77, 0.19, 0.88, 0.34, 0.41], [0.09, 0.33, 0.82, 0.49, 0.94], [0.7, 0.68, 0.39, 0.58, 0.71], [0.4, 0.11, 0.76, 0.11, 0.88], [0.96, 0.95, 0.07, 0.47, 0.06], [0.35, 0.5, 0.91, 0.08, 0.98], [0.98, 0.86, 0.41, 0.69, 0.36], [0.88, 0.86, 0.42, 0.79, 0.87], [0.72, 0.28, 0.41, 0.41, 0.65], [0.12, 0.25, 0.29, 0.23, 0.82], [0.96, 0.43, 0.3, 0.78, 0.08], [0.48, 0.55, 0.61, 0.54, 0.2], [0.8, 0.04, 0.84, 0.75, 0.53], [0.88, 0.38, 0.92, 0.95, 0.09], [0.86, 0.17, 0.68, 0.88, 0.18], [0.14, 0.63, 0.43, 0.31, 0.49], [0.4, 0.78, 0.96, 0.37, 0.68], [0.21, 0.26, 0.98, 0.41, 0.9], [0.15, 1.0, 0.4, 0.19, 0.18], [0.21, 0.79, 0.78, 0.84, 0.61], [0.22, 0.16, 0.41, 0.14, 0.22], [0.52, 0.12, 0.49, 0.94, 0.05], [0.95, 0.49, 0.77, 0.19, 0.17], [0.72, 0.28, 0.01, 0.37, 0.7], [0.61, 0.21, 0.47, 0.75, 0.17], [0.6, 0.88, 0.24, 0.62, 0.78], [0.65, 0.53, 0.31, 0.49, 0.59], [0.97, 0.41, 0.94, 0.11, 0.7], [0.32, 0.29, 0.02, 0.71, 0.01], [0.09, 0.98, 0.86, 0.64, 0.64], [0.41, 0.84, 0.08, 0.44, 0.03], [0.18, 0.89, 0.26, 0.1, 0.52], [0.36, 0.15, 0.49, 0.91, 0.53], [0.69, 0.6, 0.26, 0.74, 0.74], [0.51, 0.76, 0.53, 0.32, 0.7], [0.41, 0.07, 0.14, 0.31, 0.29], [0.47, 0.76, 0.09, 0.56, 0.93], [0.83, 0.63, 0.6, 0.02, 0.72], [0.71, 0.59, 0.33, 0.28, 0.36], [0.31, 0.36, 0.88, 0.22, 0.77], [0.5, 0.89, 0.46, 0.32, 0.83], [0.32, 0.28, 0.71, 0.22, 0.13], [0.71, 0.18, 0.02, 0.44, 0.57], [0.23, 0.43, 0.03, 0.01, 0.66], [0.14, 0.84, 0.57, 0.31, 0.19], [0.93, 0.52, 0.47, 0.34, 0.18], [0.68, 0.42, 0.63, 0.4, 0.58], [0.39, 0.28, 0.01, 0.13, 0.56], [0.87, 0.13, 0.88, 0.06, 0.66], [0.47, 0.26, 0.55, 0.85, 0.11]], "bias_ideal": -0.18365026505257043, "bias": -0.5038697466049931, "bio_idx": 6, "A_actual": [2.8815203873762146e-06, 4.4529217797279025e-06, 3.6161552911411173e-06, 4.316234037905583e-06, 4.613596655042142e-06, 5.510568314506437e-06, 5.4877392476364425e-06, 6.7908937526764116e-06, 8.468045470968724e-06, 8.338060847873888e-06, 8.896089415228583e-06, 1.0183146577090006e-05, 1.2263824840056438e-05, 2.6311449396816326e-06, 1.948711669648147e-06, 3.308048681817172e-06, 4.377381824969487e-06, 5.567102173010225e-06, 6.690314776034441e-06, 7.933864099180113e-06, 9.038480122792252e-06, 5.906819005162393e-06, 5.399894648120493e-06, 1.1749932658516104e-05, 9.961335626533042e-06, 1.2155154830878514e-05, 1.4156652894711507e-05, 1.6386561308268876e-05, 1.8353591351209098e-05, 2.155325709968961e-05, 2.429417854245038e-05, 2.820537063534521e-05, 2.973364591035032e-05, 3.421993855306366e-05, 3.9050185468535875e-05, 4.3389116962243866e-05, 5.111958276375902e-05, 5.5420555992549006e-05, 5.9636942760689966e-05, 7.041480581549313e-05, 7.956959177690959e-05, 8.452692028464939e-05, 9.841040614247434e-05, 0.00011017210626123298, 0.00016436161793206518, 0.00013927464065545362, 0.00015727820586505857, 0.00016419709895090694, 0.00020212697786854423, 0.00020463443421235992, 0.00021623031053135633, 0.00023752067960957442, 0.00026283265281801916, 0.00019913567283797733, 0.00030997465381152133, 0.0006794456467309017, 0.0007024698157238011, 0.0008742935221587008, 0.0010229434190160804, 0.0012697355355931136, 0.0012408872203938245, 0.0014652534306056992, 0.0016206509175528175, 0.0016867275833677476, 0.0020747288597739726, 0.0024824226524315066, 0.0024726133220702045, 0.0008885148419856739, 0.0015469906272645006, 0.0020844929256266685, 0.0028746882636265405, 0.002674431187056445, 0.003460983477315215, 0.003761600108976511, 0.004582803277299405, 0.0051211270756312925, 0.005042462967683341, 0.006334221940434033, 0.00773522755388593, 0.007134791021691054, 0.004322070241070656, 0.002740842342951474, 0.003227910288437938, 0.0033859286255327704, 0.012219283585679884, 0.01595107595637942, 0.017442107086344607, 0.019896605272698566, 0.021558141823050075, 0.02738268355839642, 0.02470105759805118, 0.03876917586195248, 0.03227761317552773, 0.03881567562363608, 0.04568350674189673, 0.0441132969906711, 0.0648899756026834, 0.05779115082278105, 0.05723969198246722, 0.08394803060169377, 0.07875021395792893, 0.08028711703127209, 0.09115903886703956, 0.11505337666263538, 0.10707119964118288, 0.12779132713279223, 0.1192015567903032, 0.16739293334260713, 0.1588554015499454, 0.15913305570844025, 0.19145971398723408, 0.2360912510327768, 0.20722430434565375, 0.22313376394119247, 0.2485916918766647, 0.2537549750166816, 0.30426200245718527, 0.3652393447221188, 0.3447306691439816, 0.34873583874825753, 0.38924270664126365, 0.403685487091708, 0.44588670957805676, 0.4589536868292442, 0.618356156594446, 0.14375798715836507, 0.272013020325803, 0.323742856835557, 0.3727390289453006, 0.440519012994726, 0.4264793119762723, 0.5123205688323209, 0.5687067665609948, 0.550037210165963, 0.6514877207860131, 0.6902319847796056, 0.8116324587803228, 0.7471897007307583, 0.8618312883750601, 0.8186591392950253, 0.9358348487519922, 0.915971221912526, 0.9545347878731137, 0.9645728439997682, 0.9842005301359842, 0.8751442086306154, 0.7535587226642801, 1.8229903390406108, 1.7863522336171587, 1.9566645309749056, 1.838303645129813, 1.6436360902058313, 1.1295079900993081, 5.141832243630844, 5.384186656504559, 5.92826729700161, 6.253745656050258, 7.004058034165535, 7.168936549891625, 8.183732570794172, 8.286576479702195, 8.977459833381548, 9.545843030182159, 10.194920871201337, 10.656981872004328, 11.493022944886901, 12.059930171314475, 12.97150087765822, 13.798736847573956, 14.60155330890575, 15.042059161433617, 15.993516900245108, 17.31472627024483, 18.116088302878218, 18.603866560230117, 20.580755275886176, 20.327056472985518, 22.014817362628225, 22.483328048708213, 23.382807374201146, 24.88014875201884, 25.645269960773938, 26.51171811762892, 27.994483368185062, 28.687306024704203, 29.245836937515367, 31.597248133769174, 30.50418543446702, 32.800581581562554, 32.97784818576081, 33.907268100084316, 35.956253102527285, 35.63800824016494, 36.45383206727514, 37.57620451091042, 38.129285332399604, 38.91718058482716, 39.02206102719329, 40.20528890673774, 0.0], "loss": 3.9789246152367674, "x_sample": [-1.0, -0.99, -0.98, -0.97, -0.96, -0.95, -0.94, -0.9299999999999999, -0.9199999999999999, -0.9099999999999999, -0.8999999999999999, -0.8899999999999999, -0.8799999999999999, -0.8699999999999999, -0.8599999999999999, -0.8499999999999999, -0.8399999999999999, -0.8299999999999998, -0.8199999999999998, -0.8099999999999998, -0.7999999999999998, -0.7899999999999998, -0.7799999999999998, -0.7699999999999998, -0.7599999999999998, -0.7499999999999998, -0.7399999999999998, -0.7299999999999998, -0.7199999999999998, -0.7099999999999997, -0.6999999999999997, -0.6899999999999997, -0.6799999999999997, -0.6699999999999997, -0.6599999999999997, -0.6499999999999997, -0.6399999999999997, -0.6299999999999997, -0.6199999999999997, -0.6099999999999997, -0.5999999999999996, -0.5899999999999996, -0.5799999999999996, -0.5699999999999996, -0.5599999999999996, -0.5499999999999996, -0.5399999999999996, -0.5299999999999996, -0.5199999999999996, -0.5099999999999996, -0.49999999999999956, -0.48999999999999955, -0.47999999999999954, -0.46999999999999953, -0.4599999999999995, -0.4499999999999995, -0.4399999999999995, -0.4299999999999995, -0.4199999999999995, -0.4099999999999995, -0.39999999999999947, -0.38999999999999946, -0.37999999999999945, -0.36999999999999944, -0.35999999999999943, -0.3499999999999994, -0.3399999999999994, -0.3299999999999994, -0.3199999999999994, -0.3099999999999994, -0.2999999999999994, -0.28999999999999937, -0.27999999999999936, -0.26999999999999935, -0.25999999999999934, -0.24999999999999933, -0.23999999999999932, -0.22999999999999932, -0.2199999999999993, -0.2099999999999993, -0.1999999999999993, -0.18999999999999928, -0.17999999999999927, -0.16999999999999926, -0.15999999999999925, -0.14999999999999925, -0.13999999999999924, -0.12999999999999923, -0.11999999999999922, -0.10999999999999921, -0.0999999999999992, -0.08999999999999919, -0.07999999999999918, -0.06999999999999917, -0.059999999999999165, -0.049999999999999156, -0.03999999999999915, -0.02999999999999914, -0.01999999999999913, -0.00999999999999912, 8.881784197001252e-16, 0.010000000000000897, 0.020000000000000906, 0.030000000000000915, 0.040000000000000924, 0.05000000000000093, 0.06000000000000094, 0.07000000000000095, 0.08000000000000096, 0.09000000000000097, 0.10000000000000098, 0.11000000000000099, 0.120000000000001, 0.130000000000001, 0.140000000000001, 0.15000000000000102, 0.16000000000000103, 0.17000000000000104, 0.18000000000000105, 0.19000000000000106, 0.20000000000000107, 0.21000000000000107, 0.22000000000000108, 0.2300000000000011, 0.2400000000000011, 0.2500000000000011, 0.2600000000000011, 0.27000000000000113, 0.28000000000000114, 0.29000000000000115, 0.30000000000000115, 0.31000000000000116, 0.3200000000000012, 0.3300000000000012, 0.3400000000000012, 0.3500000000000012, 0.3600000000000012, 0.3700000000000012, 0.3800000000000012, 0.39000000000000123, 0.40000000000000124, 0.41000000000000125, 0.42000000000000126, 0.43000000000000127, 0.4400000000000013, 0.4500000000000013, 0.4600000000000013, 0.4700000000000013, 0.4800000000000013, 0.4900000000000013, 0.5000000000000013, 0.5100000000000013, 0.5200000000000014, 0.5300000000000014, 0.5400000000000014, 0.5500000000000014, 0.5600000000000014, 0.5700000000000014, 0.5800000000000014, 0.5900000000000014, 0.6000000000000014, 0.6100000000000014, 0.6200000000000014, 0.6300000000000014, 0.6400000000000015, 0.6500000000000015, 0.6600000000000015, 0.6700000000000015, 0.6800000000000015, 0.6900000000000015, 0.7000000000000015, 0.7100000000000015, 0.7200000000000015, 0.7300000000000015, 0.7400000000000015, 0.7500000000000016, 0.7600000000000016, 0.7700000000000016, 0.7800000000000016, 0.7900000000000016, 0.8000000000000016, 0.8100000000000016, 0.8200000000000016, 0.8300000000000016, 0.8400000000000016, 0.8500000000000016, 0.8600000000000017, 0.8700000000000017, 0.8800000000000017, 0.8900000000000017, 0.9000000000000017, 0.9100000000000017, 0.9200000000000017, 0.9300000000000017, 0.9400000000000017, 0.9500000000000017, 0.9600000000000017, 0.9700000000000017, 0.9800000000000018, 0.9900000000000018], "gain_ideal": 1.7584383726530619, "A_ideal": [0.0, 0.0, 0.0, 0.0, 0.0, 0.0, 0.0, 0.0, 0.0, 0.0, 0.0, 0.0, 0.0, 0.0, 0.0, 0.0, 0.0, 0.0, 0.0, 0.0, 0.0, 0.0, 0.0, 0.0, 0.0, 0.0, 0.0, 0.0, 0.0, 0.0, 0.0, 0.0, 0.0, 0.0, 0.0, 0.0, 0.0, 0.0, 0.0, 0.0, 0.0, 0.0, 0.0, 0.0, 0.0, 0.0, 0.0, 0.0, 0.0, 0.0, 0.0, 0.0, 0.0, 0.0, 0.0, 0.0, 0.0, 0.0, 0.0, 0.0, 0.0, 0.0, 0.0, 0.0, 0.0, 0.0, 0.0, 0.0, 0.0, 0.0, 0.0, 0.0, 0.0, 0.0, 0.0, 0.0, 0.0, 0.0, 0.0, 0.0, 0.0, 0.0, 0.0, 0.0, 0.0, 0.0, 0.0, 0.0, 0.0, 0.0, 0.0, 0.0, 0.0, 0.0, 0.0, 0.0, 0.0, 0.0, 0.0, 0.0, 0.0, 0.0, 0.0, 0.0, 0.0, 0.0, 0.0, 0.0, 0.0, 0.0, 0.0, 0.0, 0.0, 0.0, 0.0, 0.0, 0.0, 0.0, 0.0, 0.0, 0.0, 0.0, 0.0, 0.0, 0.0, 0.0, 0.0, 0.0, 0.0, 0.0, 0.0, 0.0, 0.0, 0.0, 0.0, 0.0, 0.0, 0.0, 0.0, 0.0, 0.0, 0.0, 0.0, 0.0, 0.0, 0.0, 0.0, 0.0, 0.0, 0.0, 0.0, 0.0, 0.0, 0.0, 0.0, 0.0, 0.0, 0.0, 0.0, 0.0, 0.0, 0.0, 0.0, 0.0, 1.1980362803169098, 2.8286967729701185, 4.459357265623327, 6.090017758276535, 8.452329800318296, 11.203331727972444, 13.954333655626591, 16.70533558328074, 18.604015423178723, 19.86345369726001, 21.122891971341296, 22.382330245422583, 23.54358455539558, 24.602563902755843, 25.661543250116104, 26.720522597476368, 27.7400700000837, 28.702441082799332, 29.66481216551496, 30.62718324823059, 31.570055902721236, 32.47271304899789, 33.375370195274535, 34.27802734155119, 35.1704004328687, 36.031064354728926, 36.891728276589156, 37.75239219844938, 38.60782701460652, 39.43646266403539, 40.265098313464264, 41.09373396289313, 41.92026064715455, 42.72306147328219, 43.52586229940984, 44.328663125537474], "weights": [[0.00042356810049797776, -0.00037800919197172384, 0.00012725991783231255, -5.106061525261287e-06, 0.0006621654698604155], [-4.480924151653913e-06, 0.0005378282002310393, -0.00039831809310014277, 0.0006881693205856953, 0.0003666758071418241], [-0.0002086777648941569, 0.0007177450924612667, -0.0004780701576163476, 0.0005044579948231742, -0.00041220908730301526], [-1.752049956878749e-05, 0.0004867493150260828, -0.00039396704333492235, -0.00029016560334791617, 0.00038517786750203917], [0.0007055670127877126, -9.151627900951429e-06, 0.00011149413742049005, 7.79307363551268e-05, -1.7612488760556326e-05], [-0.0004784446989813864, 0.00015075749801084625, 2.7059141354143017e-05, 0.000439717469494834, -0.0007939133638702241], [-0.00012824624310451077, -0.00041591553801044706, 5.202602226907829e-05, -0.0003931820932924006, -0.000604605620366708], [0.0006323348167931556, 0.0007657820029381952, 0.00047412874535343363, 5.9084000743308435e-05, 0.0004828084482843784], [0.00034054081357540693, -0.0003544697184187593, 0.000494969875107122, -0.00043322112205471477, 0.0006846973423508905], [-0.0004574194925685821, -0.0005178799614105853, 0.00022158957199533343, -0.0005141640850246274, -0.00037750499609007243], [-0.00045783555026660303, -0.00014099611710496543, -0.0003377745295707517, -0.000691608962610673, -0.00010355657994299781], [0.00046980063711935265, 5.929562296100009e-05, -7.142753182050909e-05, -0.0002982262493300978, 0.00024489089042236696], [0.00025596789806084873, -0.00032419285320910146, 0.0005415419854206013, -0.00027382273865974856, -0.0005138853065566615], [0.0003860927491174319, -0.0005920043285963499, 0.00036868407191111696, 8.374429044501597e-05, -1.933126578939434e-05], [-0.000770691301568459, 0.0004851479400163008, 6.954843957686935e-05, 0.0005340451461868628, 0.0003288899077771309], [-0.0004502585923185178, 0.0005047339138796476, -0.00034035302266863097, 0.0004261840691669412, -0.0005866208329355564], [0.000214307854526833, -0.0007223007197798155, 0.00010383528808334601, 0.0003065243352049563, 9.82231528880878e-05], [8.955049275238919e-05, -0.0004432506119465658, 0.0004013676015882373, 0.00010829290256876613, 0.0007494670746368459], [5.7362299725721616e-05, -0.0003185178427547993, 0.00033725742876606685, 0.0005020306316589628, 0.0004406086108549591], [0.0005480620800332455, -0.00045237616025104577, -0.00042143195860024096, -0.0002713828693369396, 0.0002691981026227316], [-0.00019334370086848901, 0.00032118844031511377, 2.319656654768172e-05, 0.0004316441907525363, 0.0005806303712270099], [-0.000587581095528126, 0.0005078302027316878, 0.00046477452836247735, 0.00037229955909903436, -6.337263050361978e-05], [-0.0005797467388792484, -0.0006248526327362555, -0.0003122958196258628, 0.00024444829376789133, -0.00040334662505603065], [1.9875676040570728e-05, -0.00018659051312868647, -7.613134572560748e-05, 0.0004264979212564417, 0.0006006163517107359], [0.000659723618947014, -0.000355322519700488, -0.00042397949454429847, -0.00039604318124564333, 0.00018104467670897488], [-0.00047839475729955904, 0.000529117491766579, -0.0004632330379116212, 0.000631818747483395, -0.00029697179141816303], [0.0007353325225154301, -0.0006891898397179079, -0.0005688932401713096, 0.00024463175961774656, 0.000512531391695908], [0.0001166556340365639, 0.00026833671866187273, -0.00011706107858788998, 0.00027988715836968167, -0.0003823156114156702], [-0.00040242945469486465, 0.0005588474946153854, -0.0003987353442865081, 8.551953321140849e-05, 7.231926656814771e-07], [-0.00046873365345454236, 0.00023162122351703124, -0.0006391728210692326, -0.0006234240477080055, -6.706488036768047e-05], [-0.00068610791299992, 0.0003176232179320903, 0.00047843142145988893, 0.00019037575386120676, -0.00032232866267855936], [-5.585269246296667e-05, 6.413452466376678e-05, 0.000560978773176908, -0.00025049499361086885, -0.0006859993477165302], [-0.0005887402678613145, 0.0003570667562229889, -0.000625894484334278, 0.00043603478009582227, -0.0006514479093899638], [0.0006576859691507833, -5.6314786202108654e-05, -0.0006113642700496058, 0.000175587003972377, -0.0003543252334249412], [-0.00042847247191144715, 0.00029752349438130846, -0.00036863743990363354, -0.000381200699962278, 0.0004360399891641342], [0.00029781360184577023, 0.000330765011552458, 6.8384314694494e-05, 0.0005228189715381023, 0.0004096269157586911], [0.00012877751651207799, 0.000547227720608246, -0.0002850777737432111, 0.0006466281711530786, 0.0005846430903602421], [-5.359644592895092e-05, -0.0006079097244937378, 8.601929631695575e-05, -0.00020055377417343916, 0.0006479385266095159], [0.0007676418133505528, 0.0006293623247303963, -0.0002776655435603855, -0.0003093184093169969, 9.379561299899142e-05], [0.00019470156720183593, 0.00010765534845661633, 0.0007850087589837863, -4.7358156034168445e-05, 0.0003788707951072524], [-0.00047697261759070453, 0.0004607801706724167, 0.00048196308037964583, -0.0005777311663789708, -0.0007582641892182241], [-0.00029924410089921856, 0.00018173025612883825, -0.000413666170445441, -0.0002867120204078776, 0.00013176455070777176], [0.000741265444250649, 0.00048126871966946825, 0.0005366072614913623, -0.00044064057000118054, -7.107060186737978e-05], [0.00020111944207746565, 0.0002571855897377244, 0.00019040307909228964, -0.0001536872244525477, 0.000393874144674583], [-0.0003706813983048721, 0.0003478544245185198, -0.0005861500112680914, -0.0006107585463527809, -0.0004563835330700951], [0.000508457219775309, 6.031958992234069e-05, -0.0005437641066629718, 0.0006115695051741732, 0.0005165620528660512], [0.0007681706343684417, 0.00039143724426428524, -0.0002610983876546952, 0.00043727290544700887, 0.0005723390870016583], [-0.00016332401215968419, -0.00022423344930131453, -2.5256298735782615e-05, 0.0004947526407809592, -6.683723886767222e-05], [-0.0006074066868680784, 0.0005035379965551443, -0.0008438628518195254, 0.00039429644331479506, 0.0006137313871157735], [-0.00042207209517388386, 0.00021955513028021337, -0.0004886208278687475, -0.0007138020205537888, 0.0003194509536968701]]}