{"spike_times": [18.3, 158.4, 189.9, 211.7, 232.4, 254.2, 278.6, 475.5, 500.3, 519.4, 539.5, 559.9, 580.7, 602.2, 624.2, 649.5, 672.8, 693.8, 714.0, 733.7, 753.3, 773.0, 792.9, 813.9, 839.2, 950.1, 980.9, 1006.6, 1038.9, 1091.2, 1127.1, 1152.1, 1171.0, 1191.9, 1213.3, 1239.1, 1280.3, 1332.0, 1368.6, 1524.3, 1549.3, 1567.1, 1586.7, 1606.8, 1632.1, 1768.4, 1794.1, 1812.1, 1831.7, 1852.2, 1873.9, 1898.5, 1928.0, 1957.6, 1986.5], "locations": [[0.02, 0.53, 0.57, 0.93, 0.15], [0.93, 0.67, 0.61, 0.04, 0.29], [0.92, 0.51, 0.19, 0.36, 0.38], [0.94, 0.36, 0.96, 0.7, 0.83], [0.91, 0.6, 0.54, 0.72, 0.78], [0.62, 0.13, 0.2, 0.03, 0.11], [0.06, 0.6, 0.93, 0.51, 0.39], [0.2, 0.27, 0.94, 0.25, 0.5], [0.43, 0.45, 0.12, 0.31, 0.45], [0.23, 0.34, 0.65, 0.7, 0.69], [0.55, 0.73, 0.65, 0.95, 0.68], [0.04, 0.15, 0.26, 0.85, 0.64], [0.78, 0.03, 0.73, 0.16, 0.79], [0.98, 0.37, 0.43, 0.8, 0.52], [0.31, 0.19, 0.09, 0.21, 0.35], [0.84, 0.02, 0.44, 0.17, 0.03], [0.86, 0.16, 0.7, 0.13, 0.48], [0.13, 0.47, 0.03, 0.06, 0.85], [0.98, 0.9, 0.38, 0.89, 0.05], [0.61, 0.81, 0.75, 0.17, 0.92], [0.6, 0.74, 0.19, 0.91, 0.24], [0.1, 0.84, 0.1, 0.01, 0.97], [0.2, 0.42, 0.98, 0.42, 0.84], [0.08, 0.4, 0.95, 0.67, 0.61], [0.94, 0.79, 0.52, 0.72, 0.61], [0.0, 0.42, 0.44, 0.4, 0.22], [0.16, 0.58, 0.77, 0.93, 0.1], [0.15, 0.15, 0.75, 0.37, 0.34], [0.43, 0.94, 0.08, 0.35, 0.5], [0.75, 0.86, 0.48, 0.96, 0.15], [0.13, 0.29, 0.54, 0.72, 0.88], [0.17, 0.12, 0.2, 0.32, 0.84], [0.28, 0.66, 0.51, 0.58, 0.82], [0.01, 0.1, 0.69, 0.91, 0.89], [0.66, 0.54, 0.78, 0.25, 0.19], [0.28, 0.82, 0.01, 0.28, 0.32], [0.09, 0.24, 0.58, 0.97, 0.09], [0.31, 0.07, 0.85, 0.39, 0.23], [0.38, 0.58, 0.52, 0.73, 0.24], [0.24, 0.56, 0.78, 0.55, 0.22], [0.85, 0.96, 0.88, 0.99, 0.15], [0.71, 0.72, 0.84, 0.33, 0.58], [0.58, 0.53, 0.83, 0.66, 0.3], [0.39, 1.0, 0.42, 0.07, 0.91], [0.61, 0.23, 0.85, 0.89, 0.84], [0.08, 0.79, 0.91, 0.57, 0.88], [0.67, 0.36, 0.21, 0.94, 0.43], [0.56, 0.49, 0.91, 0.73, 0.87], [0.63, 0.38, 0.8, 0.49, 0.99], [0.72, 0.64, 0.47, 0.92, 0.85]], "bias_ideal": 1.3082866598130176, "bias": -0.16849783908044424, "bio_idx": 4, "A_actual": [49.40137500095723, 49.00930985444075, 49.38541935976213, 49.17426057417932, 49.27688481222886, 49.113426101363025, 49.045297541530935, 49.31002034531501, 48.98943349475814, 48.882174924592384, 48.95625557468203, 48.74257408241957, 48.68360305711565, 50.18893589019543, 48.397392183891895, 48.75637605870403, 48.8339668335934, 48.94207298403347, 48.87525217286037, 48.94529531417446, 48.91335985074948, 48.56295445148126, 47.91502258059804, 47.59053497967393, 47.484425396905024, 47.60153256306351, 47.64471349851448, 47.62212535551733, 47.66020877529619, 47.51280867813912, 47.55247024349412, 47.075132960766496, 47.424137611971844, 46.767154419825914, 46.59767559673892, 46.430395223690056, 45.96527462606608, 45.84631877587285, 45.53276208572876, 45.07679420891785, 44.84195749981177, 44.611648357676394, 44.164010400504345, 43.72882392554734, 43.596938315444696, 43.28551716866173, 42.81974784493781, 42.587044873205684, 42.35401543990074, 41.91069428948942, 41.55020185964241, 41.240677427228455, 40.83786791374389, 40.604664004657714, 40.678564862091, 40.54030920406102, 40.48827160759195, 40.00206410461183, 39.679211149832106, 39.61806371220654, 39.43151524518329, 39.35988926238886, 39.07874712921818, 39.02600853407039, 39.233441039982054, 39.25672531234341, 39.27521155798026, 37.02795927562617, 39.27668932683861, 40.09424179879345, 40.47999879608834, 40.57802112610718, 40.25314483247809, 39.865824746738205, 39.234806662620116, 38.38234074193203, 37.34570209803317, 36.13931150180335, 34.845683825105, 33.65076003630777, 34.20301806340968, 33.933731600735435, 31.13446344686088, 35.4311558230004, 35.00789810006367, 35.23762531208406, 34.98750463598888, 33.983750515257356, 33.96583701456624, 33.41751891257725, 31.759088452767088, 31.908004320449347, 30.968816858319673, 30.619210550120037, 29.805491063371477, 28.85828173934253, 29.491369951761584, 27.48542633135134, 27.47037657252763, 27.94476662940543, 28.218134944038685, 28.461007403313584, 28.537760279241223, 29.18676853095622, 28.92904599083646, 30.26488472320094, 29.266481440190258, 30.331134055936538, 29.77445128531544, 29.614308179934795, 31.390843777156586, 30.25606320330324, 30.176466072675385, 30.42319339413381, 29.919504953182376, 29.574089272023258, 29.338775311978264, 30.518755209970383, 29.264614114077286, 28.892538511861986, 28.70976975108147, 28.812594858221875, 27.836809998725364, 27.567619495625546, 27.01433807972709, 29.197192536205876, 26.93937480361243, 26.01885422046292, 25.22887343130538, 24.730424054760395, 25.053026466904228, 25.02829618464049, 25.324380110349885, 25.50018100930409, 25.65159534074672, 25.39829017032359, 25.303788524727935, 25.094855960803585, 25.700453476530196, 24.51939420991117, 24.718725238355407, 24.315712418408978, 23.241242535334532, 22.73698024897327, 22.239688968331187, 20.732873551728925, 19.899682961010285, 19.79029577352564, 18.462675601475723, 17.44395261793377, 15.599942141067764, 13.011920278790488, 10.306187854426316, 13.983254461380403, 12.684006965018526, 13.506212405292107, 11.950137352511792, 11.66326658159693, 11.111638637346008, 10.695383439774226, 10.342817502299368, 9.785960017509161, 9.217287273856964, 8.850712095274625, 8.522702321045898, 7.810937366704853, 7.4766253591197245, 7.072888633796978, 6.5014913312378555, 6.348741367519952, 6.219355115001404, 5.846710091683126, 5.120639295410723, 5.031369309638106, 4.968502195889424, 4.326500014624224, 4.157650697393727, 3.8121322672937175, 3.5332597774165357, 3.1979280104293344, 3.17261570708351, 2.8307579087780876, 2.7341221607782726, 2.4558072417658803, 2.216010483825067, 2.0704182733656995, 1.8319261355832122, 1.840391436378336, 1.541393569573237, 1.5491305932012756, 1.3067660420525082, 1.1891423398315795, 1.101220617794599, 1.0018042866258856, 0.9509861514449518, 0.838082515072764, 0.7255496933587229, 0.6688765464834461, 0.6497930507106185, 0.0], "loss": 2.5714110077207932, "x_sample": [-1.0, -0.99, -0.98, -0.97, -0.96, -0.95, -0.94, -0.9299999999999999, -0.9199999999999999, -0.9099999999999999, -0.8999999999999999, -0.8899999999999999, -0.8799999999999999, -0.8699999999999999, -0.8599999999999999, -0.8499999999999999, -0.8399999999999999, -0.8299999999999998, -0.8199999999999998, -0.8099999999999998, -0.7999999999999998, -0.7899999999999998, -0.7799999999999998, -0.7699999999999998, -0.7599999999999998, -0.7499999999999998, -0.7399999999999998, -0.7299999999999998, -0.7199999999999998, -0.7099999999999997, -0.6999999999999997, -0.6899999999999997, -0.6799999999999997, -0.6699999999999997, -0.6599999999999997, -0.6499999999999997, -0.6399999999999997, -0.6299999999999997, -0.6199999999999997, -0.6099999999999997, -0.5999999999999996, -0.5899999999999996, -0.5799999999999996, -0.5699999999999996, -0.5599999999999996, -0.5499999999999996, -0.5399999999999996, -0.5299999999999996, -0.5199999999999996, -0.5099999999999996, -0.49999999999999956, -0.48999999999999955, -0.47999999999999954, -0.46999999999999953, -0.4599999999999995, -0.4499999999999995, -0.4399999999999995, -0.4299999999999995, -0.4199999999999995, -0.4099999999999995, -0.39999999999999947, -0.38999999999999946, -0.37999999999999945, -0.36999999999999944, -0.35999999999999943, -0.3499999999999994, -0.3399999999999994, -0.3299999999999994, -0.3199999999999994, -0.3099999999999994, -0.2999999999999994, -0.28999999999999937, -0.27999999999999936, -0.26999999999999935, -0.25999999999999934, -0.24999999999999933, -0.23999999999999932, -0.22999999999999932, -0.2199999999999993, -0.2099999999999993, -0.1999999999999993, -0.18999999999999928, -0.17999999999999927, -0.16999999999999926, -0.15999999999999925, -0.14999999999999925, -0.13999999999999924, -0.12999999999999923, -0.11999999999999922, -0.10999999999999921, -0.0999999999999992, -0.08999999999999919, -0.07999999999999918, -0.06999999999999917, -0.059999999999999165, -0.049999999999999156, -0.03999999999999915, -0.02999999999999914, -0.01999999999999913, -0.00999999999999912, 8.881784197001252e-16, 0.010000000000000897, 0.020000000000000906, 0.030000000000000915, 0.040000000000000924, 0.05000000000000093, 0.06000000000000094, 0.07000000000000095, 0.08000000000000096, 0.09000000000000097, 0.10000000000000098, 0.11000000000000099, 0.120000000000001, 0.130000000000001, 0.140000000000001, 0.15000000000000102, 0.16000000000000103, 0.17000000000000104, 0.18000000000000105, 0.19000000000000106, 0.20000000000000107, 0.21000000000000107, 0.22000000000000108, 0.2300000000000011, 0.2400000000000011, 0.2500000000000011, 0.2600000000000011, 0.27000000000000113, 0.28000000000000114, 0.29000000000000115, 0.30000000000000115, 0.31000000000000116, 0.3200000000000012, 0.3300000000000012, 0.3400000000000012, 0.3500000000000012, 0.3600000000000012, 0.3700000000000012, 0.3800000000000012, 0.39000000000000123, 0.40000000000000124, 0.41000000000000125, 0.42000000000000126, 0.43000000000000127, 0.4400000000000013, 0.4500000000000013, 0.4600000000000013, 0.4700000000000013, 0.4800000000000013, 0.4900000000000013, 0.5000000000000013, 0.5100000000000013, 0.5200000000000014, 0.5300000000000014, 0.5400000000000014, 0.5500000000000014, 0.5600000000000014, 0.5700000000000014, 0.5800000000000014, 0.5900000000000014, 0.6000000000000014, 0.6100000000000014, 0.6200000000000014, 0.6300000000000014, 0.6400000000000015, 0.6500000000000015, 0.6600000000000015, 0.6700000000000015, 0.6800000000000015, 0.6900000000000015, 0.7000000000000015, 0.7100000000000015, 0.7200000000000015, 0.7300000000000015, 0.7400000000000015, 0.7500000000000016, 0.7600000000000016, 0.7700000000000016, 0.7800000000000016, 0.7900000000000016, 0.8000000000000016, 0.8100000000000016, 0.8200000000000016, 0.8300000000000016, 0.8400000000000016, 0.8500000000000016, 0.8600000000000017, 0.8700000000000017, 0.8800000000000017, 0.8900000000000017, 0.9000000000000017, 0.9100000000000017, 0.9200000000000017, 0.9300000000000017, 0.9400000000000017, 0.9500000000000017, 0.9600000000000017, 0.9700000000000017, 0.9800000000000018, 0.9900000000000018], "gain_ideal": 0.45882207915806222, "A_ideal": [53.50618278490699, 53.311847087057636, 53.117511389208275, 52.92317569135892, 52.72883999350956, 52.533509678332784, 52.338090952726894, 52.14267222712101, 51.94725350151513, 51.75090344981258, 51.554371675944836, 51.35783990207709, 51.16130812820934, 50.96391157698896, 50.766234557438004, 50.568557537887045, 50.37088051833609, 50.17240890643416, 49.97355203763479, 49.77469516883542, 49.575838300036054, 49.37626109542407, 49.176187107493035, 48.97611311956201, 48.77603913163098, 48.57532363777931, 48.37399229824382, 48.172660958708335, 47.97132961917284, 47.76944075740117, 47.56680853264792, 47.364176307894674, 47.16154408314142, 46.95844414735935, 46.75446381434655, 46.55048348133376, 46.346503148320956, 46.14215152793302, 45.936771727121624, 45.73139192631023, 45.52601212549884, 45.320364991495055, 45.113529709969534, 44.90669442844401, 44.69985914691849, 44.49286909526768, 44.284517066514255, 44.07616503776084, 43.86781300900742, 43.65942865438436, 43.44949265801818, 43.239556661652, 43.029620665285826, 42.81968466891965, 42.60819221752634, 42.39659825819647, 42.18500429886661, 41.97341033953674, 41.76032520774338, 41.546991547206105, 41.33365788666883, 41.12032422613155, 40.905571126060664, 40.69040713559847, 40.475243145136275, 40.260079154674074, 40.043575135312835, 39.82647992673143, 39.609384718150025, 39.39228950956863, 39.173942866388835, 38.954803647963395, 38.735664429537955, 38.51652521111252, 38.29623419601283, 38.07492428385515, 37.85361437169747, 37.63230445953978, 37.40995574595545, 37.18633213971115, 36.96270853346685, 36.73908492722255, 36.51455177304866, 36.28845217521826, 36.06235257738786, 35.83625297955747, 35.609393014518076, 35.38063213145619, 35.15187124839431, 34.92311036533242, 34.693762908272866, 34.462127812622406, 34.230492716971945, 33.998857621321484, 33.766840404795836, 33.532084655331396, 33.29732890586696, 33.06257315640252, 32.82767829843596, 32.58951439066959, 32.35135048290323, 32.11318657513686, 31.875022667370487, 31.63326512574385, 31.39135466352742, 31.14944420131099, 30.907533739094557, 30.661982458888218, 30.415923157567008, 30.1698638562458, 29.923804554924594, 29.67405815773289, 29.423366351343624, 29.17267454495436, 28.921982738565095, 28.66756123606151, 28.411647855112193, 28.155734474162877, 27.899821093213564, 27.640143548091277, 27.378280359255655, 27.116417170420036, 26.854553981584413, 26.588907518087996, 26.320178386349458, 26.05144925461092, 25.782720122872377, 25.510215893328873, 25.233444161918886, 24.9566724305089, 24.679900699098912, 24.39940956328593, 24.113045683678745, 23.826681804071562, 23.540317924464382, 23.25037343946181, 22.952312915563034, 22.654252391664258, 22.356191867765485, 22.054838434406367, 21.742109495638815, 21.429380556871262, 21.116651618103706, 20.801196383976162, 20.46938337768868, 20.137570371401196, 19.805757365113717, 19.472345321233522, 19.114414700931828, 18.756484080630134, 18.398553460328436, 18.040622840026742, 17.64496411161391, 17.248519380948764, 16.85207465028362, 16.455629919618474, 16.0015126534678, 15.540841690102871, 15.08017072673794, 14.61949976337301, 14.046524287427909, 13.448280296152296, 12.850036304876683, 12.25179231360107, 9.916321106397412, 6.953517848998042, 3.990714591598671, 1.0279113341993007, 0.0, 0.0, 0.0, 0.0, 0.0, 0.0, 0.0, 0.0, 0.0, 0.0, 0.0, 0.0, 0.0, 0.0, 0.0, 0.0, 0.0, 0.0, 0.0, 0.0, 0.0, 0.0, 0.0, 0.0, 0.0, 0.0, 0.0, 0.0, 0.0, 0.0, 0.0, 0.0], "weights": [[0.000497506497369864, 0.0006888317509845979, -9.748293397273605e-05, 0.0005948123218012558, -0.0001493272368809396], [0.00022114795559342542, -0.0003212303702115018, -0.0003715144247320051, 0.00026609618845697914, 0.000390803174535774], [-0.0007554360830360685, -0.0006087212271018253, -0.00019846144089145373, 0.00019586803985764936, 0.00036655644952923874], [-0.0005748264684731111, -0.00042048294396128925, 0.00028881593309928343, -0.0007400486911216962, -0.000735225482256716], [-0.0004972600597555797, 0.0002446882064255937, 0.0005406531620492173, 7.51445871363774e-05, 0.00045511631407356575], [0.0006058563731620112, 0.00012218490545613857, -0.0005385963159366036, -0.0004749837813932457, -0.0004272403029710771], [0.000476674992557881, 5.484778455457106e-05, 0.0007921335858756483, -0.0006873050932825284, 0.0005158002896895018], [0.00011464040032842595, 0.0006112180616457954, -0.00018940715979956014, 2.781708472493072e-05, 0.0003072762529646868], [0.0005426332422401622, -0.0004462916576743602, -0.00039396760349484227, 7.134006342902405e-05, -0.0004913389391783103], [2.6236235714767462e-05, 0.0005580854087739513, 0.00021204298628190075, 0.0001401512977071214, 0.000684863664755277], [0.0001405679124739032, 0.0005764541053127505, -0.0007147975778793003, 0.00034472728704339184, 1.7101507776207255e-05], [-0.00033219218494289285, 0.00025101527351586663, -5.473525922078207e-05, 0.0002975805938676751, -0.0004674292801261244], [0.00041491594627950877, 0.0002431890855856429, 0.00033088669653848554, -0.00010911054909317553, -5.4948158951546197e-05], [-0.000719985843842122, -0.0003914202883777316, -0.0006636858639290517, -0.00013501306061560164, -0.00023242671737427398], [-0.0005092937716482422, -0.0001189233753902936, -0.0004170130760979759, 0.00011154025105249972, -1.8007571176734564e-05], [1.0551544318520393e-05, 0.00010932471532828487, -0.00027759122253690014, -0.0005350888159295262, -0.00019353885406245925], [-9.822573088014258e-05, -3.0781072607599514e-05, 0.00043606663841824284, 6.957998417063746e-05, 0.0006388472639514535], [-0.0005369322086267149, 0.0005895694714743427, -0.0003566833815412248, -0.0005369099644577715, 0.00010866030099835412], [-0.0007833403955313996, 1.7820541423474293e-06, 0.0001958933093060359, -0.00013172005178420542, 4.9168836137300417e-05], [-0.00043218216019243313, 0.000518166601863349, 0.00015774201789732126, 0.00037177845346115753, 0.0006183948582234847], [-0.0002455065957594301, -0.00011273183170747377, 3.468678237554476e-05, -0.0006754453443265939, -0.00021860262423311835], [0.0005346500475855097, 0.0007287869624492216, -0.00038105305840877045, -0.00045035226345050707, -0.0004230562066460585], [0.00040230508552731065, 0.0005698539055340022, 0.0001653062136198187, 1.349250814975002e-05, 0.00033935312206460644], [-0.0004097655547863358, 0.0005905833630871478, -0.0006652879115916811, 0.00038630380399658015, -0.0006082184394190411], [-0.0005358634343485488, -0.00028860595552282194, -0.0002217054074633409, 0.0006820665101588521, 0.00036474831533345767], [-0.00016197629916160107, -0.0002351475662389154, -0.00042822554496749595, 0.00014822468716667824, 7.94267629423669e-06], [0.00023928092194204845, 0.0003563163991958819, -0.00023840556916127472, 3.583542041337208e-05, -0.00017806498620467936], [0.00042365035064887465, 9.892206660230002e-05, 0.0007146634673432169, -0.0002569050009425785, 0.0005724229740051433], [-0.00035113196308632886, -0.000846668642036892, 0.000533142655316306, 0.00032171179755268305, 6.770598296140528e-05], [0.00026195473477493995, 0.00031718451724106544, 0.0004504079832892114, 0.0005204169957173595, -0.00033184187647764977], [-7.82127795923564e-05, -0.0005592032187954467, -0.00011770700408972003, 0.0004816768355485331, 0.0005386558766576756], [0.00046533354114355505, 0.00033096751453650974, -0.00020436272766266952, 1.215882240455706e-05, 0.0004945942512421688], [4.3973623340432e-07, -0.0004247655811219533, -0.0006248561013235721, 0.0004226843316063378, -0.00044696454804539986], [-0.00019292437573608376, -9.007832955816404e-05, 0.0001668593988414786, 0.00019636456685267174, -0.00023626712002173503], [0.00023296026308177757, -9.960891065610079e-05, 0.0003418580645408963, 0.0005189958524992593, 0.00028931781801410397], [0.0004090750436374559, 0.0007797634927836339, 0.00014194057761405355, -0.0006114483017887072, 0.0004102200084400116], [0.00021636069259297835, -0.0005078638977114068, -0.0004610118539948732, 0.0007591576707845652, 0.00023137941764890703], [-0.00021091198829975967, 0.00020932739476155652, 0.0004483107402242976, -0.00043310024919577763, 0.0005826387363406439], [-0.0005023147766729295, 0.0003893371972742523, -0.00020632987059843486, 0.00011106386364320416, 0.0003735794703563625], [4.85710848111227e-05, 0.00025348659937741324, -0.0003995723418791698, -0.0006887333883032034, 0.00042876021569798495], [-1.3131746412139064e-05, 0.00030673378752318214, 0.0008479737603907251, 0.0005353608472027597, 0.00017784942034999515], [-0.00037502887265901787, 8.89603366725402e-05, 0.0005809927369772372, 0.00020994189878925767, 0.00042227105970794556], [0.0003687346146352734, -0.0006092249131196704, -0.000253671193453804, -0.0003937463870511247, -4.863477739366909e-05], [-6.566612788810876e-05, 0.0004848294116761247, -8.584427911163876e-05, 9.393929891535815e-05, 0.0005053179803222116], [0.0004081324704774015, -0.0003728004560270664, -9.884999034815808e-05, 0.0007300443726738538, 0.00011277313022082257], [-0.0002542553094516481, -0.00043466145005670586, -9.983928240433317e-05, 0.0006650786756077791, -0.0007819826558637397], [2.3071275044815353e-05, 0.0005815743438310566, 0.0004546386138070329, -0.0005116795297370942, -0.0003739078987703599], [-0.00035058787351472217, -0.0006319057465748041, -0.00010050192082700784, 0.00041905090345480394, -0.0006174385359371502], [-0.000340986445890017, -0.0002158051103397338, -0.00021462894373609797, -0.00034908848785269694, -0.0006031131635376462], [0.0005767927297776478, 0.0007091923745746023, -0.0005813571181006882, 7.4604315119858e-05, 0.00021354814239780764]]}