{"spike_times": [42.0, 72.8, 102.1, 135.6, 332.6, 359.2, 388.2, 417.9, 450.1, 866.5, 891.9, 922.6, 1306.7, 1414.0, 1441.4, 1469.2, 1499.9, 1661.4, 1684.9, 1712.2, 1742.0], "locations": [[0.88, 0.55, 0.15, 0.46, 0.04], [0.49, 0.01, 0.74, 0.74, 0.7], [0.78, 0.83, 0.16, 0.33, 0.67], [0.99, 0.8, 0.83, 0.93, 0.46], [0.76, 0.93, 0.46, 0.03, 0.12], [0.41, 0.48, 0.72, 0.3, 0.26], [0.26, 0.76, 0.66, 0.78, 0.3], [0.99, 0.34, 0.05, 0.8, 0.75], [0.11, 0.75, 0.75, 0.88, 0.79], [0.27, 0.88, 0.29, 0.54, 0.23], [0.39, 0.3, 0.54, 0.77, 0.58], [0.3, 0.35, 0.8, 0.15, 0.07], [0.2, 0.9, 0.77, 0.3, 0.52], [0.08, 0.77, 0.73, 0.54, 0.11], [0.84, 0.61, 0.54, 0.86, 0.21], [0.08, 0.5, 0.51, 0.32, 0.6], [0.59, 0.96, 0.01, 0.93, 0.47], [0.69, 0.59, 0.63, 0.43, 0.92], [0.7, 0.26, 0.44, 0.65, 0.93], [0.06, 0.15, 0.62, 0.95, 0.65], [0.17, 0.66, 0.51, 0.44, 0.39], [0.94, 0.91, 0.9, 0.51, 0.74], [0.99, 0.54, 0.04, 0.61, 0.82], [0.23, 0.62, 0.63, 0.17, 0.37], [0.54, 0.52, 0.76, 0.91, 0.41], [0.37, 0.56, 0.37, 0.98, 0.79], [0.65, 0.58, 0.9, 0.05, 0.7], [0.46, 0.41, 0.56, 0.27, 0.38], [0.73, 0.85, 0.45, 0.06, 0.61], [0.72, 0.48, 0.95, 0.53, 0.66], [0.41, 0.94, 0.22, 0.42, 0.6], [0.36, 0.2, 0.04, 0.18, 0.4], [0.95, 0.66, 0.0, 0.89, 0.47], [0.78, 0.85, 0.71, 0.1, 0.73], [0.8, 0.92, 0.85, 0.55, 0.2], [0.47, 0.97, 0.49, 0.64, 0.57], [0.08, 0.29, 0.26, 0.39, 0.14], [0.21, 0.38, 0.78, 0.65, 0.55], [0.17, 0.28, 0.65, 0.87, 0.41], [0.8, 0.44, 0.71, 0.39, 0.43], [0.66, 0.36, 0.37, 0.73, 0.71], [0.41, 0.01, 0.82, 0.93, 0.38], [0.4, 0.71, 0.96, 0.06, 0.76], [0.33, 0.61, 0.32, 0.91, 0.88], [0.14, 0.08, 0.24, 0.19, 0.55], [0.03, 0.65, 0.43, 0.46, 0.27], [0.73, 0.82, 0.6, 0.51, 0.12], [0.32, 0.47, 0.55, 0.44, 0.29], [0.28, 0.17, 0.7, 0.14, 0.05], [0.91, 0.22, 0.8, 0.43, 0.0]], "bias_ideal": 0.45027370890611684, "bias": -0.27892474981838583, "bio_idx": 2, "A_actual": [3.0486652087311346e-05, 4.6557270226546104e-05, 3.736827853193964e-05, 4.4175661054555906e-05, 4.678198386035864e-05, 5.5351581021511305e-05, 5.459005405403914e-05, 6.690849092175795e-05, 8.269897321641887e-05, 8.060446640029445e-05, 8.51831484871508e-05, 9.665523296191063e-05, 0.00011521569925126437, 2.4478027684093074e-05, 1.797623237925816e-05, 3.0182266558773355e-05, 3.9564451898573353e-05, 4.991588451107379e-05, 5.927528025844795e-05, 6.97204121837142e-05, 7.862419401435571e-05, 5.081738888378739e-05, 4.604483846132169e-05, 9.912164563916351e-05, 8.278023780960712e-05, 0.00010004075242476375, 0.00011532540027452475, 0.00013231135436450112, 0.00014630922744482343, 0.00016955908067647096, 0.00019011063221413777, 0.00021640509979684464, 0.00022712974500542404, 0.00025718525140065745, 0.0002895014753190795, 0.00031732455143299515, 0.00036620643649428196, 0.00039185282529660345, 0.0004160673878582297, 0.0004842725995377366, 0.0005285762727712577, 0.0005620358900142011, 0.0006424236883914707, 0.0006950996599997471, 0.0010568722100509278, 0.0008465812302358698, 0.0009229343707678181, 0.0009466436886654365, 0.0011363676536730117, 0.0011208648244480021, 0.001178693877428091, 0.0012292270413166698, 0.0012880830650274918, 0.0009779634200799154, 0.0014691739376045947, 0.0031826046637323056, 0.003263413726331529, 0.003629077985433279, 0.004353382460500412, 0.005678417171369043, 0.004672831885137427, 0.005634787493612302, 0.006032188378533248, 0.0062451872160504355, 0.007250834742053998, 0.008244734699761619, 0.008205570671095444, 0.0028989283598394545, 0.004673352959398561, 0.006166482676151264, 0.009124874031689302, 0.008469589934229714, 0.010015004595799406, 0.009779062317750113, 0.011558539421436776, 0.012726668537172912, 0.013998593879087955, 0.01502349341577296, 0.01855998507352475, 0.019605101304856577, 0.00948494427406696, 0.005883087733739318, 0.007849443970577675, 0.00697930189759981, 0.02714242459781746, 0.03457690054597143, 0.04045426899452421, 0.036723841666466035, 0.04711953765634129, 0.05057511136897611, 0.049267285202705284, 0.0717215634286115, 0.06980595118564377, 0.08159325753687022, 0.0724214816488231, 0.08556742361472797, 0.1176390129809403, 0.1133237725055548, 0.10887350300228739, 0.13957774730509098, 0.15325354359229446, 0.16185088250777446, 0.173173693096255, 0.19331160283340648, 0.20469562860834145, 0.2646693654530443, 0.23484253595561652, 0.28923067985860124, 0.32291439677132616, 0.3325535497956247, 0.4039379196311348, 0.40573170059037106, 0.47967765916441346, 0.5095735995486972, 0.556539050019541, 0.5922926970219088, 0.7161711500203078, 0.7632943640945263, 0.8256892199783956, 0.9493747823663696, 0.993161947866079, 1.104222545383974, 1.2562434313307596, 1.3376064706755177, 1.444858509042439, 0.43395470316023044, 0.8342078504438526, 1.003647332204732, 1.1434640206679612, 1.3737280704324446, 1.4251805414604688, 1.6279400149271868, 1.9541321531374825, 1.969020812025005, 2.315967712380903, 2.509594828489476, 2.7397669437917935, 2.9226366406394693, 3.289133260940428, 3.564802117623319, 4.145039095668915, 4.352369423174999, 4.658211536004968, 5.341370391039741, 5.631994846334708, 5.458751825019891, 5.1262547523996345, 13.287260992367557, 15.3451451588797, 16.76448155617729, 19.167008350832308, 21.54321498016785, 24.66219308173925, 15.446683163901222, 16.763907214413887, 17.31624725992944, 18.459133961373258, 19.28613181472517, 19.546519045855, 20.75845340174446, 21.29756904908634, 22.512839349719663, 23.00250427224922, 24.06017223009443, 24.829286120490462, 25.45132067254864, 26.196066403722583, 26.93130513141231, 27.648322162778964, 28.558134077511006, 28.93640509246664, 29.617177070786987, 30.30871115975806, 30.79086621063613, 31.50649417110505, 31.93236610427712, 32.651628408092165, 32.899510259121904, 33.657925718523366, 34.11603667239497, 34.13848281699167, 34.72635582478477, 34.99397260922693, 35.321350398740826, 35.656414224353426, 36.074662264110785, 35.85202413724703, 36.528130777399035, 36.15677623334295, 36.701554473281305, 36.76086034923775, 36.645193306569965, 36.96970789481706, 36.79261029606874, 36.97999005594913, 36.81517939967768, 36.723594235137035, 36.913848054822864, 36.73066311023135, 0.0], "loss": 4.1568611177165682, "x_sample": [-1.0, -0.99, -0.98, -0.97, -0.96, -0.95, -0.94, -0.9299999999999999, -0.9199999999999999, -0.9099999999999999, -0.8999999999999999, -0.8899999999999999, -0.8799999999999999, -0.8699999999999999, -0.8599999999999999, -0.8499999999999999, -0.8399999999999999, -0.8299999999999998, -0.8199999999999998, -0.8099999999999998, -0.7999999999999998, -0.7899999999999998, -0.7799999999999998, -0.7699999999999998, -0.7599999999999998, -0.7499999999999998, -0.7399999999999998, -0.7299999999999998, -0.7199999999999998, -0.7099999999999997, -0.6999999999999997, -0.6899999999999997, -0.6799999999999997, -0.6699999999999997, -0.6599999999999997, -0.6499999999999997, -0.6399999999999997, -0.6299999999999997, -0.6199999999999997, -0.6099999999999997, -0.5999999999999996, -0.5899999999999996, -0.5799999999999996, -0.5699999999999996, -0.5599999999999996, -0.5499999999999996, -0.5399999999999996, -0.5299999999999996, -0.5199999999999996, -0.5099999999999996, -0.49999999999999956, -0.48999999999999955, -0.47999999999999954, -0.46999999999999953, -0.4599999999999995, -0.4499999999999995, -0.4399999999999995, -0.4299999999999995, -0.4199999999999995, -0.4099999999999995, -0.39999999999999947, -0.38999999999999946, -0.37999999999999945, -0.36999999999999944, -0.35999999999999943, -0.3499999999999994, -0.3399999999999994, -0.3299999999999994, -0.3199999999999994, -0.3099999999999994, -0.2999999999999994, -0.28999999999999937, -0.27999999999999936, -0.26999999999999935, -0.25999999999999934, -0.24999999999999933, -0.23999999999999932, -0.22999999999999932, -0.2199999999999993, -0.2099999999999993, -0.1999999999999993, -0.18999999999999928, -0.17999999999999927, -0.16999999999999926, -0.15999999999999925, -0.14999999999999925, -0.13999999999999924, -0.12999999999999923, -0.11999999999999922, -0.10999999999999921, -0.0999999999999992, -0.08999999999999919, -0.07999999999999918, -0.06999999999999917, -0.059999999999999165, -0.049999999999999156, -0.03999999999999915, -0.02999999999999914, -0.01999999999999913, -0.00999999999999912, 8.881784197001252e-16, 0.010000000000000897, 0.020000000000000906, 0.030000000000000915, 0.040000000000000924, 0.05000000000000093, 0.06000000000000094, 0.07000000000000095, 0.08000000000000096, 0.09000000000000097, 0.10000000000000098, 0.11000000000000099, 0.120000000000001, 0.130000000000001, 0.140000000000001, 0.15000000000000102, 0.16000000000000103, 0.17000000000000104, 0.18000000000000105, 0.19000000000000106, 0.20000000000000107, 0.21000000000000107, 0.22000000000000108, 0.2300000000000011, 0.2400000000000011, 0.2500000000000011, 0.2600000000000011, 0.27000000000000113, 0.28000000000000114, 0.29000000000000115, 0.30000000000000115, 0.31000000000000116, 0.3200000000000012, 0.3300000000000012, 0.3400000000000012, 0.3500000000000012, 0.3600000000000012, 0.3700000000000012, 0.3800000000000012, 0.39000000000000123, 0.40000000000000124, 0.41000000000000125, 0.42000000000000126, 0.43000000000000127, 0.4400000000000013, 0.4500000000000013, 0.4600000000000013, 0.4700000000000013, 0.4800000000000013, 0.4900000000000013, 0.5000000000000013, 0.5100000000000013, 0.5200000000000014, 0.5300000000000014, 0.5400000000000014, 0.5500000000000014, 0.5600000000000014, 0.5700000000000014, 0.5800000000000014, 0.5900000000000014, 0.6000000000000014, 0.6100000000000014, 0.6200000000000014, 0.6300000000000014, 0.6400000000000015, 0.6500000000000015, 0.6600000000000015, 0.6700000000000015, 0.6800000000000015, 0.6900000000000015, 0.7000000000000015, 0.7100000000000015, 0.7200000000000015, 0.7300000000000015, 0.7400000000000015, 0.7500000000000016, 0.7600000000000016, 0.7700000000000016, 0.7800000000000016, 0.7900000000000016, 0.8000000000000016, 0.8100000000000016, 0.8200000000000016, 0.8300000000000016, 0.8400000000000016, 0.8500000000000016, 0.8600000000000017, 0.8700000000000017, 0.8800000000000017, 0.8900000000000017, 0.9000000000000017, 0.9100000000000017, 0.9200000000000017, 0.9300000000000017, 0.9400000000000017, 0.9500000000000017, 0.9600000000000017, 0.9700000000000017, 0.9800000000000018, 0.9900000000000018], "gain_ideal": 1.1878512656413471, "A_ideal": [0.0, 0.0, 0.0, 0.0, 0.0, 0.0, 0.0, 0.0, 0.0, 0.0, 0.0, 0.0, 0.0, 0.0, 0.0, 0.0, 0.0, 0.0, 0.0, 0.0, 0.0, 0.0, 0.0, 0.0, 0.0, 0.0, 0.0, 0.0, 0.0, 0.0, 0.0, 0.0, 0.0, 0.0, 0.0, 0.0, 0.0, 0.0, 0.0, 0.0, 0.0, 0.0, 0.0, 0.0, 0.0, 0.0, 0.0, 0.0, 0.0, 0.0, 0.0, 0.0, 0.0, 0.0, 0.0, 0.0, 0.0, 0.0, 0.0, 0.0, 0.0, 0.0, 0.0, 0.0, 0.0, 0.0, 0.0, 0.0, 0.0, 0.0, 0.0, 0.0, 0.0, 0.0, 0.0, 0.0, 0.0, 0.0, 0.0, 0.0, 0.0, 0.0, 0.0, 0.0, 0.0, 0.0, 0.0, 0.0, 0.0, 0.0, 0.0, 0.0, 0.0, 0.0, 0.0, 0.0, 0.0, 0.0, 0.0, 0.0, 0.0, 0.0, 0.0, 0.0, 0.0, 0.0, 0.0, 0.0, 0.0, 0.0, 0.0, 0.0, 0.0, 0.0, 0.0, 0.0, 0.0, 0.0, 0.0, 0.0, 0.0, 0.0, 0.0, 0.0, 0.0, 0.0, 0.0, 0.0, 0.0, 0.0, 0.0, 0.0, 0.0, 0.0, 0.0, 0.0, 0.0, 0.0, 0.0, 0.0, 0.0, 0.0, 0.0, 0.353053000076813, 2.82442400061198, 5.295795001147146, 7.767166001682313, 10.183323061931903, 11.75286637113813, 13.322409680344354, 14.89195298955058, 16.461496298756806, 17.422405291606275, 18.37063440286507, 19.318863514123862, 20.26709262538266, 21.077246713799614, 21.871710458711842, 22.66617420362407, 23.4606379485363, 24.191930802855314, 24.909010206790878, 25.62608961072644, 26.343169014662, 27.02480300961974, 27.69363727355772, 28.3624715374957, 29.031305801433682, 29.678122272049986, 30.31324178996416, 30.948361307878336, 31.58348082579251, 32.204119943135716, 32.813898760050705, 33.423677576965694, 34.033456393880684, 34.633416633841705, 35.22314918947567, 35.812881745109635, 36.4026143007436, 36.98562284102298, 37.55888155903822, 38.13214027705345, 38.70539899506869, 39.27410479210525, 39.833420189623276, 40.3927355871413, 40.95205098465933, 41.50840763449709, 42.05564147898736, 42.602875323477626, 43.1501091679679, 43.69560109715606, 44.232165710420965, 44.768730323685865, 45.30529493695077, 45.84107829849299, 46.368072578155, 46.895066857817014, 47.422061137479034], "weights": [[-0.00010934401534828326, -0.0003708059596178043, -6.526464858777144e-05, -0.0002660322637964431, -0.00025554129861745387], [0.0006185049112077553, -0.00010477007686361122, -1.4841050788215663e-05, 0.0004532430256278093, -0.0005133058445044233], [0.0003359775630009648, 0.0005876751769289889, 0.00020223561957871005, 0.0005440239756908196, 0.0005494246146884823], [-0.00015622536815465034, -0.00024055987708515396, -0.00036595389900808084, 2.3050624198054184e-05, 0.0001347452869876933], [-0.0002507542201992624, 2.056451625691183e-05, -0.000665348897911417, 0.0004779562030472606, -0.0004677012160960146], [-0.0003148278541887366, 0.00016571850060175295, -2.3529965560121032e-06, -0.0001483310402617224, -0.00012611063344455063], [-4.880738560495694e-05, -7.091714072413306e-05, 0.0003581963493534508, 9.981610375576155e-05, 0.0002293311979834872], [0.0002472053535392544, 0.000590561162440087, 0.0003622285278423848, -0.00014658101434777886, 0.00011598570741147987], [0.0002688462102664925, -0.0001839532573862738, -0.0007686773322003384, 0.0003065223425174052, 2.1493069228813253e-06], [-0.000195046488222476, 0.00014946333765666057, 0.00047418982205506445, -0.00020894231854694592, -0.0005127891132245719], [0.0003634807899601217, -4.5904570114177235e-05, 0.0001641211923064946, 0.000768136616915569, -0.0004407520528376232], [7.817578687731641e-05, 3.210144807786517e-05, 0.0006532908612783998, -0.0004166978841740103, -0.0004453909576393304], [-0.0004577357942574371, 0.0003478490380062327, 8.063732948628403e-05, 0.0003907589304083162, 0.00010542649950646072], [0.0001580494526794373, 0.0006020717125700126, -0.0006056792116137069, 0.000638693382441472, 0.00011738771455235833], [-6.772074887876332e-05, 0.0007197999535540434, -1.5707407036568856e-05, 0.0005054106975144269, 0.00018003499414084146], [4.845794352989022e-05, -0.00021830096182831997, -0.000266343898560492, -0.000552582093393231, 0.0006385658132941894], [0.0001365853608999791, -0.00026480332417135396, -0.00024347482582805677, 0.0003399691142179197, 0.0006380401218896548], [0.00018563136401141277, 0.00038102111423278994, -0.00012354638301552317, -0.00029215296233560736, -0.000841696764883813], [-0.0003403238356010053, 0.000261186627542313, 0.000511973913414433, 0.0005448864164397709, -0.0001068032276394719], [-2.1144279943545246e-05, -0.00035913816377780794, 0.000122636056373333, -0.000710754279187229, -0.00040138648307671984], [-0.00012202866361665497, 0.00030508206635959884, -0.0001656693677836113, -0.0004931237043721192, 0.0002431091487051852], [0.0001542912698006094, 4.0446546079746104e-05, -0.00039539441820326816, 0.00047479657069955563, -0.0006401478207198427], [0.0007664067004561301, -3.55930652097034e-05, -0.0003724014052005951, 0.0006309452148149221, 0.0007861445162412567], [-0.0001349003736061616, -0.0005247737906676492, 0.0007405398938458698, -0.0004454973095481748, -0.0002595031012596078], [-4.196168242832635e-06, -0.0005314141610109407, -0.00032565116714179643, 0.0005848222096778935, 0.00035071058899341443], [7.144832572513309e-05, -0.00016743729748535104, -0.0002493319495157698, 0.0006732251583973548, -4.177546673088021e-06], [-0.0006127273627538979, -0.0005732392793534049, 0.0004885921831464575, -0.0002774174548470094, 8.096034963064523e-05], [0.0003407877738973072, 0.00013631299080573838, 0.0005698899600613236, 0.00054332656361421, -0.0003355461847940819], [0.00023897832254897862, -0.0008202642072634922, 0.0002095272709421465, 0.000238039850347554, 3.8227935730623735e-05], [-0.00017548120373066174, -0.0005328709724195554, -0.00018305576751850592, -0.00013757419601412833, 8.590170987959192e-05], [-0.00010913023120804973, 0.0004949217966393114, -0.0005511719357925417, 0.000577867818948713, -0.00015866545301849284], [0.0002986996826233557, -0.000527576402235894, -0.00021617946061177698, -0.0003009499472982932, 0.0005893846364362434], [-0.0002947566521319942, -0.00013685378922662344, -5.308457492659416e-05, -0.00044482159437509653, -0.0004314970002368469], [0.0006632043014216722, -0.0007240962531336943, 0.0004497732889392295, -0.0002370730210521768, -0.0002163459373013675], [-0.0006857178460810441, 0.00014981638369219148, -0.0007769314250441087, -0.0005243664017891011, 0.00018363273027630664], [0.00014351925779063876, 0.0005395625199263957, 0.00035353652856720406, 0.0003425301818320255, 0.0006744968792794368], [0.00023830959763701258, -0.00035695638279295534, 4.0731750856880944e-05, 0.0005191350119611285, -2.380455751450489e-06], [0.00035549275406971103, 0.00024914790712460847, 0.00016634906615872432, 0.0004973872254124239, -0.00017927505727769076], [0.0003014283706828699, 0.0006109618133473893, 0.00012129168230240502, -0.00041582020445424787, 5.997052182596309e-05], [0.0004627418051528156, -0.00020184416877807093, 0.0007062211152294497, 0.00012954754641533674, -0.00031476555180749764], [-0.00032782890417266134, 0.0005849824668652516, 0.00017389027216233025, 6.799277518872415e-05, 0.00028707319583536783], [-0.0001571181210570126, -0.0005352359076585363, 0.00017735571843103233, -0.0008464402316194793, -0.00048650218306298766], [0.000624750171988166, -0.0006598842156867544, -0.0007874033338943149, 4.7841611864880355e-05, -0.00046895919383520664], [-0.00020452993265714694, 0.00031392856336495006, 0.0003922946789885217, -0.0006980381999901072, -3.452528331999592e-05], [-4.5580922207756985e-05, -0.0005023253793002018, 0.00026681493185691854, -0.0005285325978254717, -1.3766780676700914e-05], [-2.9298755923532933e-05, 0.00021918145157797758, 0.00017998613891127867, 0.00018136351517155974, -0.0002615313815077159], [-0.0003978432372516119, 0.0002886747048550209, 1.825207928779565e-05, 0.00010902346776985329, 0.0005008137327756409], [4.6369651335830854e-05, -2.1113528178877465e-05, -0.00017935597763939836, 2.4622350680136082e-05, -0.0005884881763646946], [0.0001244367414540272, -0.00010952766529304114, -0.0007673718997089002, -0.00020889724252769323, -5.342446044454834e-05], [8.963669820899035e-05, 1.2576384335957865e-06, 0.0007273957862450333, 0.0002411738607765889, 0.000260361494335631]]}