{"spike_times": [21.4, 172.0, 201.7, 226.0, 251.7, 281.5, 486.8, 509.6, 530.6, 552.3, 574.6, 597.7, 624.1, 654.4, 680.5, 702.5, 724.0, 745.3, 766.6, 788.2, 810.7, 964.6, 995.8, 1032.9, 1115.9, 1147.7, 1171.0, 1194.5, 1220.6, 1347.1, 1534.8, 1557.6, 1577.9, 1599.3, 1625.8, 1780.4, 1804.1, 1825.9, 1849.2, 1874.9, 1908.5, 1945.3, 1980.8], "locations": [[0.26, 0.6, 0.99, 0.47, 0.38], [0.3, 0.2, 0.62, 0.15, 0.79], [0.54, 0.58, 0.99, 0.56, 0.24], [0.5, 0.61, 0.75, 0.62, 0.7], [0.34, 0.43, 0.5, 0.07, 0.92], [0.14, 0.24, 0.95, 0.07, 0.08], [0.43, 0.72, 0.26, 0.57, 0.32], [0.59, 0.14, 0.19, 0.87, 0.13], [0.8, 0.45, 0.83, 0.85, 0.41], [0.37, 0.45, 0.16, 0.71, 0.66], [0.11, 0.79, 0.75, 0.4, 0.28], [0.26, 0.17, 0.66, 0.22, 0.99], [0.22, 0.47, 0.01, 0.93, 0.94], [0.15, 0.49, 0.5, 0.59, 0.69], [0.49, 0.72, 0.2, 0.84, 0.3], [0.11, 0.74, 0.16, 0.41, 0.93], [0.75, 0.57, 0.57, 0.96, 0.8], [0.92, 0.77, 0.95, 0.6, 0.83], [0.59, 0.38, 0.84, 0.29, 0.76], [0.43, 0.41, 0.9, 0.35, 0.66], [0.85, 0.27, 0.33, 0.02, 0.03], [0.07, 0.1, 0.1, 0.58, 0.4], [0.86, 0.05, 0.01, 0.79, 0.82], [0.73, 0.03, 0.85, 0.85, 0.2], [0.8, 0.04, 0.95, 0.62, 0.66], [0.92, 0.48, 0.74, 0.53, 0.12], [0.93, 0.8, 0.86, 0.44, 0.73], [0.42, 0.74, 0.7, 0.69, 0.79], [0.82, 0.13, 0.4, 0.14, 0.33], [0.19, 0.77, 0.24, 0.51, 0.33], [0.09, 0.23, 0.98, 0.13, 0.85], [0.15, 0.91, 0.51, 0.04, 0.99], [0.61, 0.58, 0.26, 0.31, 0.87], [0.39, 0.03, 0.08, 0.08, 0.59], [0.09, 0.48, 0.2, 0.51, 0.78], [0.38, 0.72, 0.65, 0.67, 0.51], [0.65, 0.96, 0.22, 0.99, 0.08], [0.75, 0.85, 0.8, 0.86, 0.3], [0.22, 0.75, 0.36, 0.27, 0.82], [0.05, 0.73, 0.84, 0.14, 0.4], [0.23, 0.38, 0.47, 0.88, 0.79], [0.38, 0.34, 0.42, 0.86, 0.52], [0.84, 0.7, 0.35, 0.64, 0.11], [0.45, 0.86, 0.39, 0.69, 0.47], [0.09, 0.98, 0.0, 0.91, 0.1], [0.12, 0.51, 0.76, 0.24, 0.97], [0.34, 0.71, 0.51, 0.5, 0.1], [0.77, 0.38, 0.77, 0.72, 0.1], [0.5, 0.86, 0.58, 0.88, 0.55], [0.72, 0.11, 0.6, 0.87, 0.87]], "bias_ideal": 1.1583649528322433, "bias": -0.16575643501414533, "bio_idx": 3, "A_actual": [44.80478945543974, 44.166192573936236, 44.4581919063176, 44.04012492761955, 43.90357950469265, 43.42923533861361, 42.976119768702944, 43.14580860283177, 41.996485745435365, 42.363869836653144, 41.797762296361824, 41.37754506745289, 40.999222923429336, 43.74131027998972, 41.6197654639694, 42.168806982497266, 42.27423057618851, 42.36351671361219, 42.04544304131053, 41.98391234570503, 41.585230247293694, 40.20551860415654, 39.82223255179167, 39.86313036689253, 39.76075119573159, 39.81309164821421, 39.44560320756524, 39.24237374626535, 39.017120589285966, 38.59771356393074, 38.50971233116371, 38.118975498851434, 38.43114399501698, 37.85696483532888, 37.88779494124616, 38.00547997478738, 37.778386065129986, 37.96307680194325, 38.06140640655928, 37.990411669478576, 38.11369655062481, 38.379593536998726, 38.17992513904185, 38.31398687562359, 38.07007229030892, 38.44604595173475, 38.244284499621415, 38.13857301912935, 37.76813251578366, 37.38952424792315, 37.01695174035162, 35.93254922994204, 34.98665319516966, 32.61702380166477, 33.142712881563085, 35.756503911175315, 35.51771591906579, 34.91402489834213, 34.35067886416514, 32.9486994572757, 33.13016124726748, 32.3399693913916, 31.931508146449914, 31.465532175057486, 30.834486034776976, 30.360953940332077, 30.060381538808223, 35.66718385888548, 31.490331096563327, 29.54218351400646, 28.134564577222665, 27.6131960637718, 27.80076440754432, 27.598528883173262, 28.192867857032716, 28.68961750387601, 29.093735986605303, 30.00670384736338, 30.222464709399652, 31.0250666311671, 24.471693387224008, 26.794538605070564, 32.1884717834246, 25.08607601684478, 31.554954471193053, 30.48119822609317, 30.674035967094404, 29.505922745133464, 28.68738049785912, 27.4167696986764, 27.54068716081404, 26.41162704559195, 26.81886355770739, 26.060513369356034, 26.009865331168193, 25.765635283539137, 25.25919563656438, 25.548426021319504, 25.11395023522217, 25.311751702443786, 25.77764989758886, 24.921787144400987, 25.2401321371781, 25.551808271264573, 25.071733519402127, 25.95796410672867, 25.39643400318917, 25.037959136051523, 24.96579495477425, 24.4450255472461, 24.82024349329916, 24.513903361095007, 23.359507108608295, 23.93537862317709, 23.190342895409035, 22.467147742655133, 21.32616159594816, 22.273985261468685, 20.42687894658877, 20.750377832381226, 19.93525691050451, 19.511097725158564, 18.062375827178673, 17.920867714297195, 16.257146680421286, 16.144906861994993, 17.949130184188682, 17.876487003318644, 17.28322133038937, 16.37816171800126, 15.470333180279017, 14.555839174060372, 12.662455484854217, 11.769911414992375, 10.582985347685916, 9.539177724638373, 8.303934334303465, 7.296922427201467, 6.42328631183481, 5.599856541527434, 5.040793156021402, 4.360966363905125, 3.315462749947889, 3.2538748619752784, 2.6190037192360927, 1.8664234665392796, 1.4848296099743166, 2.887307868310823, 2.356536052073939, 2.254988055321795, 1.8616641891207621, 1.3020753363973314, 0.8400555122770023, 3.1158828984278637, 2.9395412862835437, 2.820674590836261, 2.5438920145397987, 2.3495046090710865, 1.9941432012945262, 1.978135100218009, 1.7182323199459277, 1.6237254954675002, 1.375884092343741, 1.3371852111963354, 1.2163069142988692, 1.0409753526388348, 0.9688530924574631, 0.8256720013908735, 0.79375416564354, 0.6906218960198518, 0.6311166455550522, 0.5938507853476034, 0.49388351334128866, 0.43946432510600597, 0.4067054325921468, 0.3499552418453002, 0.33319974359474386, 0.28918929060482335, 0.24838305843187067, 0.20820022866851037, 0.20430986577989713, 0.181446031747475, 0.16020840900237035, 0.13857117700328347, 0.1252725856054304, 0.10483460805224976, 0.08825079431923752, 0.08830308461358433, 0.076873631814526, 0.0679473273352264, 0.05917224121064456, 0.05038729899695911, 0.044566903649625775, 0.040497193366610944, 0.03698260430073897, 0.031441694532717286, 0.026591589170648362, 0.02395140696899963, 0.022218645258804893, 0.0], "loss": 1.7078548815307064, "x_sample": [-1.0, -0.99, -0.98, -0.97, -0.96, -0.95, -0.94, -0.9299999999999999, -0.9199999999999999, -0.9099999999999999, -0.8999999999999999, -0.8899999999999999, -0.8799999999999999, -0.8699999999999999, -0.8599999999999999, -0.8499999999999999, -0.8399999999999999, -0.8299999999999998, -0.8199999999999998, -0.8099999999999998, -0.7999999999999998, -0.7899999999999998, -0.7799999999999998, -0.7699999999999998, -0.7599999999999998, -0.7499999999999998, -0.7399999999999998, -0.7299999999999998, -0.7199999999999998, -0.7099999999999997, -0.6999999999999997, -0.6899999999999997, -0.6799999999999997, -0.6699999999999997, -0.6599999999999997, -0.6499999999999997, -0.6399999999999997, -0.6299999999999997, -0.6199999999999997, -0.6099999999999997, -0.5999999999999996, -0.5899999999999996, -0.5799999999999996, -0.5699999999999996, -0.5599999999999996, -0.5499999999999996, -0.5399999999999996, -0.5299999999999996, -0.5199999999999996, -0.5099999999999996, -0.49999999999999956, -0.48999999999999955, -0.47999999999999954, -0.46999999999999953, -0.4599999999999995, -0.4499999999999995, -0.4399999999999995, -0.4299999999999995, -0.4199999999999995, -0.4099999999999995, -0.39999999999999947, -0.38999999999999946, -0.37999999999999945, -0.36999999999999944, -0.35999999999999943, -0.3499999999999994, -0.3399999999999994, -0.3299999999999994, -0.3199999999999994, -0.3099999999999994, -0.2999999999999994, -0.28999999999999937, -0.27999999999999936, -0.26999999999999935, -0.25999999999999934, -0.24999999999999933, -0.23999999999999932, -0.22999999999999932, -0.2199999999999993, -0.2099999999999993, -0.1999999999999993, -0.18999999999999928, -0.17999999999999927, -0.16999999999999926, -0.15999999999999925, -0.14999999999999925, -0.13999999999999924, -0.12999999999999923, -0.11999999999999922, -0.10999999999999921, -0.0999999999999992, -0.08999999999999919, -0.07999999999999918, -0.06999999999999917, -0.059999999999999165, -0.049999999999999156, -0.03999999999999915, -0.02999999999999914, -0.01999999999999913, -0.00999999999999912, 8.881784197001252e-16, 0.010000000000000897, 0.020000000000000906, 0.030000000000000915, 0.040000000000000924, 0.05000000000000093, 0.06000000000000094, 0.07000000000000095, 0.08000000000000096, 0.09000000000000097, 0.10000000000000098, 0.11000000000000099, 0.120000000000001, 0.130000000000001, 0.140000000000001, 0.15000000000000102, 0.16000000000000103, 0.17000000000000104, 0.18000000000000105, 0.19000000000000106, 0.20000000000000107, 0.21000000000000107, 0.22000000000000108, 0.2300000000000011, 0.2400000000000011, 0.2500000000000011, 0.2600000000000011, 0.27000000000000113, 0.28000000000000114, 0.29000000000000115, 0.30000000000000115, 0.31000000000000116, 0.3200000000000012, 0.3300000000000012, 0.3400000000000012, 0.3500000000000012, 0.3600000000000012, 0.3700000000000012, 0.3800000000000012, 0.39000000000000123, 0.40000000000000124, 0.41000000000000125, 0.42000000000000126, 0.43000000000000127, 0.4400000000000013, 0.4500000000000013, 0.4600000000000013, 0.4700000000000013, 0.4800000000000013, 0.4900000000000013, 0.5000000000000013, 0.5100000000000013, 0.5200000000000014, 0.5300000000000014, 0.5400000000000014, 0.5500000000000014, 0.5600000000000014, 0.5700000000000014, 0.5800000000000014, 0.5900000000000014, 0.6000000000000014, 0.6100000000000014, 0.6200000000000014, 0.6300000000000014, 0.6400000000000015, 0.6500000000000015, 0.6600000000000015, 0.6700000000000015, 0.6800000000000015, 0.6900000000000015, 0.7000000000000015, 0.7100000000000015, 0.7200000000000015, 0.7300000000000015, 0.7400000000000015, 0.7500000000000016, 0.7600000000000016, 0.7700000000000016, 0.7800000000000016, 0.7900000000000016, 0.8000000000000016, 0.8100000000000016, 0.8200000000000016, 0.8300000000000016, 0.8400000000000016, 0.8500000000000016, 0.8600000000000017, 0.8700000000000017, 0.8800000000000017, 0.8900000000000017, 0.9000000000000017, 0.9100000000000017, 0.9200000000000017, 0.9300000000000017, 0.9400000000000017, 0.9500000000000017, 0.9600000000000017, 0.9700000000000017, 0.9800000000000018, 0.9900000000000018], "gain_ideal": 0.39558615280028059, "A_ideal": [44.18992458019089, 44.00986752400204, 43.82981046781318, 43.64975341162433, 43.469696355435474, 43.288546186584185, 43.10729885216289, 42.926051517741605, 42.74480418332032, 42.562520549717114, 42.38003471139548, 42.197548873073856, 42.015063034752224, 41.83160230973031, 41.647825405238024, 41.46404850074574, 41.280271596253456, 41.095586508679524, 40.9104610899145, 40.725335671149466, 40.54021025238443, 40.354249463481196, 40.16771255724128, 39.98117565100136, 39.794638744761436, 39.60734636224777, 39.41932872251131, 39.23131108277485, 39.043293443038394, 38.854608461231344, 38.66503368999683, 38.47545891876233, 38.28588414752782, 38.095739799618386, 37.904523307379684, 37.71330681514098, 37.52209032290228, 37.33041332858837, 37.13746109775853, 36.944508866928686, 36.75155663609884, 36.55826632397369, 36.363473428313874, 36.16868053265406, 35.973887636994235, 35.77889491634218, 35.58214373575845, 35.385392555174725, 35.18864137459099, 34.99184752527589, 34.79300557685472, 34.59416362843354, 34.39532168001237, 34.1964797315912, 33.99553420250687, 33.794451483379284, 33.5933687642517, 33.392286045124116, 33.1891362589026, 32.985641961498764, 32.78214766409492, 32.578653366691086, 32.373137088055934, 32.167035499064355, 31.96093391007277, 31.75483232108119, 31.546764916607, 31.33783024059636, 31.128895564585726, 30.919960888575087, 30.70913096095716, 30.497100707321287, 30.28507045368541, 30.073040200049533, 29.859204099889016, 29.64377052011055, 29.428336940332084, 29.212903360553618, 28.995778210755955, 28.776577043207464, 28.55737587565897, 28.338174708110476, 28.11742943091049, 27.894024853755155, 27.67062027659982, 27.447215699444484, 27.22245932257249, 26.994323446408842, 26.766187570245197, 26.538051694081553, 26.308817893830156, 26.075302189636524, 25.841786485442892, 25.60827078124926, 25.37399713821698, 25.134291600174397, 24.894586062131815, 24.654880524089236, 24.414880232792942, 24.167953240034464, 23.921026247275986, 23.674099254517508, 23.427172261759033, 23.17202846668066, 22.916535020439742, 22.661041574198826, 22.405548127957907, 22.14095361161605, 21.87508917851593, 21.609224745415805, 21.34336031231568, 21.067244044643925, 20.788499101440983, 20.509754158238042, 20.2310092150351, 19.940452933575852, 19.645172116814084, 19.349891300052317, 19.05461048329055, 18.74528355802647, 18.427800827825564, 18.110318097624656, 17.792835367423752, 17.457832843060967, 17.108554930862578, 16.75927701866419, 16.409999106465804, 16.037059339345276, 15.637371388399735, 15.237683437454194, 14.837995486508655, 14.40087382684138, 13.904646311297714, 13.408418795754049, 12.912191280210383, 12.318644244682538, 11.504506297190677, 10.690368349698819, 9.876230402206957, 8.736390919994923, 6.471400681477635, 4.2064104429603475, 1.9414202044430597, 0.0, 0.0, 0.0, 0.0, 0.0, 0.0, 0.0, 0.0, 0.0, 0.0, 0.0, 0.0, 0.0, 0.0, 0.0, 0.0, 0.0, 0.0, 0.0, 0.0, 0.0, 0.0, 0.0, 0.0, 0.0, 0.0, 0.0, 0.0, 0.0, 0.0, 0.0, 0.0, 0.0, 0.0, 0.0, 0.0, 0.0, 0.0, 0.0, 0.0, 0.0, 0.0, 0.0, 0.0, 0.0, 0.0, 0.0, 0.0, 0.0, 0.0, 0.0, 0.0, 0.0, 0.0, 0.0, 0.0, 0.0], "weights": [[-0.00011933960670822561, 0.0005789330445185526, -7.798339916236412e-05, 4.531502510915124e-05, 0.0005446024095989018], [-0.0004980081365613448, -0.00040888794898497787, -0.00020235053304004725, -0.00045817899163917686, 0.0004445336528801145], [0.0003892013823847301, -0.0006588995085856676, 0.00015237089539635082, 0.0003517338973113703, 1.4241315916019732e-05], [0.00024621586274621853, -0.00017768412495972876, 6.358740063264354e-05, -8.582961393782752e-05, 0.0003446285510030837], [5.789253738162716e-05, 0.00040247118881523434, -0.00028216110654386993, 0.000225750903463619, -0.00068823627703202], [-0.00020835342530793713, 0.0002550411249593892, -2.1050667770154205e-05, 4.889675552457341e-05, -6.614926130638198e-05], [0.0005113333274510964, 0.00010342598308201414, 0.0004039594051808827, -0.000654918442703114, -4.864062996569543e-06], [-0.00020935106116238655, -7.14574186258423e-05, 0.00029433921697736095, -0.0006621918122660224, -0.00015660322323076466], [-7.823083678413428e-05, -0.0005480299307190728, -0.000616101239685422, 0.000723161169258051, -0.0001724148942645943], [0.000312186413827375, 0.0006689035141769986, 4.892631012838494e-05, 0.0007641717185845649, 0.0003008931975293515], [0.0003344113384507058, 0.00015860975822285265, 9.585618347485774e-05, -0.00039796100767770706, -0.00011053921340500042], [-0.0003735907214713008, 0.00023097833298072094, 0.0002735114576514831, -0.00011681371094145014, 0.0003402768196579194], [0.00014086401070125413, -0.0006869553288235749, 0.0005287226975259715, 0.0008479778241176169, 0.00058337657971955], [-0.00018336173963933285, 0.0002627018205710063, 0.0004169209130824622, 0.00014497848809551407, -0.00039995706959107665], [-0.0001598107710262671, 0.0005054975482793312, -0.00037447618184966407, 0.00010044264476966486, -7.021088200525337e-05], [-0.00022935033136159863, 0.00029268227558427686, -0.00018464874096725593, -0.0006653609765539625, -8.059533903147119e-05], [0.0006999947670921615, 0.0006721782693540164, 3.4416705634433646e-05, 0.0007497245355802715, 0.0007352648861394178], [-0.0007579181634282831, -0.00042983588677341283, -0.0006262638718347542, 0.00039350538294470594, 0.00015364064850510685], [0.0004956280918918183, 0.00033613335960879, -0.0007297087478376126, 0.0002364060146492344, -0.0002740102976738488], [-0.0004471742354438738, -4.748468805679636e-06, 0.00026677930474977807, 0.00039007707893072964, -0.0006565529818495574], [0.0005826514633147529, 0.0004359094504185926, -0.00010802346734937835, -0.00012241657706661615, -0.00023048410785893748], [-0.0001702295748278271, -0.00046155672011514895, 5.769956886760976e-05, 0.000657858861457931, 0.00028890870052353766], [0.0002705283550471615, 0.00016358795951341233, 0.00041221614172542466, 0.0003793549075446365, -0.00014574762213636787], [0.00016764148290631807, -1.9137823892844312e-05, -0.000792020486361479, -0.00022675685502093697, -0.0005765918394526866], [0.0002214531016554134, 0.000488884238755375, 0.00022869113574712442, 0.0007587850810584679, -0.00022430809789513852], [-2.4827459992126835e-05, -3.867780158100365e-05, 0.0004852210100160538, -0.0006655459422783308, 0.0004228844367545967], [-0.0003216460435019568, -0.00044879447929237226, -0.0005295455871560609, 0.00026734104850228654, -0.0003426250437690851], [3.177885882290398e-05, -0.0001243446991821215, -0.00027800391250973956, 0.0006216698004764424, 0.00023575358424814645], [-0.0006744570594262979, -0.00048591889635198955, -1.987745854609545e-05, -3.534591556609819e-06, 0.00018885568996284807], [-0.0001513764481855671, 0.0006574424678360687, -6.198766212202213e-05, 0.00031664941058379896, -0.00033954034797870276], [0.00028060825042919464, -0.0006098056397579141, 0.0002775920855504829, -0.00017992133446472037, 0.00012961574881125058], [0.00029068159245510813, 0.0004929480137303655, 6.300796924792456e-05, 0.00015277603692998547, -0.0008484275170383478], [0.00015763320512149055, 0.0006093730961898252, 2.8797130484947387e-05, -0.0002691356495643067, -0.000781777865731887], [-0.00034470904032224463, 0.0004244165252010319, -0.0003169074042879982, -0.00026602714485765436, 0.00032256165731781613], [0.0004541716781513449, 0.0006573590136515632, 0.00044353925255376995, 0.00012185478390641122, -0.0007689245456273812], [-0.000570248675890895, -0.0005755367352897498, 0.0005290377810886431, 3.881550775951609e-05, -0.0003926681013379594], [-0.00023085599894533107, 0.0007893889589391677, -0.0004936560495936505, -1.7183010114050834e-05, 0.000500559034862507], [-0.000705602607755922, 0.0006077547379434002, -0.000421328251444362, 0.0003311281587338112, 9.070614244025075e-07], [-9.121349702165674e-05, 0.00012473867598901018, 0.0005382400837945334, 1.1692850115243374e-05, -0.00021046808980649411], [-0.000533549541656523, -4.122465778652688e-05, -0.0002689800352247194, 0.0004793996574347714, 2.5113370278285845e-05], [0.00021033410075226963, -2.8912326355126053e-05, 0.0006589603906871296, -0.0004128289910879773, 0.00033069697738617726], [-0.00019380927793710657, 0.00043892616913375644, -0.0005126015753053929, -0.00022086356858159537, -0.0003268294013424215], [-0.0005153904970953412, -3.171397246268419e-06, -0.0005552700493635677, -6.414570254890213e-05, 0.00047094066966923206], [3.3249420376082664e-05, -0.00010823680156081124, -0.0005235116024600548, -2.410281065473645e-05, 0.0002051296974961083], [-0.0003699826877665506, -0.00025950738392506906, 1.3874990565589768e-05, 0.0007420622139787658, 0.00015824257310645694], [9.591254332038369e-05, -0.00012227071719854297, 2.8990834898531534e-05, -0.0004950194624354917, 0.0003322159334156485], [-0.00041679820141722954, -0.0007121049170137035, 0.00019950165174095486, 0.0006478055788296476, 0.00028298976985424257], [-0.00022692343515035859, 0.0003734643461652882, -0.000293411262882476, 0.00022403669464633136, 0.00013073496099689924], [0.0006324475151454122, -0.0004876260110036413, -0.0006706474114483557, -0.0002683920662466187, -0.0005983059427197714], [4.5914085595531945e-05, -0.00046799843933400045, -0.0003965341142004071, 0.00024243624840896902, -0.000631265949158931]]}