{"spike_times": [11.0, 48.7, 107.5, 160.5, 190.4, 216.9, 241.5, 269.5, 303.4, 473.7, 501.0, 520.7, 539.9, 559.5, 579.6, 601.3, 629.7, 659.3, 684.2, 703.2, 722.2, 741.2, 760.2, 779.4, 798.8, 819.6, 945.4, 976.1, 1005.4, 1037.1, 1087.8, 1124.4, 1152.3, 1176.1, 1199.8, 1227.2, 1262.6, 1315.2, 1356.6, 1402.8, 1473.7, 1525.9, 1551.8, 1572.4, 1591.4, 1615.6, 1737.7, 1777.5, 1801.6, 1824.0, 1845.7, 1871.6, 1901.8, 1931.5, 1961.0, 1990.6], "locations": [[0.14, 0.08, 0.47, 0.52, 0.29], [0.76, 0.96, 0.51, 0.14, 0.61], [0.81, 0.16, 0.7, 0.92, 0.96], [0.68, 0.0, 0.36, 0.46, 0.8], [0.07, 0.57, 0.44, 0.24, 0.35], [0.78, 0.03, 0.8, 0.6, 0.07], [0.27, 0.72, 0.56, 0.59, 0.49], [0.99, 0.95, 0.21, 0.18, 0.24], [0.73, 0.09, 0.23, 0.88, 0.7], [0.83, 0.83, 0.86, 0.77, 0.06], [0.53, 0.66, 0.67, 0.33, 0.75], [0.5, 0.63, 0.74, 0.11, 0.69], [0.77, 0.84, 0.35, 0.37, 0.89], [0.24, 0.1, 0.86, 0.48, 0.08], [0.96, 0.58, 0.28, 0.25, 0.01], [0.79, 0.14, 0.51, 0.41, 0.24], [0.06, 0.42, 0.43, 0.26, 0.85], [0.29, 0.68, 0.27, 0.24, 0.63], [0.42, 0.42, 0.48, 0.16, 0.0], [0.16, 0.64, 0.94, 0.18, 0.58], [0.1, 0.59, 0.86, 0.1, 0.68], [0.34, 0.79, 0.32, 0.44, 0.73], [0.76, 0.98, 0.9, 0.75, 0.81], [0.87, 0.26, 0.79, 0.17, 0.25], [0.39, 0.12, 0.83, 0.63, 0.61], [0.27, 0.48, 0.69, 0.34, 0.21], [0.77, 0.23, 0.49, 0.21, 0.45], [0.03, 0.44, 0.41, 0.82, 0.41], [0.58, 0.77, 0.24, 0.44, 0.77], [0.13, 0.28, 0.17, 0.41, 0.23], [0.61, 0.83, 0.07, 0.57, 0.76], [0.11, 0.01, 0.49, 0.06, 0.2], [0.78, 0.92, 0.33, 0.37, 0.19], [0.57, 0.43, 0.85, 0.1, 0.2], [0.5, 0.74, 0.88, 0.26, 0.75], [0.49, 0.05, 0.58, 0.9, 0.28], [0.92, 0.03, 0.89, 0.6, 0.98], [0.05, 0.89, 0.37, 0.74, 0.48], [0.05, 0.83, 0.97, 0.34, 0.11], [0.33, 0.31, 0.87, 0.45, 0.44], [0.33, 0.57, 0.47, 0.6, 0.65], [0.88, 0.96, 0.32, 0.02, 0.83], [0.65, 0.52, 0.21, 0.42, 0.34], [0.11, 0.95, 0.78, 0.66, 0.78], [0.19, 0.22, 0.63, 0.59, 0.2], [0.57, 0.52, 0.43, 0.29, 0.31], [0.71, 0.19, 0.03, 0.92, 0.55], [0.75, 0.23, 0.17, 0.09, 0.23], [0.23, 0.17, 0.9, 0.78, 0.96], [0.46, 0.23, 0.98, 0.01, 0.7]], "bias_ideal": 1.2502743983077311, "bias": 0.2605604070825792, "bio_idx": 1, "A_actual": [46.785526232776384, 46.22037507095954, 45.914447224646985, 45.55795793744263, 45.02183104435225, 44.644160476471264, 44.31507684417376, 44.10095228284778, 43.63277639397777, 43.3899512871351, 43.2110998632758, 42.31425444982948, 42.72232653155853, 45.107271644826646, 42.58916057788092, 43.18678790233051, 43.300010997735754, 43.24337192707746, 42.90471774227468, 42.64553832923236, 42.12599195270475, 40.46452901159126, 40.38665084355814, 40.75784775338709, 40.61019246190177, 40.276002552535246, 39.71560291426652, 39.28816961227107, 38.83104306073013, 38.39558536242261, 37.892449570707704, 37.527680787675976, 37.572191247635004, 37.34468850405728, 37.32010220536469, 37.384646621102135, 37.3897159351864, 37.596445171490984, 37.99493085493262, 37.98035596563134, 38.295334917601075, 38.78206421114354, 38.87846623928746, 39.00143051385561, 39.296808123046084, 39.32235451186442, 39.51606141076336, 39.22001521851593, 39.2404427815376, 38.76185604962623, 37.97416856131377, 36.989955623426816, 35.59077554855808, 32.38143462355518, 32.58571207825749, 36.3656416290168, 36.08653422481785, 35.621538316917594, 35.032036370930406, 34.191305075417986, 34.38867973542872, 33.84515019498196, 33.33338434237036, 33.18056982530515, 33.183888002314355, 32.72540951554809, 32.8630615732321, 30.95363927245823, 33.190260049505625, 34.28513529765435, 34.78046500438038, 35.23161515043013, 35.38984802492384, 35.377284931220984, 35.346692939592636, 34.96505471245077, 34.24041659604109, 33.541809074708226, 32.48220624777055, 31.178046520688167, 34.24213391273141, 32.081127754926534, 28.120751939778017, 34.629745059735406, 29.57953452645934, 30.396085487520914, 30.41666380227613, 30.970979609638256, 30.73933529152217, 30.155563719101707, 30.403952437313112, 29.273158955503483, 29.50860808655912, 28.216813189701917, 29.526283102546337, 27.829764664272652, 27.614183523342877, 27.094080374763692, 27.985562463543733, 28.261853574658883, 28.15345690934042, 29.272794202781377, 30.028508196329327, 30.133962835970582, 30.209101392018074, 30.613129782824664, 31.46574624615037, 31.34157357604262, 31.547387447462604, 31.26116318019641, 31.700003572750106, 31.366027728542786, 31.661356684760428, 31.505203630255448, 31.01816493161688, 31.65014352409133, 30.286374009784616, 30.417106198566913, 30.328806160678287, 29.584432089280387, 29.2326992456095, 29.005852010027667, 28.748139436628346, 28.11407855497799, 26.72045936471304, 32.23494236554151, 26.701191000728134, 24.61137625656807, 22.126106575384313, 21.23510343382198, 19.934521431641127, 18.85737763151719, 18.632075135798114, 18.805880183032123, 18.117826713756944, 18.613579154065285, 17.892394021362417, 18.512171020257824, 19.316931436424422, 19.924040721622905, 19.697053809086015, 21.29194790771533, 21.6352453396378, 22.603656366357452, 23.171072414083344, 24.485250230185603, 25.046626428640277, 23.128254237837332, 23.481388881567256, 21.350449727863687, 20.266756436141755, 17.805273393809898, 13.089720913453421, 21.522637018790224, 21.76689157427119, 21.539673105826555, 21.125779189743767, 20.82290520952122, 20.505854164393824, 21.056738551895094, 19.691671235351812, 19.86052149659909, 19.858047529682494, 19.350180255508345, 18.868623859254303, 19.446467240696858, 17.964266712433073, 17.993710880821673, 17.54720105361658, 17.764536415402763, 16.128208902457313, 15.891673139734943, 15.812726180801015, 14.707617460614088, 14.91346254109737, 14.915828001303709, 13.869404827049689, 13.553650844460167, 12.301813934499771, 12.619336074076804, 12.150265800490466, 11.756282502527215, 10.93363060017983, 10.633718704050336, 10.387656779664228, 9.427614888201795, 10.035552556422427, 8.237207685535001, 9.121660665688623, 8.255719495933057, 7.856812384292128, 7.536754403918024, 6.896000748434164, 6.974532240178223, 6.957073155041484, 6.307377353544069, 6.114716426533039, 5.755155036895783, 6.242306664905517, -8.881784197001252e-16], "loss": 2.6049176943262591, "x_sample": [-1.0, -0.99, -0.98, -0.97, -0.96, -0.95, -0.94, -0.9299999999999999, -0.9199999999999999, -0.9099999999999999, -0.8999999999999999, -0.8899999999999999, -0.8799999999999999, -0.8699999999999999, -0.8599999999999999, -0.8499999999999999, -0.8399999999999999, -0.8299999999999998, -0.8199999999999998, -0.8099999999999998, -0.7999999999999998, -0.7899999999999998, -0.7799999999999998, -0.7699999999999998, -0.7599999999999998, -0.7499999999999998, -0.7399999999999998, -0.7299999999999998, -0.7199999999999998, -0.7099999999999997, -0.6999999999999997, -0.6899999999999997, -0.6799999999999997, -0.6699999999999997, -0.6599999999999997, -0.6499999999999997, -0.6399999999999997, -0.6299999999999997, -0.6199999999999997, -0.6099999999999997, -0.5999999999999996, -0.5899999999999996, -0.5799999999999996, -0.5699999999999996, -0.5599999999999996, -0.5499999999999996, -0.5399999999999996, -0.5299999999999996, -0.5199999999999996, -0.5099999999999996, -0.49999999999999956, -0.48999999999999955, -0.47999999999999954, -0.46999999999999953, -0.4599999999999995, -0.4499999999999995, -0.4399999999999995, -0.4299999999999995, -0.4199999999999995, -0.4099999999999995, -0.39999999999999947, -0.38999999999999946, -0.37999999999999945, -0.36999999999999944, -0.35999999999999943, -0.3499999999999994, -0.3399999999999994, -0.3299999999999994, -0.3199999999999994, -0.3099999999999994, -0.2999999999999994, -0.28999999999999937, -0.27999999999999936, -0.26999999999999935, -0.25999999999999934, -0.24999999999999933, -0.23999999999999932, -0.22999999999999932, -0.2199999999999993, -0.2099999999999993, -0.1999999999999993, -0.18999999999999928, -0.17999999999999927, -0.16999999999999926, -0.15999999999999925, -0.14999999999999925, -0.13999999999999924, -0.12999999999999923, -0.11999999999999922, -0.10999999999999921, -0.0999999999999992, -0.08999999999999919, -0.07999999999999918, -0.06999999999999917, -0.059999999999999165, -0.049999999999999156, -0.03999999999999915, -0.02999999999999914, -0.01999999999999913, -0.00999999999999912, 8.881784197001252e-16, 0.010000000000000897, 0.020000000000000906, 0.030000000000000915, 0.040000000000000924, 0.05000000000000093, 0.06000000000000094, 0.07000000000000095, 0.08000000000000096, 0.09000000000000097, 0.10000000000000098, 0.11000000000000099, 0.120000000000001, 0.130000000000001, 0.140000000000001, 0.15000000000000102, 0.16000000000000103, 0.17000000000000104, 0.18000000000000105, 0.19000000000000106, 0.20000000000000107, 0.21000000000000107, 0.22000000000000108, 0.2300000000000011, 0.2400000000000011, 0.2500000000000011, 0.2600000000000011, 0.27000000000000113, 0.28000000000000114, 0.29000000000000115, 0.30000000000000115, 0.31000000000000116, 0.3200000000000012, 0.3300000000000012, 0.3400000000000012, 0.3500000000000012, 0.3600000000000012, 0.3700000000000012, 0.3800000000000012, 0.39000000000000123, 0.40000000000000124, 0.41000000000000125, 0.42000000000000126, 0.43000000000000127, 0.4400000000000013, 0.4500000000000013, 0.4600000000000013, 0.4700000000000013, 0.4800000000000013, 0.4900000000000013, 0.5000000000000013, 0.5100000000000013, 0.5200000000000014, 0.5300000000000014, 0.5400000000000014, 0.5500000000000014, 0.5600000000000014, 0.5700000000000014, 0.5800000000000014, 0.5900000000000014, 0.6000000000000014, 0.6100000000000014, 0.6200000000000014, 0.6300000000000014, 0.6400000000000015, 0.6500000000000015, 0.6600000000000015, 0.6700000000000015, 0.6800000000000015, 0.6900000000000015, 0.7000000000000015, 0.7100000000000015, 0.7200000000000015, 0.7300000000000015, 0.7400000000000015, 0.7500000000000016, 0.7600000000000016, 0.7700000000000016, 0.7800000000000016, 0.7900000000000016, 0.8000000000000016, 0.8100000000000016, 0.8200000000000016, 0.8300000000000016, 0.8400000000000016, 0.8500000000000016, 0.8600000000000017, 0.8700000000000017, 0.8800000000000017, 0.8900000000000017, 0.9000000000000017, 0.9100000000000017, 0.9200000000000017, 0.9300000000000017, 0.9400000000000017, 0.9500000000000017, 0.9600000000000017, 0.9700000000000017, 0.9800000000000018, 0.9900000000000018], "gain_ideal": 0.28381841305863031, "A_ideal": [43.285364159848115, 43.155249305836335, 43.02513445182455, 42.89501959781277, 42.76490474380098, 42.63420574025616, 42.503454812308384, 42.37270388436062, 42.24195295641285, 42.11065384286977, 41.979247766283706, 41.84784168969764, 41.71643561311158, 41.58451949159143, 41.45243795009265, 41.32035640859388, 41.18827486709511, 41.05572382622836, 40.922945149304404, 40.79016647238045, 40.65738779545649, 40.52418282684521, 40.390683863966814, 40.25718490108841, 40.12368593821, 39.98980684406798, 39.855562823912884, 39.72131880375779, 39.587074783602695, 39.45250007457217, 39.31748444704109, 39.18246881951, 39.04745319197891, 38.9121599738601, 38.77634423228204, 38.64052849070398, 38.50471274912592, 38.368676597065644, 38.23203007751614, 38.09538355796664, 37.95873703841715, 37.82193185688107, 37.68442151096023, 37.54691116503939, 37.409400819118545, 37.271798685711474, 37.13338882242555, 36.99497895913964, 36.85656909585372, 36.71814008674764, 36.57879207827388, 36.43944406980011, 36.30009606132634, 36.160748052852576, 36.02048000074593, 35.880151945793656, 35.73982389084139, 35.59949583588912, 35.458288688458566, 35.31693502561497, 35.17558136277137, 35.03422769992777, 34.89204015006736, 34.749611211859985, 34.60718227365261, 34.464753335445245, 34.32154061711707, 34.17798211344149, 34.03442360976591, 33.890865106090324, 33.746578594615855, 33.601831011535424, 33.457083428455, 33.31233584537457, 33.16692259842578, 33.02092049497805, 32.87491839153033, 32.7289162880826, 32.58231851656336, 32.43498969786545, 32.28766087916753, 32.14033206046962, 31.992486516140797, 31.843751055447648, 31.6950155947545, 31.54628013406135, 31.397117397846277, 31.246886472826375, 31.096655547806478, 30.94642462278658, 30.79586827403819, 30.644042772748683, 30.49221727145918, 30.34039177016967, 30.188357412583578, 30.034826251538618, 29.88129509049366, 29.727763929448695, 29.574158043508003, 29.418796122517584, 29.263434201527165, 29.108072280536746, 28.952710359546327, 28.795456559222636, 28.6381222533954, 28.480787947568164, 28.32345364174093, 28.16424695917228, 28.004779014732737, 27.845311070293192, 27.68584312585365, 27.524529922217152, 27.362743575196824, 27.20095722817649, 27.039170881156164, 26.87557625960271, 26.71125832823601, 26.54694039686931, 26.38262246550261, 26.216546096102764, 26.049448698167545, 25.882351300232326, 25.715253902297107, 25.54646475929051, 25.376297157336875, 25.20612955538324, 25.0359619534296, 24.864191605202787, 24.69060945684108, 24.517027308479374, 24.343445160117668, 24.168379106484164, 23.99097004452678, 23.813560982569395, 23.636151920612008, 23.457418255672575, 23.27568215730716, 23.093946058941746, 22.912209960576334, 22.729364313580746, 22.542685680408198, 22.356007047235646, 22.1693284140631, 21.981833622683872, 21.789441882064597, 21.597050141445322, 21.404658400826047, 21.21185660233297, 21.012767249774896, 20.813677897216824, 20.61458854465875, 20.41549919210068, 20.20858623371562, 20.0015102835425, 19.79443433336938, 19.58735838319626, 19.371549098202387, 19.154747388797066, 18.937945679391742, 18.72114396998642, 18.494413339281863, 18.26544870128498, 18.036484063288096, 17.807519425291215, 17.56698285855815, 17.322267539781464, 17.07755222100478, 16.832836902228095, 16.57414803563645, 16.30803572176811, 16.04192340789977, 15.775811094031429, 15.491881767416947, 15.194589681242865, 14.897297595068784, 14.600005508894702, 14.27777770991839, 13.929575210106435, 13.581372710294481, 13.233170210482527, 12.842571035937565, 12.390496683029792, 11.938422330122018, 11.486347977214244, 10.87393871141459, 9.930838687775708, 8.987738664136826, 8.044638640497944, 6.892551774676875, 5.0960888121280306, 3.2996258495791873, 1.503162887030343, 0.0, 0.0, 0.0, 0.0, 0.0, 0.0, 0.0, 0.0], "weights": [[0.0002651387114738206, 0.0003152612903310512, 0.00029566625541445563, -0.0006416073455167937, -0.0004037212597134311], [0.0004822090396548067, -0.000475179544948635, -0.0005462026430981506, 5.499084940456996e-05, 4.33972902732311e-05], [0.00040273512947540087, -5.3185948215376904e-05, -0.0005543993050906771, 0.0002487436924995417, -0.0007487845075840526], [-0.0003816799725544064, 0.0003687171850956541, 0.00048448416453384513, -0.00031350970504564286, -0.0006754594152674909], [-6.856256193888961e-05, 0.00013221810066833586, -0.00034595122650175176, -0.0005658524833769533, -0.0006086862217754052], [-0.0005301896055447167, -4.315779062132417e-05, -0.00033711322547626916, 3.9265323151734156e-05, -0.0003298070970522979], [-0.0003041485984967533, 0.0005653430636818183, -0.0005739782059965544, -0.0001526838274011784, 0.0006893334647890409], [0.00011349605175045859, -0.00039391197334537136, -3.648869511281653e-05, -0.0001441024367246261, 0.00030885511801139945], [-0.0007640303833311945, 9.613340499200201e-05, -0.000611927325679764, -0.0003952135792159344, 0.0005164714043694457], [0.0007627350075632754, 0.00031120486447528686, 0.0006773097822762018, -0.0004403398591736676, -0.0003904598325581028], [0.00028757069327032457, 0.00011958457301268737, -0.0006876102400699049, 0.00036975210079566396, -0.0007685709977792272], [-0.0004656461335680002, -0.00017356172837478797, 0.0005711533390926272, 8.65785118972977e-05, 0.000675665414683113], [0.00013469822826213298, -0.0004681242124719728, 1.2956258315515797e-05, -0.0005395947231335786, 0.000506487059993022], [6.385622410895758e-05, -0.0002046520354100621, -0.0006455998955278554, -0.00027419904599301716, -0.00031821934284146226], [-0.0005831650910644283, 7.695872911133057e-05, -0.0005001261475864798, 0.00022511024744088865, -0.00039653237202829587], [0.0006570476338710852, -0.0003472950526274055, 0.0006783747374327922, 9.885401310397523e-05, -8.260051335306573e-05], [-0.00044795503396826764, 0.0005307100243703299, -0.0005592612873418965, 0.0006117342214711746, -0.00043347720876990684], [0.00012778474958288576, -0.0007165931903615683, -8.862430607512031e-05, 0.00042606580862644, 0.0002217991773571659], [-0.00021771027808474206, 0.0003768292129867459, -9.783186869251082e-05, -0.00028476971079062177, -0.0003986854898772669], [2.5757836432139687e-05, 0.0005977785587037284, -2.969721677955489e-05, 9.345074338502699e-05, -0.00017855245744025842], [0.0002793002079905646, -0.0003013463506875376, 0.0006518220637879871, 0.00014131659175679333, -0.0005113996057853815], [-0.0003734873179885383, -0.0004004420083260745, -0.00042956725940669453, 0.0003784562482558923, -0.0006479538069270855], [0.0006871012910021029, -0.0007401856528209843, 0.0004367030071913495, -0.00027674013597123626, -0.000653418163946635], [-0.0003226543712247166, 0.00043284047659885807, 9.320293131145956e-07, -0.00034347393385267364, -0.0001665982146460536], [-0.0005270790542024735, 0.00019601573190099506, -9.471789954884144e-05, -0.00016230341286182148, 0.00024704577869821213], [4.3534740213730595e-05, 0.0002739962188715797, 1.271893923734485e-05, 0.000554168965632626, 3.467415613709523e-05], [0.000494342879561551, -0.0005131559487348579, -0.0006899464185830294, -0.00047639741760987847, 0.0004302288163067078], [3.752007307060582e-05, -0.0005026396457086231, 0.0004040759733786233, -0.0006499459676866467, -0.000580140196391304], [-0.0002686619202463479, -0.00026135338897154836, 4.3311012562652964e-05, -0.0002510695328989898, 0.0005980985249098331], [-7.82932703519036e-05, 0.0004359361897693535, 0.000450378595935349, 0.0006350170851624588, 0.00033236054088811595], [-0.000737138257586502, 0.0002731224338556853, -9.324570625923289e-05, -0.0003872781392573343, 4.5981943760305845e-05], [0.00017972797294896873, 0.00010280640266989766, 0.00016777759183410674, 0.0001490187841883615, 0.00040397069645795356], [-4.764011301250011e-05, 0.0005229117360610843, 0.0004957846450816487, -0.00047915349924646693, -0.00010713882367270815], [-0.0002579915474106108, -0.0004582514385203839, -0.0007959609969687936, 0.00011237492261970399, -6.556636626238551e-05], [0.00013270207308211556, 0.0004962470744674801, -0.00046620482983083286, -9.674387343320401e-05, 0.0001280614020614469], [-7.05893088062994e-05, -0.0001164422663234507, -0.000313351579117633, 0.000310538690719109, 0.0006122567128906486], [-8.289709496993371e-05, 0.00047914752726312354, 0.0005771487792458109, 0.000684469496093605, -0.000270459197111395], [-0.0004785565686313822, -4.958483309781196e-06, -0.0001824062338508564, -5.794270477028462e-06, -0.0006726946404117071], [-0.0005028842315840787, -0.0004868157459014059, -0.0006245161635253659, -0.00035437221135495257, -0.00039119008975589876], [-0.0005047052990857601, -0.0002575336890632073, 0.00033852939228668573, 0.000610745386700182, 0.00024616628855123925], [0.00026281528038635715, -0.0006646026915490194, 0.0005960852593679831, -0.00034456790178814237, 0.0006831645187132667], [0.0007191763289399791, 0.000826466239095521, -0.0005542188618824742, 0.00020827487147519365, 0.00033027371352039935], [2.321485916228507e-05, -0.00020195612893878656, 0.00020970413845176208, 0.00025771435153099044, -6.802418356620226e-05], [-0.00022599401394391986, -6.700188491338545e-05, -0.0006836384438266511, -0.0006295243252743346, -0.00012130207413725325], [-0.00025564842334879046, 0.0004939046759874342, -0.0004989399872798113, 0.0005550357166213861, -0.0003592406130334353], [0.0003107290364083792, -0.0005551202002183704, 0.0005795859730727519, -0.0001152718780544878, 0.0006089444837909878], [0.0006551947321264162, 0.0001295587165855705, -0.0004460295256555632, 0.00014405691735695414, -0.0006590756075527919], [0.00015634182008535048, -0.00034055438052927104, -0.0002268189673778619, 0.0003650553431483794, 0.0002681162213723757], [0.0005727627318457884, -0.00028346410710715543, 8.765358513172184e-05, 0.0005333346121333688, 0.00013431213619115155], [0.00032180617801250735, -0.0005929907053530381, -0.0004841102945861686, 0.00010572739539818857, -0.0002976534519465234]]}