{"spike_times": [16.5, 159.6, 190.1, 211.8, 234.0, 256.9, 282.7, 475.5, 500.2, 518.7, 537.5, 556.4, 575.8, 595.8, 618.0, 643.1, 667.5, 688.6, 707.5, 726.0, 744.3, 762.6, 781.0, 799.8, 819.9, 950.1, 980.4, 1005.9, 1043.0, 1093.9, 1130.2, 1153.1, 1173.9, 1194.6, 1216.7, 1249.9, 1306.4, 1348.8, 1389.3, 1523.8, 1548.3, 1566.5, 1584.9, 1604.2, 1627.5, 1768.8, 1793.4, 1812.4, 1832.2, 1852.6, 1874.2, 1900.5, 1932.0, 1961.4, 1992.3], "locations": [[0.5, 0.49, 0.6, 0.42, 0.43], [0.05, 0.24, 0.27, 0.51, 0.56], [0.67, 0.58, 0.15, 0.07, 0.37], [0.68, 0.71, 0.97, 0.07, 0.31], [0.1, 0.16, 0.75, 0.04, 0.67], [0.14, 0.03, 0.82, 0.79, 0.45], [0.4, 0.63, 0.76, 0.97, 0.47], [0.84, 0.21, 0.35, 0.16, 0.68], [0.57, 0.55, 0.83, 0.61, 0.79], [0.76, 0.99, 0.0, 0.78, 0.03], [0.1, 0.04, 0.39, 0.57, 0.07], [0.73, 0.27, 0.81, 0.36, 0.54], [0.16, 0.46, 0.57, 0.69, 0.26], [0.42, 0.21, 0.99, 0.31, 0.28], [0.21, 0.98, 0.0, 0.5, 0.13], [0.27, 0.19, 0.14, 0.26, 0.67], [0.57, 0.15, 1.0, 0.0, 0.16], [0.89, 0.77, 0.8, 0.69, 0.6], [0.16, 0.48, 0.25, 0.51, 0.36], [0.1, 0.34, 0.06, 0.58, 0.22], [0.47, 0.45, 0.31, 0.43, 0.21], [0.98, 0.62, 0.58, 0.41, 0.03], [0.66, 0.47, 0.95, 0.48, 0.79], [0.48, 0.5, 0.05, 0.76, 0.82], [0.23, 0.67, 0.22, 0.2, 0.96], [0.03, 0.75, 0.97, 0.43, 0.86], [0.81, 0.89, 0.36, 0.56, 0.98], [0.68, 0.94, 0.8, 0.43, 0.74], [0.49, 0.99, 0.47, 0.09, 0.59], [0.16, 0.26, 0.75, 0.68, 0.38], [0.63, 0.35, 0.95, 0.11, 0.77], [0.46, 0.33, 0.79, 0.76, 0.52], [0.19, 0.92, 0.46, 0.5, 0.27], [0.36, 0.54, 0.08, 0.85, 0.82], [0.76, 0.95, 0.85, 0.75, 0.72], [0.9, 0.2, 0.04, 0.93, 0.01], [0.88, 0.87, 0.64, 0.28, 0.4], [0.05, 0.39, 0.36, 0.82, 0.46], [0.05, 0.25, 0.51, 0.41, 0.77], [0.48, 0.68, 0.27, 0.04, 0.06], [0.51, 0.45, 0.76, 0.27, 0.72], [0.55, 0.28, 0.35, 0.63, 0.38], [0.16, 0.25, 0.01, 0.49, 0.23], [0.97, 0.37, 0.93, 0.75, 0.6], [0.76, 0.67, 0.32, 0.89, 0.22], [0.2, 0.62, 0.88, 0.21, 0.83], [0.96, 0.45, 0.95, 0.91, 0.43], [0.29, 0.73, 0.02, 0.48, 0.92], [0.71, 0.09, 0.22, 0.39, 0.7], [0.87, 0.11, 0.64, 0.69, 0.31]], "bias_ideal": 1.265872979504352, "bias": -0.03734517121849647, "bio_idx": 8, "A_actual": [50.62599124152931, 50.22795571163199, 50.302583240605045, 49.93919392196823, 49.916851963229135, 49.58415723060636, 49.20065838081819, 49.79325030893037, 48.86042132221067, 49.1055553484814, 48.841390868786846, 48.591766770325805, 48.56454825796383, 49.91559109926766, 48.456023654565215, 48.77973139053156, 48.72854270712604, 48.68630791306391, 48.50044119027427, 48.394862591478024, 48.22410271909471, 47.2025360335258, 46.18057854561691, 45.86442255613429, 45.723217203454865, 45.834833674326575, 45.95538023415433, 46.027452720012114, 46.14214066318674, 46.18268301500988, 46.2427143317923, 46.137006977563054, 46.344472629187436, 46.067296786696026, 45.938765018833436, 45.839027108423956, 45.45227947012525, 45.32230530698848, 45.052362114746074, 44.63873305459555, 44.287061872122784, 43.939075159203945, 43.56521899854299, 42.95900481712956, 42.59968840669771, 42.37589458928808, 41.707405047962496, 41.2679474878657, 41.133886030225476, 40.727329991103794, 40.40331580169298, 40.46478428998536, 40.62311394046316, 41.46305039196166, 41.70624584760698, 39.5194150698278, 39.51324565173583, 38.804142331151276, 38.361362371214724, 37.727783906354226, 37.5066996408045, 37.33707861569308, 37.15182884093723, 36.77960490636272, 36.95694866348849, 36.70244193956287, 36.84892238013259, 36.49440916823006, 38.19022229861551, 38.853891006915994, 38.797907048746396, 39.06675965880662, 38.7167588757748, 38.2234592483496, 38.25555814335083, 37.3048395300809, 36.297738332778614, 34.89192098700956, 33.670507583980374, 32.22016115032907, 34.392616923158506, 31.74139241759156, 27.839004915141608, 34.498083783954634, 30.258781527022954, 30.47790279730801, 31.81867512802735, 31.55291302959842, 32.18329657936307, 32.28958711048305, 31.510137241187806, 31.32803705863466, 31.249285057720904, 31.07207739626225, 30.49975114028853, 29.818515202797915, 29.52487872351438, 26.56528440728934, 26.339494140691297, 27.28083399258003, 27.22789906246235, 27.3118677020672, 28.221622425791463, 29.11946448095954, 29.049763196932695, 28.8927941420949, 29.753493569697596, 30.819245492631108, 30.11278987058953, 29.831669344008827, 31.71763915860728, 31.157983198921, 30.741621777784086, 31.551260678584413, 31.115944995588517, 31.069875526713254, 30.00501442981396, 31.842530894754468, 30.972252870405285, 29.439781686918668, 29.966219006502133, 30.273582970953488, 28.680045801605445, 28.727824273794294, 27.62643835805066, 22.693716259880457, 25.77394388115977, 26.885457486617252, 26.794561087876478, 26.049011425892218, 26.15890803136281, 25.33247956805643, 24.349192532142787, 24.277332675386457, 23.09545343300648, 22.10360093399288, 21.422095641233575, 21.02311179546058, 20.407460709409488, 20.175098329620504, 18.85340331408736, 19.608574722102123, 17.809501334187726, 18.445572204478204, 17.097154872845458, 16.657150365121367, 15.248420494069203, 18.450591964304056, 19.630994883936538, 19.559672105616805, 21.20147307086823, 23.18641842223514, 25.292090067176574, 16.279035658036776, 15.260717164747007, 14.926497033291955, 13.667253396258745, 12.640516628978109, 12.269433263592324, 12.102144434764714, 11.042763078419986, 10.239800060742263, 9.818541200688733, 9.095434250404145, 8.699501852097654, 8.366351157960864, 7.478509078789112, 7.184567004190915, 6.251645061845554, 6.231890850573614, 5.990882509660248, 5.448293173614433, 4.81616520100245, 4.7048922600317935, 4.449625442610859, 3.9432687634333057, 3.8388665348262183, 3.364529163749553, 3.186390127606697, 2.908740414949566, 2.6426523774676163, 2.4951199747874884, 2.351560824341109, 2.0760362803935117, 1.9142567036696907, 1.7191754016150993, 1.5279132212197355, 1.539189294181338, 1.3023947711301387, 1.2601231464868343, 1.0967405973740167, 0.9520269320606985, 0.8844102541359788, 0.7994072143639394, 0.7832751320604209, 0.6773535701916362, 0.5755336928046476, 0.5368584375939708, 0.5266734712862623, 0.0], "loss": 2.5570753173560354, "x_sample": [-1.0, -0.99, -0.98, -0.97, -0.96, -0.95, -0.94, -0.9299999999999999, -0.9199999999999999, -0.9099999999999999, -0.8999999999999999, -0.8899999999999999, -0.8799999999999999, -0.8699999999999999, -0.8599999999999999, -0.8499999999999999, -0.8399999999999999, -0.8299999999999998, -0.8199999999999998, -0.8099999999999998, -0.7999999999999998, -0.7899999999999998, -0.7799999999999998, -0.7699999999999998, -0.7599999999999998, -0.7499999999999998, -0.7399999999999998, -0.7299999999999998, -0.7199999999999998, -0.7099999999999997, -0.6999999999999997, -0.6899999999999997, -0.6799999999999997, -0.6699999999999997, -0.6599999999999997, -0.6499999999999997, -0.6399999999999997, -0.6299999999999997, -0.6199999999999997, -0.6099999999999997, -0.5999999999999996, -0.5899999999999996, -0.5799999999999996, -0.5699999999999996, -0.5599999999999996, -0.5499999999999996, -0.5399999999999996, -0.5299999999999996, -0.5199999999999996, -0.5099999999999996, -0.49999999999999956, -0.48999999999999955, -0.47999999999999954, -0.46999999999999953, -0.4599999999999995, -0.4499999999999995, -0.4399999999999995, -0.4299999999999995, -0.4199999999999995, -0.4099999999999995, -0.39999999999999947, -0.38999999999999946, -0.37999999999999945, -0.36999999999999944, -0.35999999999999943, -0.3499999999999994, -0.3399999999999994, -0.3299999999999994, -0.3199999999999994, -0.3099999999999994, -0.2999999999999994, -0.28999999999999937, -0.27999999999999936, -0.26999999999999935, -0.25999999999999934, -0.24999999999999933, -0.23999999999999932, -0.22999999999999932, -0.2199999999999993, -0.2099999999999993, -0.1999999999999993, -0.18999999999999928, -0.17999999999999927, -0.16999999999999926, -0.15999999999999925, -0.14999999999999925, -0.13999999999999924, -0.12999999999999923, -0.11999999999999922, -0.10999999999999921, -0.0999999999999992, -0.08999999999999919, -0.07999999999999918, -0.06999999999999917, -0.059999999999999165, -0.049999999999999156, -0.03999999999999915, -0.02999999999999914, -0.01999999999999913, -0.00999999999999912, 8.881784197001252e-16, 0.010000000000000897, 0.020000000000000906, 0.030000000000000915, 0.040000000000000924, 0.05000000000000093, 0.06000000000000094, 0.07000000000000095, 0.08000000000000096, 0.09000000000000097, 0.10000000000000098, 0.11000000000000099, 0.120000000000001, 0.130000000000001, 0.140000000000001, 0.15000000000000102, 0.16000000000000103, 0.17000000000000104, 0.18000000000000105, 0.19000000000000106, 0.20000000000000107, 0.21000000000000107, 0.22000000000000108, 0.2300000000000011, 0.2400000000000011, 0.2500000000000011, 0.2600000000000011, 0.27000000000000113, 0.28000000000000114, 0.29000000000000115, 0.30000000000000115, 0.31000000000000116, 0.3200000000000012, 0.3300000000000012, 0.3400000000000012, 0.3500000000000012, 0.3600000000000012, 0.3700000000000012, 0.3800000000000012, 0.39000000000000123, 0.40000000000000124, 0.41000000000000125, 0.42000000000000126, 0.43000000000000127, 0.4400000000000013, 0.4500000000000013, 0.4600000000000013, 0.4700000000000013, 0.4800000000000013, 0.4900000000000013, 0.5000000000000013, 0.5100000000000013, 0.5200000000000014, 0.5300000000000014, 0.5400000000000014, 0.5500000000000014, 0.5600000000000014, 0.5700000000000014, 0.5800000000000014, 0.5900000000000014, 0.6000000000000014, 0.6100000000000014, 0.6200000000000014, 0.6300000000000014, 0.6400000000000015, 0.6500000000000015, 0.6600000000000015, 0.6700000000000015, 0.6800000000000015, 0.6900000000000015, 0.7000000000000015, 0.7100000000000015, 0.7200000000000015, 0.7300000000000015, 0.7400000000000015, 0.7500000000000016, 0.7600000000000016, 0.7700000000000016, 0.7800000000000016, 0.7900000000000016, 0.8000000000000016, 0.8100000000000016, 0.8200000000000016, 0.8300000000000016, 0.8400000000000016, 0.8500000000000016, 0.8600000000000017, 0.8700000000000017, 0.8800000000000017, 0.8900000000000017, 0.9000000000000017, 0.9100000000000017, 0.9200000000000017, 0.9300000000000017, 0.9400000000000017, 0.9500000000000017, 0.9600000000000017, 0.9700000000000017, 0.9800000000000018, 0.9900000000000018], "gain_ideal": 0.38231475545991445, "A_ideal": [48.390940639046065, 48.22289576922189, 48.05485089939773, 47.886806029573556, 47.718761159749384, 47.549881528457846, 47.38092769614698, 47.21197386383612, 47.04302003152526, 46.87328259741125, 46.70339226538443, 46.53350193335761, 46.36361160133079, 46.19299181570392, 46.02213545053108, 45.85127908535825, 45.68042272018541, 45.508894388788256, 45.33704025558537, 45.16518612238249, 44.9933319891796, 44.82086711793157, 44.64798104803171, 44.47509497813185, 44.30220890823199, 44.128777530697235, 43.954822657832985, 43.780867784968734, 43.606912912104484, 43.43248289606106, 43.25741935577874, 43.08235581549641, 42.9072922752141, 42.73182910526041, 42.55561369121946, 42.37939827717851, 42.20318286313756, 42.026649395747114, 41.84923516523498, 41.671820934722845, 41.49440670421071, 41.316762891019046, 41.138098710362804, 40.95943452970657, 40.78077034905033, 40.601972923408645, 40.42200294189509, 40.24203296038153, 40.06206297886797, 39.88206509979959, 39.70072813809995, 39.5193911764003, 39.33805421470065, 39.156717253001, 38.974033897085796, 38.79126273285218, 38.608491568618575, 38.42572040438497, 38.24165640580528, 38.05737693483458, 37.87309746386388, 37.68881799289318, 37.503305241077385, 37.3174354869117, 37.13156573274601, 36.945695978580325, 36.75865960238769, 36.57110854000669, 36.38355747762569, 36.196006415244696, 36.007363850087614, 35.81802999983903, 35.62869614959044, 35.439362299341845, 35.24902218833803, 35.0577919235892, 34.866561658840375, 34.67533139409154, 34.48319228675366, 34.28993778169284, 34.09668327663202, 33.90342877157121, 33.70937757395803, 33.51395429472691, 33.318531015495786, 33.123107736264664, 32.92701785402292, 32.72926146425465, 32.53150507448637, 32.333748684718095, 32.13547778405616, 31.935200290908952, 31.734922797761747, 31.534645304614543, 31.334032594639204, 31.131017497395575, 30.928002400151943, 30.72498730290831, 30.521850214148376, 30.315846324755285, 30.10984243536219, 29.903838545969098, 29.697834656576006, 29.48868211011967, 29.279395578256388, 29.070109046393107, 28.860822514529826, 28.648350824321454, 28.43543469341377, 28.22251856250609, 28.00960243159841, 27.79346795172526, 27.576508254168658, 27.359548556612058, 27.142588859055454, 26.92238387094697, 26.70088076661773, 26.47937766228849, 26.257874557959248, 26.033109964549517, 25.8064516032866, 25.579793242023683, 25.35313488076077, 25.1232165495193, 24.890641946443456, 24.658067343367613, 24.42549274029177, 24.189688452547855, 23.950233216918303, 23.71077798128875, 23.471322745659197, 23.22871486032418, 22.981129107033173, 22.733543353742164, 22.485957600451158, 22.235373297828424, 21.977992283387124, 21.720611268945824, 21.46323025450452, 21.203135324393028, 20.933665049239064, 20.6641947740851, 20.394724498931136, 20.123055493609098, 19.83819410727861, 19.553332720948127, 19.268471334617644, 18.982359321091987, 18.677071023907125, 18.37178272672226, 18.066494429537396, 17.76120613235253, 17.42774949731501, 17.093706021905565, 16.759662546496116, 16.425619071086672, 16.051778901238553, 15.673416379749684, 15.295053858260815, 14.916691336771944, 14.472866038194807, 14.014311614772827, 13.555757191350846, 13.097202767928867, 12.481041682501084, 11.807967080237919, 11.134892477974756, 10.46181787571159, 8.591773845795013, 6.085839807438016, 3.5799057690810194, 1.073971730724022, 0.0, 0.0, 0.0, 0.0, 0.0, 0.0, 0.0, 0.0, 0.0, 0.0, 0.0, 0.0, 0.0, 0.0, 0.0, 0.0, 0.0, 0.0, 0.0, 0.0, 0.0, 0.0, 0.0, 0.0, 0.0, 0.0, 0.0, 0.0], "weights": [[0.0004413414340090356, -0.000297126538643636, 0.00013731669736642203, -0.0006032896511833184, -0.00012658079232034475], [0.00042760386067922736, -0.0002141539895412762, -9.521691793781685e-05, 0.0004569272864304667, 7.239425822083644e-05], [-0.0005860989871362118, 0.0005725279679354578, 0.0004972696371165942, 0.00019050488876488686, -0.0005675323164210441], [0.0005070252585883359, -6.596860820195802e-05, 9.816187144143836e-05, 0.0001633368681935014, -5.2690817849668995e-05], [0.000155282045308909, -8.561925131556292e-05, 0.00047175765251867354, -0.000386785325417136, 0.00045534292441456174], [-4.035244610447399e-05, -0.00028346508621678897, 0.00030722767135096563, -0.00017268676731162127, -0.00047433570012297434], [0.0004439400769911426, 0.00023058564387380486, 0.0005032771915616737, -2.2313984528803306e-05, -6.328350338859994e-05], [0.00040305087544634325, -0.0005294282263080207, -1.0066579044987809e-05, 6.127320541547001e-05, -0.0004967767786531873], [-0.0006181244151176792, 0.0003230803345116407, -0.0006359983936974491, 0.00011064002443517753, -0.00046277485209676413], [-0.00028226342904671156, 0.000720381638847477, 0.00024387410505744022, -0.0006123408245078631, 0.00047043140782569937], [0.00010033771001944398, -8.028236834008e-05, -0.00021155997685484902, 0.00034948136754736007, 0.00022027043624830067], [1.561004336961032e-05, 0.0004529212608825209, 0.0005072401611356075, 0.00042211545750075444, 0.00032809767472981863], [0.00028623021220188703, 5.890629462310595e-05, 0.00021653801181904, 0.0005736360725051643, -0.00023582864561223765], [7.420900108510891e-05, 0.00039446881066993215, -0.00043613077556744996, 0.0004212371392825088, -0.0003069392054057191], [-0.00011737734635511833, -0.000169960612971, -0.0003285552400572907, 3.7620827741911874e-05, -0.0002647164219250813], [0.0001103474542709075, -0.0002872988331035892, 6.623496667799174e-05, 5.747581802725396e-05, -0.000321435637875876], [-0.00041387860068708277, -0.00041225203175471344, -0.0003474895259279735, 3.576398029766428e-05, 0.0003140387993130222], [0.0006429910711545017, -0.0005921633498273962, 0.00032873180081211375, -9.423256638617269e-05, -0.00035843207379726696], [-0.0004591105221660511, -0.00025321351038036066, -0.00029243408494638527, 0.00042010413255659117, 0.000461075976277591], [0.00023290155221145846, 0.0003997640035643847, 0.0004198094529232559, -5.1196291491438804e-05, 0.00045071543128839825], [-3.248611287153379e-05, 0.00012694137561025632, -0.00011083982687071506, 6.002989053180201e-06, 0.00033993149222874834], [0.0003113001496759676, -0.000467216166346014, 0.0006033796846065074, 0.0004109839759780341, -0.000513492262099167], [0.0005779147145624162, -0.00012656766977832084, 3.196221489892762e-05, 0.0005535891585066847, -0.0006202298433619014], [0.0003134530766759628, 0.000256961417011543, -0.0001321496252350437, -0.00018207676913317797, -0.0003416715032554889], [-0.00026704407614474115, -0.0006438269477279009, 0.0002736839986823738, -0.00013342703109556155, -0.0005546088263582694], [0.00039477070401682847, 0.0005348818554061874, 0.0003727416829695329, 1.4106094475304834e-05, 0.0004094900654706551], [0.000313147798292961, -0.0005248207365154819, -0.00015952747283123507, 0.0002260461994265045, -0.00010125171114716341], [-0.00026135275930144763, 0.00035615574842405, -0.0006170885139901607, -0.0006889893799425522, -6.667474886385076e-06], [-3.9898145702247064e-05, 2.585689552365233e-05, 0.00040468368272999187, 0.00032930619329377543, 0.00022407864867952373], [-0.00022501758895093, 0.00016173660806779468, 0.00023566845614131, 0.0005473282681737668, -0.0004910239194019835], [0.0007157735218338384, -0.000522175318311692, 0.0002209515260136262, 0.00041208954031937467, 0.00014571640713240177], [0.0005174835562040211, 4.963428799431158e-05, 0.00010326831678361858, 0.00032558390200143725, -0.000458992521271257], [0.00032451276530191505, 0.0006023862867666456, 0.00028214929624486234, -0.0005565497148443421, 0.0004432605823105488], [0.000338442056540062, -0.0005002832288637591, -0.0003489696974778347, 0.00038716849886897035, -9.361674422615184e-05], [-0.00034120853642358233, 0.0001320372462350298, -0.0006343563274597296, -2.9138593854196156e-05, 0.00031218864846223267], [0.0001991186896984307, 0.0005715491238316862, 0.00030210713896464684, -0.0005341444054073284, -0.000135521512249378], [-0.00019332865773051132, -0.00035644274170843436, 0.0007165441721753015, -0.0002225571703809356, -0.000631838938802233], [-0.0003284795030932382, -0.0005464058309499317, -0.00025793833059571837, -0.00021391413102847415, -0.0006897994176508235], [1.0532419629295274e-05, 0.0002584143380337014, -0.0006478074034139064, -0.0003482520366143068, -0.000236436545512174], [-0.000350585358817288, -0.00046769820477103423, 0.0004948222804730612, -0.0003102889713654642, -0.00010194625231199216], [0.00015753820503717312, -0.00018042793595939973, -7.909205271643166e-05, 6.181904846657664e-05, 0.0005240486873240843], [4.275421925534768e-06, -0.00011088050723772846, -0.00043133123211491764, -0.0006839666223362784, 2.995713868889776e-05], [4.1422783459691095e-05, -0.0001685773579397952, -0.00021101686668448732, 0.00010434355296079869, -1.574380694233562e-05], [-0.00047326460906614657, -0.00018431182339301316, -0.0007158438108259824, 0.00025649251355781404, 0.0005424019297430834], [0.000741969676714919, -4.654601179518307e-05, 0.0002558364017062418, 0.0001371710091231132, 0.000545840093603521], [-0.00021478233141283034, 0.0001418961575811254, -0.0006475901840471694, 0.0004451504047347138, 1.7327188641230666e-05], [9.224884616461964e-05, 0.0004765337048866173, 7.321161136134959e-06, -0.0004978769226445324, -0.00023999259913536802], [-4.597540989934508e-05, -0.00044437216729034196, -6.771644753000164e-05, -0.0005009222468590197, 0.00042392910371957007], [-0.0004212599095495025, 0.00022376709139778744, -0.0005039967798936344, 0.0004443194204374848, -1.4396448893214093e-05], [-0.00019935904389165575, 0.00028660379627226044, 0.00023394252323237442, -0.0006390617158027861, -0.0002846682842702447]]}