{"spike_times": [17.3, 39.4, 62.7, 82.3, 102.4, 123.3, 149.4, 290.6, 320.0, 340.7, 359.8, 379.2, 398.8, 418.6, 438.8, 461.9, 845.0, 866.4, 883.8, 902.5, 922.6, 954.5, 1019.7, 1055.1, 1082.6, 1117.1, 1244.7, 1275.1, 1301.2, 1329.6, 1363.7, 1394.1, 1418.0, 1436.8, 1455.3, 1474.0, 1493.3, 1519.9, 1636.6, 1658.4, 1675.1, 1692.7, 1710.7, 1729.1, 1748.9, 1903.7, 1946.0, 1990.2], "locations": [[0.26, 0.91, 0.27, 0.17, 0.81], [0.71, 0.84, 0.52, 0.12, 0.86], [0.37, 0.87, 0.29, 0.23, 0.61], [0.49, 0.35, 0.94, 0.0, 0.57], [0.48, 0.9, 0.62, 0.95, 0.72], [0.67, 0.32, 0.64, 0.95, 0.9], [0.33, 0.89, 0.46, 0.03, 0.48], [0.38, 0.13, 0.06, 0.61, 0.25], [0.27, 0.7, 0.33, 0.64, 0.36], [0.16, 0.92, 0.7, 0.4, 0.97], [0.67, 0.14, 0.11, 0.83, 0.37], [0.93, 0.71, 0.55, 0.22, 0.62], [0.67, 0.15, 0.26, 0.96, 0.43], [0.09, 0.23, 0.61, 0.67, 0.84], [0.11, 0.18, 0.41, 0.09, 0.12], [0.92, 0.26, 0.61, 0.53, 0.81], [0.58, 0.3, 0.37, 0.94, 0.76], [1.0, 0.9, 0.15, 0.95, 0.89], [0.53, 0.18, 0.96, 0.33, 0.44], [0.1, 0.45, 0.55, 0.0, 0.2], [0.12, 0.98, 0.62, 0.85, 0.77], [0.55, 0.31, 0.08, 0.63, 0.12], [0.0, 0.95, 0.05, 0.7, 0.19], [0.83, 0.15, 0.86, 0.69, 0.01], [0.45, 0.74, 0.16, 0.91, 0.07], [0.73, 0.9, 0.71, 0.81, 0.15], [0.25, 0.26, 0.48, 0.52, 0.35], [0.47, 0.06, 0.75, 0.77, 0.33], [0.97, 0.13, 0.14, 0.92, 0.29], [0.96, 1.0, 0.03, 0.94, 0.37], [0.61, 0.59, 0.7, 0.5, 0.72], [0.14, 0.81, 0.62, 0.31, 0.68], [0.21, 0.69, 0.8, 0.44, 0.88], [0.27, 0.89, 0.23, 0.58, 0.36], [0.02, 0.28, 0.65, 0.38, 0.65], [0.54, 0.59, 0.41, 0.24, 0.38], [0.59, 0.81, 0.39, 0.63, 0.4], [0.93, 0.32, 0.81, 0.14, 0.11], [0.52, 0.35, 0.78, 0.56, 0.49], [0.39, 0.23, 0.96, 0.27, 0.28], [0.29, 0.5, 0.49, 0.39, 0.03], [1.0, 0.63, 0.48, 0.15, 0.27], [0.59, 0.41, 0.76, 0.23, 0.87], [0.29, 0.67, 0.76, 0.5, 0.28], [0.0, 0.98, 0.66, 0.29, 0.84], [0.76, 0.22, 0.1, 0.75, 0.04], [0.8, 0.43, 0.72, 0.73, 0.46], [0.67, 0.28, 0.99, 0.93, 0.03], [0.98, 0.85, 0.43, 0.63, 0.67], [0.01, 0.06, 0.95, 0.61, 0.93]], "bias_ideal": 1.1846184564105957, "bias": 0.0008126560779685428, "bio_idx": 0, "A_actual": [0.09121638551269119, 0.1318264469540943, 0.10209512407946049, 0.11572075634135433, 0.11977010624545545, 0.1360691831987444, 0.1299871421961466, 0.15731039491226514, 0.1802631281899383, 0.1761112705435686, 0.17760804823467183, 0.2019651617487453, 0.2212731215624841, 0.046976247347742695, 0.033829333975514866, 0.05739778465975291, 0.06820439390874822, 0.08415219977921498, 0.10102418450897134, 0.11146073168968652, 0.12939614560470783, 0.07695696989476646, 0.06830683065283649, 0.1361548725937558, 0.12298132350490672, 0.1260069735644696, 0.15316766778044644, 0.1732415784961289, 0.18698253887261942, 0.22986846183815873, 0.2193059712249746, 0.25883407996544033, 0.2530131784238859, 0.3023178802272855, 0.3383590890163394, 0.3323812314823338, 0.4117408230119154, 0.4457316561829483, 0.42666957921908455, 0.5418008229217001, 0.57929571523339, 0.5678017025357562, 0.6569220796525204, 0.7592845629675732, 0.882557726098569, 0.8967377856746795, 0.9765691792883214, 0.9242226866970744, 1.1503676292723934, 1.156376323846311, 1.1899389114430938, 1.2110452637512645, 1.4447518235808445, 0.9863063456961265, 1.5710187784256224, 3.2867215200027475, 3.4083382565017932, 4.048799000989161, 4.6457186812870574, 4.772363578244064, 5.6260963106314055, 6.015842242814304, 6.5958384527967775, 7.520387349645553, 8.052294761257258, 9.704318822841955, 9.766561505364734, 4.885622621994757, 8.04742296723483, 9.915702647995316, 11.840782101033161, 13.607023937717281, 15.461336975558615, 16.957749173082334, 18.585801969565946, 19.671078327859945, 21.24147150562716, 21.935893643210413, 21.92280526223781, 21.8783413634112, 16.32461284852295, 19.124509244491882, 24.571720808274996, 18.888786227099775, 23.78554212184932, 24.87094989906288, 26.574652685096424, 26.545235808356395, 26.821926974563578, 27.50933089896512, 27.501057481309555, 27.524792393125587, 26.64548490360108, 26.829444801000793, 25.638504021784534, 26.247375225969574, 25.424800271075664, 23.147148898142497, 23.45459410024098, 23.596766488884054, 24.28513183439477, 25.1198802750579, 24.738979994042143, 24.75992390196367, 26.561586975310274, 26.483142480951262, 26.47022652428703, 26.621590372428685, 27.675943884761207, 27.796511506852674, 28.282055827742465, 27.21293837356875, 28.74394600403126, 28.657413179744704, 29.173577940147098, 29.06586430295562, 29.318215211255353, 28.560330249768164, 29.64167525335977, 30.399914502758786, 30.053029969385634, 29.930287872349098, 30.287601015273516, 30.73804487957411, 30.419531649488597, 34.813949463752664, 30.41039186454066, 28.33077575655665, 27.907530422600587, 28.07543267579461, 28.279380533454592, 29.069767038300117, 30.56037730123962, 30.57660316803043, 32.019000701987856, 32.62314083554175, 33.40458299597026, 33.95459449466384, 34.53679785706246, 34.584012932641016, 35.34503344575414, 34.94956349165948, 35.13528089163572, 35.35954942645378, 35.60760766990265, 36.12788865346711, 37.62255411095471, 35.73398277004558, 35.02174963966147, 35.651638853566126, 36.12614950072241, 37.32696738343513, 39.72271762583459, 38.99952402447311, 39.34119506271267, 38.7784669392274, 39.387501646057714, 39.62864339605508, 39.29557145368487, 39.37684437479514, 39.49370225110047, 39.848902683197664, 39.597784344865076, 39.96866530319013, 39.87874730162149, 39.65615397615512, 40.14177448965555, 40.148431014970285, 40.11805582412038, 40.279802845890266, 40.33208164268166, 40.469477439860846, 40.93917369093827, 41.14756035264751, 40.666935793114355, 41.338899843159986, 41.079751393123445, 41.6290889204809, 41.848576154557314, 41.79970168631022, 42.33564363455019, 42.449496506108346, 42.579080065788716, 43.30724466020059, 43.33311327600113, 43.552136459115296, 44.0768155602161, 43.91541595704558, 44.623429044861695, 44.808422519054574, 45.309646848234586, 45.68990300554244, 45.8966156737855, 46.347979534911524, 46.19873066337931, 46.79688359467064, 47.23981959175106, 47.35157589093071, 47.72290269049467, 0.0], "loss": 3.9207287997508398, "x_sample": [-1.0, -0.99, -0.98, -0.97, -0.96, -0.95, -0.94, -0.9299999999999999, -0.9199999999999999, -0.9099999999999999, -0.8999999999999999, -0.8899999999999999, -0.8799999999999999, -0.8699999999999999, -0.8599999999999999, -0.8499999999999999, -0.8399999999999999, -0.8299999999999998, -0.8199999999999998, -0.8099999999999998, -0.7999999999999998, -0.7899999999999998, -0.7799999999999998, -0.7699999999999998, -0.7599999999999998, -0.7499999999999998, -0.7399999999999998, -0.7299999999999998, -0.7199999999999998, -0.7099999999999997, -0.6999999999999997, -0.6899999999999997, -0.6799999999999997, -0.6699999999999997, -0.6599999999999997, -0.6499999999999997, -0.6399999999999997, -0.6299999999999997, -0.6199999999999997, -0.6099999999999997, -0.5999999999999996, -0.5899999999999996, -0.5799999999999996, -0.5699999999999996, -0.5599999999999996, -0.5499999999999996, -0.5399999999999996, -0.5299999999999996, -0.5199999999999996, -0.5099999999999996, -0.49999999999999956, -0.48999999999999955, -0.47999999999999954, -0.46999999999999953, -0.4599999999999995, -0.4499999999999995, -0.4399999999999995, -0.4299999999999995, -0.4199999999999995, -0.4099999999999995, -0.39999999999999947, -0.38999999999999946, -0.37999999999999945, -0.36999999999999944, -0.35999999999999943, -0.3499999999999994, -0.3399999999999994, -0.3299999999999994, -0.3199999999999994, -0.3099999999999994, -0.2999999999999994, -0.28999999999999937, -0.27999999999999936, -0.26999999999999935, -0.25999999999999934, -0.24999999999999933, -0.23999999999999932, -0.22999999999999932, -0.2199999999999993, -0.2099999999999993, -0.1999999999999993, -0.18999999999999928, -0.17999999999999927, -0.16999999999999926, -0.15999999999999925, -0.14999999999999925, -0.13999999999999924, -0.12999999999999923, -0.11999999999999922, -0.10999999999999921, -0.0999999999999992, -0.08999999999999919, -0.07999999999999918, -0.06999999999999917, -0.059999999999999165, -0.049999999999999156, -0.03999999999999915, -0.02999999999999914, -0.01999999999999913, -0.00999999999999912, 8.881784197001252e-16, 0.010000000000000897, 0.020000000000000906, 0.030000000000000915, 0.040000000000000924, 0.05000000000000093, 0.06000000000000094, 0.07000000000000095, 0.08000000000000096, 0.09000000000000097, 0.10000000000000098, 0.11000000000000099, 0.120000000000001, 0.130000000000001, 0.140000000000001, 0.15000000000000102, 0.16000000000000103, 0.17000000000000104, 0.18000000000000105, 0.19000000000000106, 0.20000000000000107, 0.21000000000000107, 0.22000000000000108, 0.2300000000000011, 0.2400000000000011, 0.2500000000000011, 0.2600000000000011, 0.27000000000000113, 0.28000000000000114, 0.29000000000000115, 0.30000000000000115, 0.31000000000000116, 0.3200000000000012, 0.3300000000000012, 0.3400000000000012, 0.3500000000000012, 0.3600000000000012, 0.3700000000000012, 0.3800000000000012, 0.39000000000000123, 0.40000000000000124, 0.41000000000000125, 0.42000000000000126, 0.43000000000000127, 0.4400000000000013, 0.4500000000000013, 0.4600000000000013, 0.4700000000000013, 0.4800000000000013, 0.4900000000000013, 0.5000000000000013, 0.5100000000000013, 0.5200000000000014, 0.5300000000000014, 0.5400000000000014, 0.5500000000000014, 0.5600000000000014, 0.5700000000000014, 0.5800000000000014, 0.5900000000000014, 0.6000000000000014, 0.6100000000000014, 0.6200000000000014, 0.6300000000000014, 0.6400000000000015, 0.6500000000000015, 0.6600000000000015, 0.6700000000000015, 0.6800000000000015, 0.6900000000000015, 0.7000000000000015, 0.7100000000000015, 0.7200000000000015, 0.7300000000000015, 0.7400000000000015, 0.7500000000000016, 0.7600000000000016, 0.7700000000000016, 0.7800000000000016, 0.7900000000000016, 0.8000000000000016, 0.8100000000000016, 0.8200000000000016, 0.8300000000000016, 0.8400000000000016, 0.8500000000000016, 0.8600000000000017, 0.8700000000000017, 0.8800000000000017, 0.8900000000000017, 0.9000000000000017, 0.9100000000000017, 0.9200000000000017, 0.9300000000000017, 0.9400000000000017, 0.9500000000000017, 0.9600000000000017, 0.9700000000000017, 0.9800000000000018, 0.9900000000000018], "gain_ideal": 0.43517010994724575, "A_ideal": [0.0, 0.0, 0.0, 0.0, 0.0, 0.0, 0.0, 0.0, 0.0, 0.0, 0.0, 0.0, 0.0, 0.0, 0.0, 0.0, 0.0, 0.0, 0.0, 0.0, 0.0, 0.0, 0.0, 0.0, 0.0, 0.0, 0.0, 0.0, 0.0, 0.0, 0.0, 0.0, 0.0, 0.0, 0.0, 0.0, 0.0, 0.0, 0.0, 0.0, 0.0, 0.0, 0.0, 0.0, 0.0, 0.0, 0.0, 0.0, 0.0, 0.0, 0.0, 0.0, 0.0, 0.0, 0.0, 0.0, 0.0, 0.0, 2.465650881485441, 5.342243576551608, 8.218836271617775, 11.095428966683942, 12.205330373541935, 12.803821144339855, 13.402311915137775, 14.000802685935694, 14.498679063168046, 14.952166737356778, 15.405654411545509, 15.859142085734241, 16.272316006580812, 16.65995788364402, 17.047599760707225, 17.43524163777043, 17.802171417041443, 18.150778955957822, 18.4993864948742, 18.847994033790577, 19.184793974806734, 19.507102772945345, 19.829411571083956, 20.151720369222566, 20.467000348843108, 20.770175141015862, 21.073349933188616, 21.37652472536137, 21.675510757916665, 21.96402489142831, 22.252539024939953, 22.5410531584516, 22.82718739077525, 23.10404000846573, 23.38089262615621, 23.657745243846694, 23.933429269331853, 24.20073838401222, 24.468047498692588, 24.735356613372954, 25.002339718703244, 25.2616616043067, 25.520983489910158, 25.780305375513613, 26.03962726111707, 26.292419657658815, 26.54493420360219, 26.797448749545563, 27.049963295488936, 27.29730921988815, 27.543933941281196, 27.790558662674247, 28.037183384067294, 28.279700204626618, 28.521163717279855, 28.762627229933095, 29.004090742586335, 29.24228833170932, 29.47917955142021, 29.716070771131093, 29.95296199084198, 30.187266253177363, 30.420068411230194, 30.652870569283024, 30.885672727335855, 31.116443080587672, 31.345557889186807, 31.574672697785946, 31.803787506385085, 32.031330061823674, 32.25709528760251, 32.482860513381354, 32.70862573916019, 32.9332033797006, 33.15590588565401, 33.378608391607415, 33.60131089756082, 33.823151084868854, 34.04303668324739, 34.26292228162591, 34.48280788000444, 34.702108775814864, 34.91938979002641, 35.136670804237944, 35.35395181844948, 35.57088713781597, 35.7857482881122, 36.000609438408425, 36.21547058870465, 36.43019348750651, 36.64279653006143, 36.855399572616356, 37.06800261517128, 37.280605657726205, 37.49113625876226, 37.70162368393335, 37.91211110910443, 38.12259853427552, 38.331299546785026, 38.53979755785573, 38.74829556892642, 38.956793579997125, 39.16375928405471, 39.37038021903436, 39.577001154014, 39.783622088993646, 39.98893775403178, 40.19378207159104, 40.3986263891503, 40.60347070670956, 40.807213703967214, 41.01037162481464, 41.21352954566207, 41.416687466509494, 41.61892821735635, 41.82048109070278, 42.02203396404921, 42.22358683739564, 42.42438962524963, 42.624411074049, 42.824432522848376, 43.024453971647745, 43.22387764002237, 43.42243452678112, 43.62099141353986, 43.819548300298614, 44.017646855374885, 44.21480010135605, 44.41195334733722, 44.60910659331838, 44.80592972611802, 45.001735009941285, 45.197540293764554, 45.393345577587816, 45.5889391181573, 45.78344747455118, 45.97795583094506, 46.17246418733894, 46.36687050120247, 46.56012883659961, 46.75338717199674, 46.94664550739388], "weights": [[-0.00039951661069962405, -0.0003218974037479347, 7.026173598217653e-05, -0.0004514585287599248, 3.3925583075065516e-05], [0.0004985022316519211, -0.0006722221251502002, 3.097768255934215e-05, 0.00022908232869695981, 0.0004221291420884863], [-0.00031534465146395674, -0.0007020099431591938, 0.0003375018783765044, -0.00034145436545347254, -0.0005595518662349748], [-0.00018170425193450246, 0.0004918165306836951, 0.0004588677584010546, 0.0003503972982341773, 0.0004564610860281112], [5.4306844723604967e-05, 0.0006645916761098999, 0.00023469212981523554, 0.000149075146265669, 3.099570375952938e-05], [0.0007429986271152009, -0.00018319750952610942, 0.00046229801042269665, 0.0004912891940971585, 0.0004883316309221112], [-0.0002338894598732809, 0.0007033722340790717, -3.0906385553815144e-05, -0.0003303393124702202, -0.0005908276452790487], [0.00016598106901286896, -4.0683748536693644e-05, -0.0004079545531190683, -7.192794024062272e-05, -0.0004976533897716908], [-0.0004943271833039218, 0.0005453964000671108, -0.00036692012188425786, -0.00042341149157357384, -0.0005885613584372629], [5.7524061765712865e-05, 0.00030922369122414733, -0.00031940561302526817, -4.994688864897104e-05, 0.00037405465623577754], [-0.00039989611031432105, 6.024544150810127e-05, -0.00029570019719425656, 0.0008480744102291942, -0.0004681728578819454], [-0.00042404617932890776, 0.00020216304159342033, -0.00046728064149482545, -0.00047909379928638896, -9.542309845269646e-05], [-0.0002611935382214409, -0.00016349239411249952, -0.00021282841669234475, 0.0003129961397685461, -0.0005840823114092108], [5.315317394508149e-05, 0.00027751095173001697, -2.2774019094907116e-05, -0.0004910220442629098, -0.00012299283236739917], [5.634431783663283e-05, -0.00016566149020206495, 0.0004919735581746056, -1.2764338425016704e-08, 0.00044704276899907365], [-0.0008477220677709736, -0.00018375109456837978, -1.3090508412466124e-05, 0.0006129413635273025, -0.0005828396851908778], [-0.0003823970946277688, 0.0003870597461876811, -7.728268623701515e-05, 0.00024264541335703381, 0.0006641412298180046], [0.00012341355459120202, -0.0008483644657749169, 0.00019666722171181946, 0.0005278332845447475, -2.591302429964111e-05], [0.0001588615683259411, 0.00043131494923335796, 0.0006888643640209311, 0.00026040620908585066, 0.000219870895968135], [0.0003342711019276239, -0.00030357293008316657, 6.982384567678855e-05, -6.409489811565465e-05, -0.0003145320465938635], [-0.00030849710396495586, -0.00012917772997562903, -0.0005459124169646804, -0.0006821522387627256, 0.0007123836496861007], [0.00043871319222903664, -0.00034047348871528476, 0.00032727690513064214, -0.0007138555500695454, -0.0002676179204942465], [0.0004425309166148975, -0.00041838365892766095, 0.00038795509223309507, -0.00011167949435917628, -0.0005162689919120515], [5.849658295637469e-05, -0.00047026725582146163, 0.00039737179737385617, 0.0006734368542480392, 9.315702690606181e-05], [0.0003893481939308172, 0.0007406201849984021, 0.0002721824272939429, 0.00017722033748186403, -1.6889522893337943e-05], [6.978462217400787e-05, -0.0006774449298984498, -0.0004926671164772591, -0.0006175510281687048, 0.0003771693287736174], [0.00021116730801171846, 1.4882240088699265e-05, -0.00039855608713803, 0.00016834948993599765, 0.0005169936597889917], [0.00021458125944246896, 0.00034798361211382003, -8.083894642895235e-05, -0.0004866174746964958, 0.0005922096971655997], [-4.013068355496145e-05, 1.9127681838643673e-05, 0.00045277090085533685, 0.0002926202710201304, -0.00042495780660887285], [-0.00014331268867988546, -0.0007744322388672957, -0.0002873806009035055, -0.0005325497257134805, -0.0003383810803735045], [-4.00459590128588e-06, 0.0003517981686338121, -0.0005016263470913214, -0.0004623201628783145, -0.0001579221708251236], [-9.405450463755501e-05, -0.000409787123299616, 0.0002785159344614834, 0.0006117648897827363, -1.40209435129108e-05], [-0.00016135628872939424, 0.0006617826525162359, 0.0006492314621282338, 0.000216803782961474, -0.00027053565046889324], [0.00014993726929137931, 4.009956573433585e-05, -7.730451745396267e-05, -0.00030214540326316296, -0.00036719433543785853], [-0.00021376477928292752, -0.000610864530918014, 0.0007691146334896704, 0.00022706666414208025, -9.633307601723404e-05], [5.171504561361968e-05, -0.00022496414292836087, -0.0003248814805937799, -4.649126849253188e-05, -0.000173814708228089], [-0.00012741680088267993, -0.000258896691894373, 0.00045609968460712404, -0.000496964352154315, 0.00029833396461977443], [-0.0006813075663081813, 0.0005890636414227731, 0.00034201146571296215, 1.0528980913594406e-05, 0.00047195720001189643], [0.00032190246931183743, 0.000590630088620244, 0.00035325096761736074, 0.00023013291306897004, -0.0002802020602971485], [-0.00012539462121381235, 0.0003426512267382563, -0.0007509762764015284, -0.0004232073094692363, 0.00030129504270889846], [-0.00047929896451071947, -0.0004898058492343111, 0.0003033826549975785, -0.00023047813880102867, -0.0003812587616302454], [-8.232719664560644e-05, 8.228133594071376e-05, 6.739891980462115e-05, -5.9691201627700316e-05, 0.00015227476828193822], [0.0005255708650668326, -0.00023473246189897287, 0.0001545523602556149, 0.0003707950418557834, 0.00022511652813970675], [-0.00027991741714938467, 0.00024617256965907535, 7.716635031270217e-05, -0.00043594619147728107, -0.0005915205124426407], [-0.00040597457632759483, 0.00013502368961260824, -0.0001797309243214204, 9.471800199249276e-05, 0.0006497798001760021], [0.000721889809125551, -0.00046271318305238636, 0.0005199802737375095, -8.435730607667477e-05, -0.0005349486606115954], [0.00023282156904488855, -0.0004586886716573701, 0.0001399782563263111, 0.0007160709124538479, 0.00031752679120833024], [0.000236977012449841, -0.00044526341450079826, -6.642887210478876e-05, -0.00027861590705004024, -0.00016791380408803027], [-0.0003615853345829697, 0.0003753430157644461, 0.0003045697532788028, 0.00028963036300757883, 0.0005308680484211174], [0.00031731095930625684, -7.122709755679996e-05, 0.0007294026046492327, 0.00020218307642817782, -0.00020644871632991653]]}