{"spike_times": [12.5, 41.3, 101.7, 156.3, 185.9, 209.2, 231.0, 253.4, 279.0, 321.4, 393.1, 473.2, 498.0, 516.7, 534.5, 552.8, 571.3, 590.3, 610.9, 636.1, 661.7, 683.4, 701.4, 719.2, 737.0, 754.7, 772.4, 790.3, 808.7, 830.3, 944.8, 974.5, 998.6, 1025.1, 1063.5, 1104.9, 1135.0, 1157.7, 1178.2, 1198.9, 1221.5, 1249.8, 1295.2, 1336.3, 1370.7, 1473.7, 1524.4, 1547.2, 1566.2, 1583.7, 1602.2, 1625.8, 1702.3, 1766.8, 1791.0, 1810.9, 1830.4, 1850.0, 1872.1, 1896.6, 1923.6, 1951.4, 1977.8], "locations": [[0.47, 0.13, 0.58, 0.63, 0.89], [0.42, 0.63, 0.97, 0.48, 0.89], [0.9, 0.29, 0.81, 0.19, 0.84], [0.49, 0.78, 0.98, 0.79, 0.65], [0.02, 0.36, 0.46, 0.32, 0.93], [0.14, 0.65, 0.21, 0.91, 0.03], [0.57, 0.92, 0.05, 0.68, 0.25], [0.03, 0.84, 0.76, 0.43, 0.14], [0.06, 0.17, 0.54, 0.95, 0.5], [0.55, 0.28, 0.77, 0.73, 0.4], [0.68, 0.69, 0.84, 0.98, 0.11], [0.59, 0.86, 0.12, 0.11, 0.78], [0.26, 0.9, 0.1, 0.23, 0.56], [0.67, 0.16, 0.83, 0.53, 0.16], [0.08, 0.13, 0.06, 0.26, 0.55], [0.28, 0.57, 0.87, 0.5, 0.08], [0.68, 0.66, 0.14, 0.97, 0.58], [0.8, 0.16, 0.65, 0.5, 0.95], [0.1, 0.64, 0.84, 0.86, 0.59], [0.57, 0.27, 0.94, 0.39, 0.08], [0.25, 0.64, 0.71, 0.87, 0.62], [0.8, 0.46, 0.69, 0.1, 0.49], [0.33, 0.59, 0.82, 0.57, 0.46], [0.55, 0.09, 0.56, 0.86, 0.27], [0.79, 0.47, 0.98, 0.93, 0.36], [0.9, 0.57, 0.85, 0.59, 0.29], [0.22, 0.68, 0.06, 0.87, 0.35], [0.85, 0.33, 0.58, 0.82, 0.88], [0.67, 0.41, 0.11, 0.03, 0.2], [0.37, 0.69, 0.15, 0.28, 0.86], [0.34, 0.84, 0.38, 0.84, 0.35], [0.73, 0.25, 0.56, 0.4, 0.33], [0.04, 0.76, 0.6, 0.95, 0.71], [0.42, 0.1, 0.09, 0.97, 0.78], [0.5, 0.77, 0.1, 0.71, 0.39], [0.53, 0.71, 0.97, 0.05, 0.08], [0.35, 0.4, 0.78, 0.6, 0.93], [0.82, 0.75, 0.04, 0.81, 0.47], [0.65, 0.92, 0.1, 0.66, 0.06], [0.1, 0.63, 0.03, 0.66, 0.84], [0.83, 0.73, 1.0, 0.78, 0.95], [0.67, 0.99, 0.77, 0.02, 0.9], [0.11, 0.63, 0.46, 0.39, 0.24], [0.45, 0.63, 0.73, 0.9, 0.87], [0.49, 0.89, 0.86, 0.58, 0.83], [0.48, 0.54, 0.87, 0.85, 0.19], [0.05, 0.9, 0.81, 0.89, 0.61], [0.06, 0.85, 0.11, 0.27, 0.4], [0.56, 0.98, 0.87, 0.37, 0.49], [0.8, 0.82, 0.21, 0.33, 0.23]], "bias_ideal": 1.316861583281651, "bias": 0.16597545107440498, "bio_idx": 5, "A_actual": [51.958809213402496, 51.50699115041066, 51.602908562007414, 51.20158254696771, 51.142392330365674, 50.80001237404902, 50.48573044157829, 50.73790799834191, 50.12510401173088, 50.071674726263595, 49.92061288035922, 49.50833208589723, 49.506876509546196, 51.020700519514286, 49.12284018104975, 49.21353951149645, 49.17151106237118, 49.122627170563895, 48.994056252831946, 48.85736823439679, 48.67635067347767, 47.529480451373104, 46.565990584410756, 46.28122017983211, 46.05991691034271, 46.085837587370705, 46.02120903950315, 45.94896496198061, 45.88341147730723, 45.72778285672659, 45.66352404477192, 45.41682070293467, 45.47526031473674, 45.0654425873864, 44.96447679186776, 44.81314888142637, 44.38966705723942, 44.27333467563194, 44.16548362666503, 43.88288458850314, 43.59560433412815, 43.550080427637056, 43.46619786438806, 43.105111544868166, 43.169973650527304, 42.94747346492909, 42.6688741559206, 42.53404667523452, 42.41662837354562, 42.242535802172746, 41.80127885073168, 41.61848254516925, 40.982698881905385, 39.87879405538292, 40.38371379911748, 41.77610279238926, 41.720971473735055, 41.532631201985616, 41.39448377553075, 41.318757393605686, 41.28217511969104, 41.1540970540301, 41.2269651823266, 41.18001247795585, 41.314588540202, 41.24678047464924, 41.48001470788458, 41.67209179900189, 41.04271664567977, 40.69062558635112, 40.33764434850293, 40.113295336490914, 39.769295429121115, 39.34850251538887, 39.26431148667542, 38.58809388587915, 37.905998691172066, 37.18424974265106, 36.833670472920545, 36.467046359583804, 35.262857120346006, 38.09066438395813, 38.65711660798615, 36.24708427992097, 36.984568527398736, 35.689909154764536, 34.38276870533777, 33.23514381819328, 32.126878513520744, 31.374342346324106, 30.08688202738507, 29.800069423716867, 29.388997927248457, 29.07131873709799, 28.31769548433249, 27.475488388920546, 27.86709427494177, 29.73920049223373, 30.223864069133814, 30.163459265672532, 30.166991967876264, 30.118534469816506, 30.448225438469052, 30.777063494074614, 30.07164516206514, 29.947220933586014, 30.035990577710557, 30.6129317657711, 29.949898961384694, 29.286021388163537, 30.44991335235677, 29.721045064037295, 29.456037931051625, 29.707782547192974, 29.13441305212893, 29.030567864671518, 28.294728401185793, 29.305195690875646, 28.505914124757755, 28.427010584222526, 28.72220143422491, 28.046021109985247, 28.872798778840185, 28.12606834955474, 27.302345820765044, 27.757915646990305, 28.33505272571402, 28.804559362668627, 29.18534662438039, 28.909911016898114, 29.84096481878532, 29.764055728140672, 29.236917654805325, 29.83184409127818, 28.87231063039827, 28.838809358498885, 28.318227351715894, 27.56632924171239, 26.534061242138907, 25.927056409460622, 24.93958732784364, 23.98620729619378, 22.631771005065907, 21.82067466116393, 20.221180218474103, 18.761654163781827, 16.477564936850484, 19.01809876295741, 19.66853468212064, 20.947226418733344, 23.135193565669287, 26.586288679228566, 33.22946253075737, 22.503275699213496, 21.974143931316974, 24.105673060391968, 21.722663003384568, 22.294956170968003, 21.978220210454623, 21.46467409468928, 20.27189130250843, 20.618034838964938, 19.975831706111872, 19.715997522118645, 19.081605509837065, 19.007766615831766, 18.57688560424717, 16.734218721365583, 17.46105744870432, 16.940468282712732, 15.41226786647702, 15.641111453226861, 15.376655146296068, 14.411575360395126, 13.198363985037618, 13.083500772322123, 12.167517778008044, 12.120024677101238, 11.448258278090341, 11.325916033164663, 9.533515839887093, 9.495256804937277, 9.166147666929893, 8.751348191153767, 7.932270693444381, 7.1895546009145725, 7.539023371025864, 6.867464544598408, 6.221800226107064, 5.631421568107981, 5.316122287878845, 5.332524766440219, 4.463404137660126, 4.344332305200399, 4.430827224373406, 3.6518909303266356, 3.4036817897820772, 3.5551015426582007, 2.993645817025851, 0.0], "loss": 2.5934422424846733, "x_sample": [-1.0, -0.99, -0.98, -0.97, -0.96, -0.95, -0.94, -0.9299999999999999, -0.9199999999999999, -0.9099999999999999, -0.8999999999999999, -0.8899999999999999, -0.8799999999999999, -0.8699999999999999, -0.8599999999999999, -0.8499999999999999, -0.8399999999999999, -0.8299999999999998, -0.8199999999999998, -0.8099999999999998, -0.7999999999999998, -0.7899999999999998, -0.7799999999999998, -0.7699999999999998, -0.7599999999999998, -0.7499999999999998, -0.7399999999999998, -0.7299999999999998, -0.7199999999999998, -0.7099999999999997, -0.6999999999999997, -0.6899999999999997, -0.6799999999999997, -0.6699999999999997, -0.6599999999999997, -0.6499999999999997, -0.6399999999999997, -0.6299999999999997, -0.6199999999999997, -0.6099999999999997, -0.5999999999999996, -0.5899999999999996, -0.5799999999999996, -0.5699999999999996, -0.5599999999999996, -0.5499999999999996, -0.5399999999999996, -0.5299999999999996, -0.5199999999999996, -0.5099999999999996, -0.49999999999999956, -0.48999999999999955, -0.47999999999999954, -0.46999999999999953, -0.4599999999999995, -0.4499999999999995, -0.4399999999999995, -0.4299999999999995, -0.4199999999999995, -0.4099999999999995, -0.39999999999999947, -0.38999999999999946, -0.37999999999999945, -0.36999999999999944, -0.35999999999999943, -0.3499999999999994, -0.3399999999999994, -0.3299999999999994, -0.3199999999999994, -0.3099999999999994, -0.2999999999999994, -0.28999999999999937, -0.27999999999999936, -0.26999999999999935, -0.25999999999999934, -0.24999999999999933, -0.23999999999999932, -0.22999999999999932, -0.2199999999999993, -0.2099999999999993, -0.1999999999999993, -0.18999999999999928, -0.17999999999999927, -0.16999999999999926, -0.15999999999999925, -0.14999999999999925, -0.13999999999999924, -0.12999999999999923, -0.11999999999999922, -0.10999999999999921, -0.0999999999999992, -0.08999999999999919, -0.07999999999999918, -0.06999999999999917, -0.059999999999999165, -0.049999999999999156, -0.03999999999999915, -0.02999999999999914, -0.01999999999999913, -0.00999999999999912, 8.881784197001252e-16, 0.010000000000000897, 0.020000000000000906, 0.030000000000000915, 0.040000000000000924, 0.05000000000000093, 0.06000000000000094, 0.07000000000000095, 0.08000000000000096, 0.09000000000000097, 0.10000000000000098, 0.11000000000000099, 0.120000000000001, 0.130000000000001, 0.140000000000001, 0.15000000000000102, 0.16000000000000103, 0.17000000000000104, 0.18000000000000105, 0.19000000000000106, 0.20000000000000107, 0.21000000000000107, 0.22000000000000108, 0.2300000000000011, 0.2400000000000011, 0.2500000000000011, 0.2600000000000011, 0.27000000000000113, 0.28000000000000114, 0.29000000000000115, 0.30000000000000115, 0.31000000000000116, 0.3200000000000012, 0.3300000000000012, 0.3400000000000012, 0.3500000000000012, 0.3600000000000012, 0.3700000000000012, 0.3800000000000012, 0.39000000000000123, 0.40000000000000124, 0.41000000000000125, 0.42000000000000126, 0.43000000000000127, 0.4400000000000013, 0.4500000000000013, 0.4600000000000013, 0.4700000000000013, 0.4800000000000013, 0.4900000000000013, 0.5000000000000013, 0.5100000000000013, 0.5200000000000014, 0.5300000000000014, 0.5400000000000014, 0.5500000000000014, 0.5600000000000014, 0.5700000000000014, 0.5800000000000014, 0.5900000000000014, 0.6000000000000014, 0.6100000000000014, 0.6200000000000014, 0.6300000000000014, 0.6400000000000015, 0.6500000000000015, 0.6600000000000015, 0.6700000000000015, 0.6800000000000015, 0.6900000000000015, 0.7000000000000015, 0.7100000000000015, 0.7200000000000015, 0.7300000000000015, 0.7400000000000015, 0.7500000000000016, 0.7600000000000016, 0.7700000000000016, 0.7800000000000016, 0.7900000000000016, 0.8000000000000016, 0.8100000000000016, 0.8200000000000016, 0.8300000000000016, 0.8400000000000016, 0.8500000000000016, 0.8600000000000017, 0.8700000000000017, 0.8800000000000017, 0.8900000000000017, 0.9000000000000017, 0.9100000000000017, 0.9200000000000017, 0.9300000000000017, 0.9400000000000017, 0.9500000000000017, 0.9600000000000017, 0.9700000000000017, 0.9800000000000018, 0.9900000000000018], "gain_ideal": 0.38293713861459788, "A_ideal": [50.63432809719549, 50.46884547626631, 50.30336285533712, 50.13788023440794, 49.97239761347875, 49.80615027272459, 49.639834956874864, 49.47351964102515, 49.30720432517543, 49.140173658898775, 48.97300341205101, 48.805833165203246, 48.63866291835548, 48.47082920515463, 48.302780313677104, 48.13473142219958, 47.96668253072205, 47.79802483900082, 47.62907197140385, 47.46011910380688, 47.29116623620991, 47.12166231960057, 46.9517783691896, 46.78189441877862, 46.61201046836764, 46.441636649766664, 46.270792557703274, 46.09994846563988, 45.92910437357649, 45.7578354162964, 45.58599997206072, 45.41416452782504, 45.242329083589354, 45.07013804790047, 44.8972776635938, 44.72441727928713, 44.551556894980465, 44.3784149780464, 44.204493432298015, 44.03057188654962, 43.85665034080124, 43.68252669769521, 43.50750484411081, 43.332482990526415, 43.15746113694202, 42.9823226800574, 42.80615811413083, 42.62999354820427, 42.4538289822777, 42.27764015600579, 42.100286833157085, 41.92293351030839, 41.74558018745969, 41.56822686461099, 41.38971051032491, 41.21111830616249, 41.03252610200006, 40.853933897837635, 40.674232898907746, 40.49434710084994, 40.31446130279215, 40.13457550473434, 39.95364006522786, 39.772400782144125, 39.59116149906039, 39.40992221597666, 39.22769815166791, 39.045039625053995, 38.86238109844009, 38.67972257182618, 38.496150773449735, 38.31200056962368, 38.12785036579763, 37.94370016197157, 37.75871597441471, 37.57299403201907, 37.38727208962342, 37.201550147227785, 37.0150826485009, 36.827700148822046, 36.64031764914319, 36.45293514946433, 36.26490630960039, 36.07576432830659, 35.88662234701279, 35.69748036571899, 35.5078040610991, 35.316791948164024, 35.12577983522895, 34.93476772229387, 34.74334857499501, 34.550341993677414, 34.35733541235982, 34.164328831042226, 33.971060835291574, 33.775919369437354, 33.58077790358313, 33.38563643772892, 33.19040132595808, 32.992965535146595, 32.79552974433512, 32.598093953523644, 32.40065816271216, 32.200847002777024, 32.00093476330471, 31.801022523832394, 31.601110284360082, 31.398841074732733, 31.196242985548867, 30.993644896364998, 30.791046807181132, 30.586117980099353, 30.38059152791554, 30.17506507573173, 29.96953862354792, 29.76171824656563, 29.552980299663947, 29.344242352762265, 29.13550440586058, 28.924523678671395, 28.71224069196043, 28.49995770524947, 28.28767471853851, 28.073219616929716, 27.85699464392269, 27.640769670915667, 27.42454469790864, 27.20624509145186, 26.985600247182315, 26.76495540291277, 26.544310558643225, 26.32172582639202, 26.09607811311714, 25.870430399842267, 25.64478268656739, 25.417382389732314, 25.186009570160792, 24.954636750589266, 24.723263931017744, 24.49040137137249, 24.25239243692707, 24.014383502481653, 23.77637456803624, 23.537249894021887, 23.29143078259393, 23.04561167116598, 22.799792559738027, 22.553400194303883, 22.2982179341082, 22.043035673912517, 21.78785341371683, 21.53267115352115, 21.26623867768547, 20.999571822357296, 20.732904967029118, 20.466238111700942, 20.18654739850422, 19.905376701458806, 19.62420600441339, 19.343035307367973, 19.046322545879324, 18.74611281989095, 18.445903093902576, 18.145693367914202, 17.82610405564582, 17.499516559443002, 17.172929063240183, 16.846341567037364, 16.493870685358395, 16.127649255145226, 15.76142782493206, 15.395206394718894, 14.989927273744865, 14.555354884700206, 14.120782495655549, 13.68621010661089, 13.17365461742933, 12.579866732271881, 11.986078847114433, 11.392290961956984, 9.936778931013759, 7.2317668886821025, 4.526754846350446, 1.8217428040187897, 0.0, 0.0, 0.0, 0.0, 0.0, 0.0, 0.0, 0.0, 0.0, 0.0, 0.0, 0.0, 0.0, 0.0, 0.0, 0.0], "weights": [[9.604332174023344e-05, 9.446603332642418e-05, -3.761948884872028e-05, -0.0007187480641259354, 0.0007321558258047763], [-0.0006643230873438623, -0.00011793619396909559, -0.00019053814234439845, -0.0001503366921299513, 1.2749542325671441e-06], [0.0007657045962522573, -0.0003398736902494319, -0.0006174289772268828, 0.00044643309857434035, -0.0001408521857598016], [-7.5830523327056316e-06, -0.00035981473354301005, -0.0006162337771835823, 0.00037701928829684584, 0.00014540502116854902], [-8.269001555680976e-05, 0.00043257379545068265, -0.00041201006554474116, 0.0005217728640259263, -0.0006812205907553281], [-0.0005331571579772649, 0.0003927416061374938, -2.76394163023011e-05, 0.0006316259132239703, -0.0001253993477704432], [0.00023738660011935603, -0.00015395562630660627, -0.0005071964957239167, -0.00019031850418090195, -0.0004457327873410274], [2.9344369098517045e-05, -0.00062869407323889, 0.0007660618843482436, 0.00030709260641988937, -0.0005351367739423432], [-9.79821844158752e-05, 0.00045318304551983623, -5.6359727185881654e-05, -0.0004799166537867391, 0.00035582087589510045], [7.557123887710077e-05, 0.0002895002197032379, 0.0005508178276701501, 0.00023036987110633639, -3.577802526342074e-05], [-0.00018805356227828284, -0.0003448972848521141, -0.00014945858419913996, -0.00042573220624672777, 6.490125030808309e-05], [-0.0006278820941676131, 0.0005774574956564911, -0.00027370325837872166, -2.8057503315332702e-05, 0.00025588826606901964], [-5.6559199604126994e-05, -0.0004531198357628456, 5.484327635348212e-05, -0.000441902096958526, -0.0006662272605510831], [-4.350753060108221e-05, 0.00037316981459466333, 0.00010363188095504627, -0.0003302846885008218, -1.5941800158760934e-05], [-7.787277466078887e-05, -0.0003865828018696838, -0.00010926053263950225, 0.00016354560114061913, -0.00032391664165787825], [-0.00022717439973802563, -1.5338512328309823e-05, 0.0007073082072046489, -5.738820221536678e-06, -0.00041129480535012533], [0.00018387610266224218, -7.531345146089925e-05, 0.0004119944855628074, 0.0007418796776369783, -0.0004658982919564039], [-0.0006860416199145204, -0.00029602806586126007, 0.0006909779231801748, -0.00019610981737753548, -0.0006569350332406395], [0.00046563774383142205, -0.0007392127088014072, -0.00013854623860867305, -0.0008229524428263196, -0.0002842349377521371], [-0.0004688288736214804, 0.0002641819218321373, -0.0006899950247813456, 0.0002079322645429439, -0.00010279140634080492], [-0.00019418946080176848, -0.0005109053874522083, -0.00032423460280818907, -0.00027426544931798895, 0.0007437011880054121], [-0.0007355503517737827, -0.00010984858012719892, 0.00014946269084775408, -9.165305072214098e-06, 0.0006488819474771898], [0.00040976682998204256, 0.000455024848902972, -0.0001537458949456261, 0.0005755043150814134, -0.00023429334869110914], [-0.0005120944076177915, -0.0001355652978679371, 0.00014972939960331897, -2.9175096053450354e-05, 0.0002866412404254974], [0.0001905473014523032, 0.00038950770541235037, -0.0006763027307844068, -6.1555367612976e-05, 0.00015471782352425393], [0.0004959842733357295, 0.0004334196473071579, 0.00010460675014272645, 0.00013198997840828893, 0.00047750874123503523], [6.670717548065136e-05, -0.000677976531629762, 0.0002224204980176867, -9.045640348497922e-05, -0.00010175287112039946], [0.0004343497923080461, 0.0002090879043457763, -0.0006126328651605775, -0.0005867272476926712, 5.0215035102640215e-05], [-0.0004621515129072944, -0.0005994746239871047, 0.00019617012240737375, 0.00048386591186676893, -0.0005672196705647077], [0.0005338309401715437, 0.0003328220240359287, 0.00011361677690624739, 0.00040203897602390456, 0.0007310915268916427], [-0.00019760757656699172, -2.4793948374214214e-05, 0.00029722174130761996, 0.0006772660013237271, -6.815901942979093e-07], [0.00033813442521108295, 3.8522546165948386e-05, -0.00045806165421825824, -0.000587137582233554, 4.521625047854624e-05], [-0.00026497527121032154, 0.0005909366921855464, 6.56458010857565e-05, 0.00026435971488814855, 0.0005501595217973956], [0.0005366573861333326, -2.6539658680645852e-05, -0.00013240266167849766, -0.0004421024631408631, 0.0006468390019242912], [0.0005082175328187179, -0.00030136043039567323, 0.00034073143531596284, -0.00010334797738532701, 8.416982662226758e-06], [-0.00042181625518293835, -0.00048930015203733, -0.0005491398296464595, 0.00020086374816221747, 0.0003205427432882905], [0.00037674515391675873, 0.00017137157001245078, 0.00016044884229176226, -0.0003491896664541516, 9.813075668129217e-05], [0.00023831981394721783, 0.0007656104452350934, 0.00017968474622055298, 7.750540046083247e-05, -0.0004663075768673482], [-0.00045988602617697574, -0.000223516505728381, -5.639999040122509e-05, 0.00029147817617094693, -0.00010088988111042176], [-0.00048136404805200424, 6.878281551603768e-05, -0.00028871490972174826, -0.0002309521774094181, 0.0007109140700014067], [-0.0003609630103768595, 0.0005464905267784718, -4.198983859093686e-05, -0.0002949528450395271, 0.00015444312099151177], [-0.0002740386754333062, 0.00033489930292172323, -0.0001759652943189454, 0.0003809929958527873, 0.0005427037510346748], [-0.0004914961735872403, -0.0005414105692249442, -0.0006449027843936191, 0.00013460076947897207, -4.778926681315785e-05], [0.0003302846622235998, -0.000343627588745171, 0.00046263135420156567, -0.00010297004210759089, -0.0006687145201738568], [0.0006375938007264462, 0.0008056075362895326, -6.790331322415179e-05, 0.00042162017934639417, -0.00045003896671174705], [0.00023666434595725328, 0.00016123776734787814, -0.00034603860232940305, -0.0003562242954340838, -0.0002869416142452126], [-0.0001959152009965304, -0.00037535404841260004, 8.164649143271575e-05, -3.8677245912401474e-05, -0.00038531271735992115], [-9.060885697186697e-05, -0.0008487853473784992, 0.0003566861086829415, 0.00011084260249075494, 7.467595047053846e-05], [0.0005364061828126802, 7.665996911953695e-05, -7.813773611816236e-05, -0.00027762175069627064, 0.00021347538010988562], [-6.530259093412988e-05, 0.00035571954845313556, -0.0003103405893059677, -0.00038266904370128064, 0.0002992579604908513]]}